65 300
in -0.046533 -0.030638 -0.042674 0.00063703 -0.037446 0.003073 -0.03519 0.025617 -0.015837 -0.014312 -0.028888 0.01562 -0.070978 -0.0051087 0.064963 -0.0064245 -0.036688 0.01988 -0.063541 0.026296 -0.007687 -0.0026765 -0.054241 0.047352 0.012238 -0.054346 0.072839 0.040299 -0.07946 -0.01342 -0.024471 0.0096417 -0.017647 0.047402 0.0081556 -0.029888 -0.03239 -0.051501 0.028344 0.038667 0.062812 0.026723 -0.090342 0.031146 0.056641 0.020942 0.01133 -0.085486 -0.017618 0.0075641 -0.0103 -0.10344 -0.030806 -0.049631 0.06855 -0.055746 0.0065516 0.030059 -0.073359 0.015688 -0.042681 -0.072915 0.028544 -0.017548 0.046371 -0.057827 0.024478 0.019225 -0.023171 -0.04523 0.0043283 -0.010411 0.014248 -0.0029566 -0.021237 0.00060288 -0.012813 -0.022235 -0.034774 0.087249 -0.052234 -0.035371 0.025092 0.022339 0.014241 -0.0011506 0.023762 0.049165 0.026605 -0.04896 0.0055942 0.038171 -0.0013498 -0.0059196 -0.017924 -0.051446 0.00064654 0.084812 0.064487 0.016641 -0.033238 0.070616 0.00096432 0.038296 -0.0051479 0.048104 -0.0093886 0.034467 0.018861 -0.013121 -0.017555 -0.0073298 -0.034127 -0.022853 0.051281 0.048535 0.014738 0.047565 -0.11448 0.00013472 -0.058516 0.0070623 -0.04011 -0.0068722 0.055663 -0.034826 0.027813 0.070393 -0.019254 -0.044117 -0.073426 -0.029199 0.034682 -0.0090651 -0.048613 -0.035899 -0.073189 0.017661 -0.0064276 0.051451 0.086173 0.039603 -0.038016 0.049953 -0.057756 -0.016075 -0.0072522 -0.019465 0.07826 -0.057784 -0.061681 0.038024 0.012373 -0.022333 -0.077926 0.045996 -0.026528 0.043713 -0.0051454 -0.010286 0.034185 0.03652 -0.04767 0.051615 0.010675 0.00094181 -0.026479 -0.065864 -0.017368 -0.015256 -0.0069673 -0.016404 -0.079827 -0.054623 -0.0095286 -0.023304 -0.025247 -0.055985 -0.048387 -0.019218 0.00016964 -0.069623 0.0070043 0.051682 0.035976 -0.018096 -0.0052418 0.040909 -0.0020815 -0.048622 0.059503 -0.013715 0.10151 -0.072496 -0.040166 -0.0077493 -0.0081165 0.016426 0.016102 -0.011503 0.024598 -0.0082647 -0.050142 -0.015674 0.014622 -0.050467 -0.0019162 0.038208 0.0022356 0.069547 -0.068457 -0.0032034 -0.044599 -0.035119 -0.05092 0.063649 -0.017624 0.023816 0.029819 -0.011735 0.005117 0.023187 -0.0049907 0.048858 -0.046264 0.0059218 0.019011 -0.013601 0.036363 -0.062957 0.017927 0.036327 -0.037785 0.023061 0.099751 -0.012745 0.042621 0.06795 -0.039886 0.0083967 0.030233 -0.0069894 -0.047668 -0.10742 -0.084106 -0.028968 0.073298 -0.0046378 0.018027 0.013011 -0.068388 -0.09538 -0.097605 0.055328 0.036113 -0.037127 0.028808 -0.031343 -0.003341 0.020207 0.12272 0.035412 0.04286 -0.035164 -0.0042132 0.036419 0.0052235 0.010294 0.02257 -0.03922 0.0008652 -0.009601 0.0657 0.025858 -0.033888 0.018226 0.088154 -0.018851 -0.0020176 0.016845 0.070539 0.034722 -0.0021962 -0.04398 0.012759 -0.016513 0.085443 0.0059548 -0.023047 0.066593 -0.027468 0.041345 -0.028386 -0.015642 -0.017656 -0.045831 0.030295 -0.070577 -0.035537 -0.066944 
</s> -0.0024882 0.0012768 -0.0044385 -0.0010542 -0.0018275 0.0028804 -0.0039685 0.0012543 0.0010035 0.0013448 -0.0030238 0.0038851 -0.0064448 0.0010466 0.0054622 -0.0022089 -0.0042616 -0.0015294 -0.0009128 0.0025464 0.0023554 0.0027616 -0.0032179 0.0031695 -0.0017091 -0.0015415 0.0067386 0.0015105 -0.0075638 -0.0024696 0.00090472 0.0023381 -0.001239 0.0055482 -0.00019937 0.00082785 -0.0010309 -0.0042157 0.0011024 0.0036742 0.0041849 0.0012873 -0.0064888 -0.000489 0.0029061 -0.00030119 0.0031238 -0.0051951 0.00057608 0.0025455 -0.0037231 -0.0078671 -0.0011811 -0.0051068 0.0033301 -0.0049896 0.00035039 0.0025882 -0.0026374 0.0011904 -0.0051368 -0.0032573 0.0025959 -0.0038247 0.00030302 -0.0025914 0.0015894 -0.0006606 -0.0017708 -0.0039589 0.0031517 0.00027958 0.001009 0.0011236 -0.0011889 0.0028262 0.00089213 0.0017578 0.00027207 0.0024593 -0.0026581 -0.001037 0.0040986 0.0030751 0.0041124 -3.4779e-05 0.00089112 0.0053603 -0.0016334 -0.0057307 0.00072694 0.00016147 0.00018161 0.00080959 -0.0030601 -0.0041828 8.2868e-05 0.0062803 0.0029807 0.0016696 -0.0033694 0.0056633 5.8131e-05 0.0027528 0.0027048 0.0057685 0.0010856 -0.0012361 0.0029624 0.00066213 -0.0011581 -0.0018662 -0.0035624 -0.00040814 0.0058506 0.003122 0.0018107 0.001904 -0.0084046 0.0029725 -0.00049913 -0.00065924 -0.0038374 -0.0034217 0.0041393 -0.0006812 0.0047654 0.0052136 0.0012933 -0.00015853 -0.0023436 -0.0045918 -0.0006963 -0.0011026 -0.002346 0.00032009 -0.0070739 0.0041269 0.0016336 0.0031614 0.0036852 0.0014058 0.00035044 0.0059956 -0.0017227 -0.0041577 -0.00067293 0.0018056 0.0038221 -0.0042815 -0.005214 0.0038817 0.0022462 -0.0012552 -0.0012695 0.0050323 -0.0032165 0.0042585 -0.0035041 0.0024492 0.0029654 0.0027456 -0.0042207 0.0025135 0.0030152 0.0017384 -0.0029341 -0.006734 -0.0028588 0.0005669 -0.0017391 -0.0011703 -0.00704 -0.00079366 -0.0020993 -0.0026918 -0.0036321 -0.0063952 -0.0012389 -0.0019646 -0.0025636 -0.0032496 0.0005429 0.0041055 0.0018074 -0.0020478 0.00055687 0.0041973 -0.0016441 -0.00032087 0.0053499 -0.00052154 0.0087859 -0.004374 -0.0015372 0.0021508 -0.00065124 -0.0020132 -0.001107 -0.0026589 0.004459 0.0012635 -0.00084354 -0.0023879 0.0024649 -0.001558 -0.002734 0.0012391 -0.0028089 0.0070212 -0.0037274 0.00109 -0.0042838 -0.0023831 -0.0049847 0.0048967 -0.0032204 -0.0014139 0.004222 -0.0029059 -0.0020537 0.002014 0.0018601 0.0017632 -0.0017825 0.0023558 0.0010657 -0.0029586 -0.00059724 -0.0058637 -0.0012177 0.0043092 -0.0036328 0.0010727 0.0069971 0.0013716 5.1359e-05 0.0020666 -0.0052011 0.0035111 -0.00028296 -0.00052236 -0.0041165 -0.0049957 -0.0022205 -0.0027993 0.0031164 -0.0036846 -0.00070668 0.0033431 -0.0057974 -0.0082032 -0.0088696 0.0052253 0.0034965 -0.0012789 0.0022311 -0.0018984 -5.637e-05 0.00035292 0.0040782 0.00075709 0.0052879 -0.0032497 0.001497 0.0030441 -0.0029173 -0.0014533 -0.0004557 0.00032515 -0.0006961 0.0016087 0.0069664 -0.0017674 -0.0030744 0.00028378 0.0059688 -0.0035841 -0.002169 -5.9541e-05 0.0057434 0.0037598 0.00069039 0.00090602 0.0028964 -0.0013185 0.0017733 0.00074423 -0.0041953 0.0069982 -0.0019326 0.0017679 -0.0043368 -0.0002021 -0.00080115 -0.0025701 -0.0010705 -0.0042411 -0.0041341 -0.0064128 
dolor -0.040978 -0.029401 -0.037248 0.00027917 -0.034215 0.0031404 -0.030956 0.021358 -0.015506 -0.013617 -0.025941 0.015801 -0.065014 -0.0066163 0.059859 -0.0049418 -0.032335 0.017265 -0.056621 0.024636 -0.0070545 -0.0016458 -0.050143 0.043855 0.010477 -0.049683 0.066699 0.037099 -0.072467 -0.013573 -0.021293 0.0086975 -0.016483 0.042819 0.005852 -0.028466 -0.028548 -0.045385 0.026498 0.036277 0.055553 0.022615 -0.082959 0.029267 0.050469 0.019309 0.010713 -0.076646 -0.014811 0.0058291 -0.0087851 -0.094406 -0.026894 -0.046244 0.063551 -0.052099 0.0070912 0.027961 -0.065636 0.014946 -0.038327 -0.065645 0.025313 -0.016961 0.041489 -0.054652 0.021576 0.017924 -0.021388 -0.042766 0.0039794 -0.0093349 0.013597 -0.0042423 -0.018496 0.00012261 -0.010909 -0.021019 -0.031521 0.080521 -0.047466 -0.033538 0.023128 0.021334 0.014753 -0.00028777 0.021165 0.046835 0.023839 -0.044589 0.0055949 0.033895 -0.0024328 -0.0032439 -0.01574 -0.046419 -0.0007698 0.077826 0.061748 0.014811 -0.030942 0.06444 -0.0018885 0.036334 -0.0070855 0.043341 -0.0058494 0.031536 0.018664 -0.013319 -0.016799 -0.0060122 -0.032471 -0.020082 0.046942 0.046062 0.0147 0.042934 -0.1036 -0.00094962 -0.051713 0.0056531 -0.036959 -0.005318 0.050698 -0.031796 0.027461 0.063371 -0.018233 -0.039964 -0.065978 -0.025489 0.031474 -0.0073684 -0.042489 -0.031564 -0.064719 0.015074 -0.0040926 0.046084 0.079594 0.035937 -0.035175 0.045356 -0.051459 -0.013955 -0.0055417 -0.017409 0.07153 -0.052044 -0.056892 0.034152 0.012501 -0.022048 -0.071031 0.04077 -0.02423 0.040938 -0.0055239 -0.010191 0.032195 0.033898 -0.044513 0.046479 0.0090912 -0.00099467 -0.022644 -0.060998 -0.015734 -0.014176 -0.0057526 -0.013981 -0.073992 -0.049631 -0.0057001 -0.020573 -0.021073 -0.050167 -0.043995 -0.018916 0.00092529 -0.063022 0.0042539 0.047584 0.032519 -0.016003 -0.004287 0.037068 -0.0016001 -0.045308 0.055695 -0.012189 0.091945 -0.066905 -0.037506 -0.0064149 -0.0086077 0.01438 0.016243 -0.010758 0.021408 -0.0063187 -0.04562 -0.01353 0.01267 -0.045165 -0.0014769 0.034308 -0.00051764 0.061139 -0.059908 -0.0039147 -0.041277 -0.030247 -0.045137 0.05686 -0.016243 0.0215 0.028585 -0.011106 0.0050657 0.021469 -0.0036661 0.043703 -0.041597 0.0032404 0.017546 -0.012572 0.034864 -0.058646 0.017174 0.033445 -0.032872 0.023118 0.091708 -0.011961 0.040076 0.060338 -0.038641 0.0087706 0.028283 -0.0061037 -0.042978 -0.096544 -0.076998 -0.02809 0.065592 -0.0067378 0.015399 0.010016 -0.062819 -0.08667 -0.089838 0.049486 0.03396 -0.033247 0.024842 -0.027806 -0.0040021 0.0186 0.11076 0.032468 0.039623 -0.032348 -0.0026376 0.03464 0.0057839 0.010443 0.020946 -0.036131 0.00066247 -0.010065 0.059816 0.024304 -0.031871 0.017276 0.079404 -0.016694 -0.0025335 0.017804 0.063721 0.032833 -0.0027273 -0.038495 0.010895 -0.01322 0.078239 0.0039015 -0.019726 0.060475 -0.02423 0.036324 -0.025728 -0.014767 -0.015293 -0.042897 0.029407 -0.064718 -0.034405 -0.060915 
dolore -0.045934 -0.03201 -0.041768 0.0013045 -0.03702 0.0036937 -0.03431 0.023962 -0.017847 -0.014688 -0.028618 0.016351 -0.070508 -0.0072723 0.065056 -0.0055765 -0.034711 0.018696 -0.060861 0.02661 -0.0074666 -0.0018506 -0.054077 0.047973 0.010676 -0.054752 0.072268 0.039802 -0.078625 -0.014545 -0.022567 0.0098781 -0.01808 0.047244 0.0071645 -0.031594 -0.031103 -0.049943 0.028786 0.039865 0.060478 0.024567 -0.090588 0.031682 0.05531 0.020709 0.012781 -0.083387 -0.016254 0.0062032 -0.0099962 -0.10293 -0.029441 -0.049703 0.069396 -0.056642 0.0078388 0.03042 -0.071743 0.016872 -0.042161 -0.072615 0.027465 -0.017893 0.045102 -0.059394 0.022944 0.019838 -0.023109 -0.045598 0.0048945 -0.010112 0.014731 -0.0040258 -0.020021 0.00040637 -0.012238 -0.022907 -0.034254 0.087504 -0.052075 -0.036878 0.025155 0.022937 0.016166 0.00015641 0.022905 0.050499 0.025427 -0.048552 0.0063561 0.03782 -0.002446 -0.0038658 -0.017576 -0.049988 -0.00072873 0.0851 0.066356 0.016061 -0.033553 0.070414 -0.0010854 0.039419 -0.0075975 0.047314 -0.0068884 0.033692 0.020201 -0.013442 -0.017735 -0.0056799 -0.034683 -0.022496 0.050976 0.050141 0.015666 0.046612 -0.1124 -0.00050657 -0.056813 0.0063294 -0.040789 -0.0061481 0.055039 -0.034057 0.030108 0.069777 -0.020146 -0.043929 -0.07261 -0.028386 0.034257 -0.0084438 -0.046366 -0.034721 -0.070195 0.017138 -0.0048392 0.050242 0.086425 0.038885 -0.038328 0.049903 -0.056196 -0.014525 -0.0066513 -0.019032 0.077966 -0.056887 -0.060966 0.036921 0.013553 -0.024347 -0.077284 0.044935 -0.026609 0.044867 -0.005527 -0.010884 0.034827 0.037441 -0.048399 0.051203 0.010417 -0.00074934 -0.024479 -0.067298 -0.017523 -0.014556 -0.0062258 -0.014751 -0.080011 -0.054072 -0.0074966 -0.022702 -0.022851 -0.054514 -0.048017 -0.020135 0.00091742 -0.068017 0.0045968 0.0517 0.035565 -0.018416 -0.0048393 0.040692 -0.0021913 -0.049457 0.061343 -0.012971 0.10073 -0.073269 -0.041051 -0.0067224 -0.008709 0.016395 0.017687 -0.011657 0.022871 -0.0074471 -0.050574 -0.015377 0.013409 -0.048155 -0.00085003 0.037778 0.00014899 0.068109 -0.065952 -0.0037857 -0.044383 -0.032632 -0.049467 0.062282 -0.018238 0.023858 0.030654 -0.01237 0.0054303 0.023551 -0.0046832 0.047708 -0.045638 0.0037818 0.018836 -0.01351 0.03781 -0.063961 0.018859 0.036098 -0.03582 0.025904 0.099404 -0.013265 0.043545 0.065615 -0.042557 0.0091973 0.031459 -0.0070395 -0.046365 -0.10581 -0.084305 -0.030883 0.071162 -0.0068608 0.017606 0.011149 -0.068051 -0.094388 -0.09783 0.05354 0.037025 -0.036502 0.027873 -0.030815 -0.0043391 0.020157 0.12081 0.035086 0.043203 -0.035319 -0.0021668 0.037251 0.0060497 0.01211 0.02214 -0.038867 0.00016945 -0.010934 0.06586 0.026611 -0.035191 0.018718 0.086878 -0.017667 -0.0022212 0.018902 0.069966 0.035186 -0.0030809 -0.042058 0.011685 -0.015242 0.085753 0.0049623 -0.021979 0.06543 -0.026985 0.040485 -0.028045 -0.015599 -0.016085 -0.0464 0.031737 -0.07094 -0.037716 -0.06691 
ut -0.025306 -0.019406 -0.024776 -0.0014046 -0.022217 0.0027283 -0.019205 0.012512 -0.0097116 -0.010626 -0.017983 0.010616 -0.040666 -0.0029216 0.037538 -0.0026104 -0.021173 0.01083 -0.035885 0.014346 -0.004855 -0.00071382 -0.033688 0.02926 0.0068585 -0.034628 0.044911 0.026019 -0.046589 -0.010213 -0.013414 0.0071433 -0.0093832 0.029607 0.0038959 -0.01866 -0.016929 -0.030398 0.016531 0.023059 0.037997 0.014421 -0.05399 0.019002 0.034679 0.012693 0.0089696 -0.049652 -0.010439 0.0038294 -0.0062043 -0.061362 -0.017137 -0.029261 0.039246 -0.033932 0.0038816 0.017911 -0.042607 0.0084359 -0.024721 -0.041536 0.015807 -0.010861 0.026357 -0.035229 0.014601 0.011919 -0.01444 -0.027737 0.0046998 -0.0060458 0.010327 -0.0029993 -0.012469 0.0012276 -0.0077673 -0.013001 -0.020599 0.051663 -0.031741 -0.022217 0.015807 0.013721 0.0098492 -0.00020159 0.013531 0.029135 0.015815 -0.028325 0.0025859 0.021392 -0.0012604 -0.0028663 -0.0097654 -0.03088 0.001439 0.051127 0.039311 0.0098024 -0.02027 0.041933 -0.00062143 0.023923 -0.0050967 0.030186 -0.0027685 0.018767 0.012832 -0.0082452 -0.011708 -0.0028906 -0.02239 -0.01289 0.031108 0.031362 0.0086888 0.027349 -0.069251 0.0011143 -0.035552 0.0038451 -0.023359 -0.0049031 0.035216 -0.021959 0.017566 0.042078 -0.010267 -0.02596 -0.043456 -0.016173 0.020137 -0.0060082 -0.027813 -0.019476 -0.043464 0.0091523 -0.0026686 0.031184 0.054008 0.02465 -0.021421 0.030669 -0.033389 -0.0098742 -0.0051852 -0.010855 0.046746 -0.033852 -0.037638 0.024014 0.0084518 -0.014378 -0.045778 0.027229 -0.015515 0.027479 -0.0043928 -0.0067493 0.01945 0.021897 -0.029858 0.031523 0.0060856 -0.00073232 -0.017415 -0.040041 -0.010606 -0.0082182 -0.0051964 -0.010046 -0.046864 -0.031366 -0.0056854 -0.014436 -0.012431 -0.033175 -0.028282 -0.010143 0.00023417 -0.041058 0.0032999 0.030975 0.021966 -0.0093484 -0.0020315 0.022693 -0.00090764 -0.029181 0.036091 -0.0083782 0.061978 -0.043935 -0.02458 -0.0024883 -0.0060271 0.0077082 0.012044 -0.0066677 0.015295 -0.0045843 -0.03072 -0.0076121 0.0096747 -0.029756 -0.00052957 0.021325 0.0012636 0.040722 -0.040561 -0.0027974 -0.027618 -0.020614 -0.029076 0.037058 -0.010993 0.01557 0.016339 -0.0068563 0.0035837 0.013544 -0.002368 0.027458 -0.026435 0.0034342 0.011348 -0.0080833 0.022983 -0.037801 0.010177 0.021024 -0.02153 0.01317 0.060391 -0.0095691 0.025449 0.040281 -0.026258 0.005689 0.016001 -0.003479 -0.02844 -0.062083 -0.048015 -0.016481 0.043942 -0.0039131 0.011592 0.0071719 -0.040852 -0.056057 -0.058815 0.032675 0.021797 -0.022192 0.016697 -0.016913 -0.0025605 0.014233 0.070711 0.022071 0.025893 -0.021029 -0.0018363 0.021361 0.001832 0.0066963 0.013717 -0.022274 -0.00033292 -0.0066949 0.03975 0.013118 -0.022326 0.01126 0.053503 -0.0086858 -0.0031311 0.012408 0.042495 0.019682 -0.00055669 -0.024628 0.006929 -0.010036 0.052107 0.0031086 -0.013753 0.036294 -0.01545 0.024267 -0.016902 -0.0088335 -0.011022 -0.028178 0.019655 -0.041274 -0.022043 -0.040174 
Excepteur -0.044527 -0.031318 -0.040752 0.00069211 -0.03552 0.0029848 -0.033668 0.023365 -0.017974 -0.014034 -0.026977 0.015239 -0.069457 -0.0074351 0.063115 -0.0054215 -0.033822 0.017841 -0.059318 0.025743 -0.0078348 -0.0017484 -0.05341 0.04626 0.010854 -0.053909 0.070304 0.038685 -0.076896 -0.013954 -0.022456 0.0092842 -0.017821 0.046485 0.0068439 -0.030703 -0.029883 -0.049163 0.028279 0.038416 0.05881 0.024223 -0.087802 0.030392 0.053934 0.018984 0.012194 -0.081688 -0.016108 0.0062592 -0.0092585 -0.10002 -0.02827 -0.049144 0.067538 -0.054602 0.0077845 0.028212 -0.070395 0.015791 -0.041502 -0.070822 0.026976 -0.017506 0.044325 -0.05809 0.023778 0.019138 -0.022871 -0.04479 0.0040507 -0.010295 0.014096 -0.0039054 -0.01955 0.00046845 -0.011052 -0.022905 -0.03387 0.084402 -0.051149 -0.035038 0.02446 0.022335 0.015452 5.896e-06 0.023446 0.048197 0.024805 -0.047536 0.0057387 0.037351 -0.0022082 -0.0040049 -0.01765 -0.048177 -0.00032148 0.082646 0.064834 0.015351 -0.033316 0.067824 -0.00070433 0.038334 -0.0078962 0.04613 -0.0067672 0.032227 0.020021 -0.012707 -0.017769 -0.0056754 -0.033612 -0.021936 0.050029 0.049157 0.015106 0.0453 -0.11088 -0.00072996 -0.055941 0.0059664 -0.039805 -0.0053992 0.054182 -0.032767 0.028852 0.067709 -0.018845 -0.043055 -0.070455 -0.027428 0.033003 -0.0087045 -0.046863 -0.033955 -0.068663 0.016723 -0.0047666 0.04939 0.084081 0.038247 -0.036693 0.049355 -0.055179 -0.014863 -0.0062996 -0.018601 0.076373 -0.055065 -0.059846 0.036411 0.013346 -0.023735 -0.075579 0.043756 -0.025829 0.043406 -0.0062937 -0.010175 0.033795 0.03591 -0.047034 0.049355 0.010155 -0.00077179 -0.024251 -0.064493 -0.016569 -0.013805 -0.0065846 -0.014472 -0.077781 -0.051942 -0.0078495 -0.021779 -0.022915 -0.052768 -0.04594 -0.019197 0.00070027 -0.067431 0.0052693 0.050655 0.034288 -0.017128 -0.0042772 0.038834 -0.0018618 -0.047303 0.059648 -0.013021 0.098324 -0.070911 -0.039382 -0.0071335 -0.0092756 0.016003 0.017906 -0.011571 0.022779 -0.0069618 -0.049194 -0.014303 0.012556 -0.046274 -0.0014014 0.037102 0.0014005 0.065436 -0.064037 -0.0037066 -0.043653 -0.032424 -0.048381 0.060826 -0.017275 0.022827 0.029493 -0.011678 0.00587 0.022313 -0.0034738 0.046429 -0.044035 0.0045451 0.018011 -0.012238 0.036767 -0.062243 0.018293 0.034446 -0.034748 0.024693 0.096846 -0.012872 0.042295 0.063886 -0.041314 0.0084104 0.030129 -0.0063642 -0.045903 -0.10335 -0.082819 -0.029701 0.070213 -0.0074555 0.016934 0.010993 -0.065931 -0.091413 -0.09489 0.052369 0.034898 -0.036876 0.026678 -0.029496 -0.0048047 0.01916 0.11835 0.034331 0.041714 -0.034603 -0.0028878 0.036966 0.0058346 0.011482 0.022424 -0.037311 0.00048808 -0.010807 0.063502 0.02599 -0.033694 0.018128 0.085076 -0.01662 -0.0031555 0.018371 0.068569 0.034738 -0.0024137 -0.0418 0.012598 -0.014921 0.083752 0.0049011 -0.021468 0.06383 -0.025901 0.039088 -0.026514 -0.016067 -0.016537 -0.044649 0.029905 -0.068307 -0.036531 -0.065902 
Duis -0.044156 -0.029795 -0.040137 0.00037593 -0.035305 0.0041388 -0.03351 0.023761 -0.016624 -0.013695 -0.02685 0.01534 -0.069243 -0.006519 0.062183 -0.005403 -0.034308 0.018299 -0.060104 0.026582 -0.0088812 -0.0014439 -0.053642 0.046842 0.01108 -0.054524 0.070841 0.039219 -0.075814 -0.014262 -0.022168 0.0097966 -0.017841 0.045711 0.007495 -0.029953 -0.02894 -0.049364 0.029009 0.039361 0.059741 0.023681 -0.087846 0.029128 0.054833 0.019794 0.012796 -0.081227 -0.016282 0.006472 -0.0089687 -0.10071 -0.029743 -0.047984 0.066668 -0.054651 0.0075953 0.029225 -0.070103 0.015725 -0.040988 -0.071099 0.027406 -0.017986 0.044906 -0.056046 0.023 0.018457 -0.022607 -0.045299 0.0039541 -0.011188 0.015215 -0.0029565 -0.020058 0.00012893 -0.012125 -0.022311 -0.032558 0.0849 -0.050332 -0.035792 0.023449 0.022645 0.016051 -0.0008612 0.021885 0.048721 0.025701 -0.047279 0.0066182 0.036886 -0.0019902 -0.0035195 -0.017016 -0.048803 -0.0019262 0.082707 0.06432 0.015802 -0.031933 0.068463 0.00011739 0.037293 -0.0073711 0.045969 -0.0067803 0.03273 0.0199 -0.012812 -0.017393 -0.0059699 -0.033436 -0.022413 0.050191 0.048842 0.015258 0.045893 -0.11046 -0.00029259 -0.054567 0.0072322 -0.040167 -0.0060271 0.054454 -0.033549 0.028698 0.068568 -0.018781 -0.042348 -0.070604 -0.027475 0.033393 -0.0076602 -0.045129 -0.034304 -0.069832 0.016227 -0.0051474 0.049578 0.08371 0.039207 -0.036467 0.049323 -0.056266 -0.013803 -0.0074997 -0.019817 0.076401 -0.055058 -0.060137 0.036697 0.013144 -0.02326 -0.075009 0.044821 -0.025469 0.044282 -0.0053671 -0.011108 0.033581 0.036274 -0.046605 0.050397 0.0107 -0.00054848 -0.025007 -0.063094 -0.016575 -0.013198 -0.0061307 -0.015075 -0.078756 -0.052842 -0.0069267 -0.022019 -0.022723 -0.052992 -0.04663 -0.019712 0.0010663 -0.066972 0.00609 0.05068 0.03379 -0.015909 -0.0046397 0.039648 -0.002604 -0.048511 0.058356 -0.013715 0.098196 -0.071423 -0.040474 -0.0072784 -0.0086486 0.015167 0.01744 -0.011242 0.023015 -0.0077738 -0.048871 -0.014374 0.013402 -0.047441 -0.0013609 0.03638 0.000868 0.066462 -0.06425 -0.0035573 -0.043709 -0.031696 -0.046977 0.061756 -0.017504 0.022977 0.029556 -0.011914 0.0056448 0.023726 -0.0036601 0.045924 -0.044219 0.0040706 0.01908 -0.012589 0.036312 -0.062475 0.018503 0.034095 -0.035396 0.0243 0.096551 -0.012132 0.041714 0.063493 -0.040882 0.0087556 0.030081 -0.0057891 -0.04528 -0.10353 -0.08154 -0.028837 0.070766 -0.006269 0.016865 0.011536 -0.066486 -0.09232 -0.09644 0.052084 0.034102 -0.035627 0.027388 -0.030531 -0.0034178 0.020862 0.11738 0.035138 0.042233 -0.033717 -0.002329 0.036303 0.0055786 0.012019 0.021682 -0.037867 -0.00026869 -0.008871 0.064361 0.025502 -0.033732 0.017469 0.084144 -0.017006 -0.0023818 0.01771 0.067649 0.034826 -0.0041026 -0.041933 0.012514 -0.014517 0.083301 0.0049121 -0.022372 0.063633 -0.026217 0.039665 -0.028001 -0.016103 -0.017949 -0.044827 0.030044 -0.068202 -0.036857 -0.065338 
pariatur. -0.041247 -0.029007 -0.037466 0.00083363 -0.032843 0.0031465 -0.030717 0.021941 -0.01642 -0.013262 -0.025021 0.014089 -0.064125 -0.0062064 0.058066 -0.0054714 -0.031662 0.016287 -0.055827 0.023508 -0.0073179 -0.0011142 -0.049041 0.042889 0.010305 -0.050207 0.065226 0.035787 -0.070962 -0.013704 -0.020396 0.0095746 -0.016093 0.042968 0.0061568 -0.028339 -0.027442 -0.044982 0.026438 0.036371 0.055324 0.022016 -0.082332 0.028527 0.050896 0.017661 0.011048 -0.076239 -0.015228 0.0058941 -0.0084914 -0.093621 -0.026513 -0.045079 0.06271 -0.051018 0.0073263 0.026281 -0.065178 0.014457 -0.037971 -0.065521 0.024356 -0.01607 0.041209 -0.053184 0.021263 0.017079 -0.020621 -0.041619 0.0037647 -0.0098486 0.012729 -0.0035831 -0.018522 0.00038376 -0.01107 -0.021295 -0.030924 0.078421 -0.048249 -0.033726 0.022376 0.020934 0.014283 -0.00068401 0.020877 0.045063 0.022803 -0.044621 0.0060288 0.034506 -0.0015227 -0.002815 -0.016359 -0.044821 -0.00030361 0.076237 0.059795 0.014477 -0.030485 0.063132 -0.00027799 0.036016 -0.0068341 0.042574 -0.0063795 0.030438 0.018277 -0.012029 -0.016397 -0.0049891 -0.031169 -0.020592 0.045735 0.045736 0.013466 0.041343 -0.10252 -0.00042927 -0.051489 0.0061295 -0.036984 -0.0050174 0.050742 -0.030864 0.026385 0.063158 -0.017736 -0.039489 -0.06598 -0.025211 0.030673 -0.0081195 -0.043187 -0.031528 -0.063468 0.015832 -0.004765 0.046969 0.078027 0.036111 -0.033493 0.045523 -0.051379 -0.01375 -0.0068941 -0.017563 0.071082 -0.051443 -0.055953 0.03383 0.012366 -0.022113 -0.06988 0.041642 -0.024039 0.040128 -0.0055863 -0.0095855 0.031223 0.03434 -0.043592 0.046719 0.0090361 -0.00067774 -0.022833 -0.059799 -0.015198 -0.013031 -0.0054453 -0.013355 -0.072743 -0.048905 -0.0069229 -0.020374 -0.021185 -0.04959 -0.0435 -0.018336 0.00043187 -0.0626 0.004285 0.046732 0.032692 -0.016098 -0.0036884 0.036903 -0.0019059 -0.04484 0.055291 -0.012458 0.09098 -0.065979 -0.036652 -0.0069803 -0.0084975 0.01452 0.016691 -0.010155 0.021629 -0.0060838 -0.045711 -0.013809 0.012366 -0.043673 -0.0012751 0.034697 0.00076453 0.06141 -0.059323 -0.003968 -0.040738 -0.029581 -0.044038 0.056463 -0.016555 0.021268 0.028033 -0.011443 0.0059513 0.022043 -0.0041537 0.042623 -0.041286 0.0038399 0.01666 -0.011957 0.034767 -0.057885 0.016512 0.031795 -0.031661 0.02345 0.090868 -0.011771 0.038815 0.059986 -0.0384 0.0079209 0.027574 -0.0065422 -0.042488 -0.096112 -0.076542 -0.027383 0.064846 -0.0055798 0.015909 0.010631 -0.061403 -0.08568 -0.089227 0.049145 0.032467 -0.033925 0.024559 -0.027556 -0.0039141 0.018463 0.10947 0.032757 0.038377 -0.031446 -0.0025488 0.034097 0.0043288 0.010804 0.020214 -0.034544 -3.9956e-05 -0.0096883 0.059109 0.023774 -0.031617 0.016994 0.07966 -0.01574 -0.0025799 0.017555 0.063315 0.031788 -0.0024721 -0.038229 0.011212 -0.013839 0.076857 0.0050526 -0.02064 0.059024 -0.023961 0.036674 -0.025417 -0.014332 -0.014835 -0.04164 0.028475 -0.063446 -0.033168 -0.060021 
nulla -0.039323 -0.027106 -0.035532 0.0012441 -0.031842 0.0032458 -0.029863 0.01993 -0.015025 -0.012486 -0.024401 0.014376 -0.061314 -0.0060678 0.054555 -0.0050111 -0.029824 0.016148 -0.053454 0.022602 -0.007271 -0.00095742 -0.047281 0.041565 0.0098089 -0.047799 0.062427 0.034388 -0.068468 -0.012327 -0.019718 0.0085571 -0.015232 0.041547 0.0061713 -0.026517 -0.026499 -0.04369 0.025509 0.034496 0.05236 0.021263 -0.078595 0.027089 0.04834 0.01725 0.010456 -0.073001 -0.014336 0.0052428 -0.0076077 -0.088956 -0.024274 -0.043961 0.060016 -0.049562 0.0069503 0.024625 -0.063051 0.013536 -0.036378 -0.062373 0.023781 -0.01526 0.040071 -0.050828 0.020686 0.016893 -0.020203 -0.040214 0.0044177 -0.008568 0.012712 -0.0030932 -0.017778 0.0017417 -0.0098869 -0.020319 -0.028798 0.075737 -0.045446 -0.032329 0.021734 0.020678 0.014021 0.00052531 0.020282 0.042329 0.022943 -0.042924 0.006139 0.033568 -0.0017087 -0.0032139 -0.01544 -0.044021 -0.00053933 0.073371 0.057912 0.013192 -0.029536 0.060814 -0.0014679 0.034308 -0.0079627 0.040563 -0.0060466 0.028791 0.01768 -0.012509 -0.014859 -0.0042953 -0.030894 -0.018581 0.044105 0.04375 0.013261 0.040528 -0.098494 0.00053126 -0.049563 0.0053772 -0.03568 -0.0048156 0.048149 -0.029734 0.026429 0.060178 -0.017479 -0.037268 -0.063158 -0.024693 0.028913 -0.0078661 -0.040791 -0.030556 -0.061067 0.015316 -0.0046641 0.043708 0.073937 0.034035 -0.033028 0.044013 -0.049749 -0.012449 -0.0060475 -0.01525 0.067786 -0.049003 -0.05335 0.032101 0.011663 -0.021374 -0.066854 0.039459 -0.023382 0.039996 -0.005032 -0.0084491 0.030432 0.031573 -0.041798 0.045104 0.0094395 -0.0015026 -0.020994 -0.057389 -0.01485 -0.012559 -0.0053636 -0.013863 -0.069725 -0.046799 -0.0066621 -0.018485 -0.019763 -0.047081 -0.040695 -0.017069 0.00044862 -0.060435 0.0040371 0.045169 0.031029 -0.015128 -0.0046874 0.034917 -0.0025091 -0.041704 0.05249 -0.012201 0.088306 -0.062775 -0.035047 -0.0059337 -0.0094394 0.01379 0.015351 -0.0098561 0.019702 -0.0060282 -0.043065 -0.012739 0.01208 -0.042053 -0.0010903 0.033235 0.00030098 0.059258 -0.057341 -0.0031578 -0.038874 -0.029059 -0.042354 0.053371 -0.016258 0.020394 0.026371 -0.010537 0.0058638 0.020239 -0.00421 0.041306 -0.038899 0.0036643 0.016036 -0.011478 0.032524 -0.054904 0.015847 0.031048 -0.031112 0.020838 0.086802 -0.011543 0.03746 0.057201 -0.037474 0.0083284 0.025812 -0.0057066 -0.041557 -0.091577 -0.07361 -0.025898 0.062464 -0.0057595 0.015096 0.010554 -0.058881 -0.082518 -0.084924 0.046138 0.030836 -0.03202 0.024239 -0.026496 -0.0033894 0.017042 0.104 0.030859 0.037301 -0.031172 -0.0022566 0.031976 0.0047665 0.010385 0.019332 -0.032649 -0.00043718 -0.0091269 0.057417 0.022244 -0.029932 0.015828 0.076577 -0.015205 -0.0020863 0.016049 0.060363 0.030538 -0.0018195 -0.035896 0.010679 -0.013932 0.07374 0.0046573 -0.019521 0.055914 -0.023352 0.035749 -0.023313 -0.013384 -0.014088 -0.04023 0.026971 -0.061155 -0.032277 -0.056939 
fugiat -0.048142 -0.033666 -0.044275 -0.00012248 -0.038443 0.0031306 -0.036287 0.02497 -0.018252 -0.015804 -0.029919 0.016923 -0.075077 -0.0076388 0.067123 -0.0065073 -0.037346 0.02005 -0.065851 0.028183 -0.0089405 -0.0016373 -0.057128 0.051059 0.012318 -0.057955 0.076662 0.042848 -0.083486 -0.01541 -0.024323 0.010841 -0.019639 0.050515 0.0077364 -0.03281 -0.032596 -0.053551 0.03051 0.041606 0.06438 0.026816 -0.096406 0.033193 0.059846 0.021599 0.013059 -0.088297 -0.016819 0.007421 -0.0099276 -0.109 -0.030392 -0.052831 0.073352 -0.060499 0.0078159 0.031274 -0.07715 0.017093 -0.044385 -0.076642 0.029298 -0.019502 0.048088 -0.061885 0.025214 0.020132 -0.02457 -0.048391 0.005033 -0.012091 0.016089 -0.0040483 -0.022401 0.0013602 -0.012643 -0.024109 -0.035809 0.092644 -0.054849 -0.03864 0.026253 0.024689 0.017554 -0.0002334 0.024675 0.052522 0.027837 -0.051655 0.0067292 0.039839 -0.0020551 -0.004332 -0.018456 -0.0535 -0.00093502 0.08954 0.070598 0.01701 -0.035791 0.074697 -0.001034 0.040753 -0.0084992 0.050281 -0.0073025 0.035921 0.021293 -0.014624 -0.01888 -0.0061036 -0.036489 -0.02382 0.054467 0.052914 0.016041 0.04943 -0.12035 -0.00033781 -0.060483 0.006676 -0.043849 -0.0062739 0.059177 -0.036212 0.031696 0.074452 -0.020723 -0.0463 -0.077277 -0.029741 0.036 -0.0091818 -0.04937 -0.036687 -0.07473 0.01826 -0.0058304 0.054082 0.091763 0.041211 -0.039361 0.053071 -0.060814 -0.015851 -0.0074015 -0.020591 0.08318 -0.059764 -0.064883 0.040103 0.014269 -0.025804 -0.08193 0.048203 -0.027514 0.047694 -0.0062648 -0.010928 0.036206 0.039444 -0.051147 0.054861 0.011726 -0.00031974 -0.02662 -0.069788 -0.01844 -0.015233 -0.0059385 -0.016424 -0.085302 -0.056902 -0.008387 -0.024208 -0.024852 -0.057221 -0.051369 -0.020309 3.0431e-05 -0.07284 0.0056543 0.055159 0.038077 -0.019149 -0.0051892 0.042295 -0.0026022 -0.052807 0.064276 -0.014675 0.10722 -0.076789 -0.043121 -0.0078493 -0.0092937 0.016813 0.018764 -0.011528 0.024239 -0.0074169 -0.053364 -0.016679 0.014496 -0.050693 -0.0012991 0.040073 0.00057785 0.072742 -0.070033 -0.0046234 -0.048142 -0.034905 -0.052148 0.065828 -0.01952 0.02498 0.031632 -0.012458 0.0058444 0.025516 -0.0047814 0.050768 -0.048281 0.0045767 0.020299 -0.01386 0.03935 -0.067341 0.019189 0.037666 -0.038221 0.026178 0.10585 -0.01428 0.045282 0.069408 -0.04449 0.0089727 0.032423 -0.0071668 -0.049778 -0.11244 -0.088946 -0.031499 0.07538 -0.0066206 0.017776 0.011565 -0.072074 -0.099576 -0.10411 0.057013 0.037479 -0.038638 0.029706 -0.032244 -0.0039103 0.021872 0.12794 0.037184 0.044649 -0.037379 -0.0030204 0.039803 0.0058531 0.011859 0.024165 -0.040272 0.00010784 -0.011253 0.068775 0.027673 -0.036914 0.018752 0.092611 -0.01815 -0.0035241 0.019584 0.073643 0.037706 -0.0030118 -0.045216 0.012837 -0.015783 0.090657 0.0059041 -0.024107 0.069485 -0.028011 0.043746 -0.030208 -0.016149 -0.018021 -0.048695 0.033707 -0.075711 -0.038647 -0.07021 
eu -0.037353 -0.027362 -0.033909 -0.00039969 -0.030222 0.0015911 -0.028232 0.01786 -0.014257 -0.011448 -0.023139 0.012031 -0.056435 -0.006617 0.052981 -0.0060826 -0.03028 0.015707 -0.052398 0.023712 -0.0064432 -0.0014718 -0.045118 0.039253 0.0097602 -0.04558 0.05964 0.0343 -0.063687 -0.011909 -0.01895 0.0067809 -0.014778 0.039186 0.0058757 -0.025614 -0.023893 -0.0399 0.024129 0.033742 0.048303 0.019461 -0.07657 0.02474 0.046677 0.016832 0.009885 -0.068296 -0.01399 0.0055226 -0.0069431 -0.085845 -0.023411 -0.042923 0.057427 -0.047182 0.0060256 0.024146 -0.058223 0.013072 -0.033671 -0.058119 0.023982 -0.015719 0.03739 -0.048472 0.020311 0.014984 -0.018643 -0.036795 0.0035241 -0.009675 0.013851 -0.0034445 -0.017347 -0.00023894 -0.010806 -0.019534 -0.028022 0.071355 -0.044949 -0.032786 0.020467 0.01806 0.013505 -0.00017721 0.018355 0.040541 0.021265 -0.041678 0.0039899 0.029847 -0.0031074 -0.0041961 -0.014325 -0.041482 -0.0010772 0.070444 0.055681 0.012827 -0.02892 0.057256 -4.8651e-05 0.032088 -0.0079271 0.038938 -0.0053851 0.028593 0.017836 -0.011032 -0.01478 -0.0058081 -0.030188 -0.019595 0.041325 0.040432 0.011999 0.038629 -0.093789 -0.0011015 -0.046322 0.0045352 -0.03474 -0.0044491 0.045891 -0.028638 0.026874 0.057225 -0.01696 -0.034866 -0.058644 -0.022931 0.028788 -0.0083569 -0.037923 -0.029953 -0.058198 0.013038 -0.0032861 0.043514 0.072637 0.030691 -0.0306 0.040851 -0.047351 -0.011646 -0.0056477 -0.017128 0.06462 -0.047185 -0.050766 0.029978 0.010825 -0.020542 -0.064268 0.037026 -0.020089 0.038004 -0.0054114 -0.0092003 0.027351 0.031467 -0.040654 0.044036 0.0079458 -0.00071975 -0.021276 -0.053588 -0.015251 -0.013233 -0.003868 -0.011949 -0.06566 -0.045887 -0.0042648 -0.018674 -0.020515 -0.044458 -0.040253 -0.01698 0.00063857 -0.055777 0.0039248 0.044001 0.030203 -0.014351 -0.0037253 0.034033 -0.0037416 -0.040934 0.048791 -0.011211 0.084519 -0.061822 -0.033333 -0.0066846 -0.0083088 0.013647 0.012507 -0.0074329 0.020559 -0.0058292 -0.041749 -0.012164 0.012664 -0.039248 -0.0017567 0.029393 -0.00041987 0.053412 -0.052871 -0.0033727 -0.038903 -0.027484 -0.041462 0.050878 -0.01633 0.020644 0.024052 -0.0084396 0.0041456 0.020994 -0.0032324 0.040335 -0.038481 0.0022649 0.016631 -0.01163 0.031659 -0.053354 0.017033 0.029549 -0.030608 0.018608 0.082025 -0.010255 0.035669 0.053879 -0.033498 0.0072816 0.025403 -0.0045653 -0.039523 -0.085859 -0.070905 -0.02492 0.060729 -0.0052671 0.013448 0.007041 -0.056404 -0.07653 -0.080863 0.043212 0.029184 -0.031704 0.021531 -0.024142 -0.0025314 0.017274 0.10082 0.027916 0.03469 -0.028931 -0.0019323 0.031362 0.0028475 0.011214 0.01915 -0.033227 0.00060354 -0.0083034 0.054478 0.022637 -0.029832 0.013599 0.072118 -0.013603 -0.0011195 0.015972 0.056146 0.030863 -0.0022054 -0.034718 0.0084416 -0.011443 0.070707 0.0030446 -0.018977 0.054948 -0.022455 0.031931 -0.02418 -0.012363 -0.014807 -0.038616 0.025805 -0.05869 -0.030805 -0.055253 
cillum -0.039623 -0.027379 -0.035879 0.00086196 -0.031173 0.0028234 -0.030071 0.020825 -0.015558 -0.012121 -0.02389 0.01421 -0.062027 -0.0065 0.055776 -0.0048057 -0.030381 0.01543 -0.053143 0.022576 -0.0075001 -0.0019001 -0.046938 0.0409 0.010445 -0.047691 0.062897 0.035282 -0.067717 -0.012717 -0.019831 0.0081598 -0.016523 0.040799 0.0062605 -0.027855 -0.027068 -0.043497 0.025415 0.034584 0.052089 0.02165 -0.078894 0.026389 0.04797 0.017252 0.01043 -0.073032 -0.014477 0.005584 -0.0077619 -0.089903 -0.025382 -0.043778 0.060048 -0.049208 0.0067553 0.025049 -0.062513 0.014823 -0.036903 -0.062597 0.023551 -0.015405 0.039663 -0.051461 0.020346 0.01735 -0.019502 -0.04008 0.0034437 -0.0088056 0.012477 -0.0030963 -0.018578 4.6648e-05 -0.010562 -0.019405 -0.029224 0.075757 -0.045707 -0.031356 0.021358 0.020164 0.013896 -0.00074664 0.019942 0.044069 0.022127 -0.042417 0.0051495 0.033071 -0.0018045 -0.0028404 -0.015719 -0.042977 -0.00087877 0.073788 0.057852 0.014061 -0.029608 0.061263 6.3018e-05 0.033967 -0.0065405 0.039983 -0.0056221 0.029235 0.017083 -0.011621 -0.015932 -0.0045572 -0.030043 -0.019833 0.044761 0.044374 0.013396 0.040649 -0.099143 -0.00087775 -0.049685 0.0051562 -0.035428 -0.0045684 0.048735 -0.029375 0.025036 0.060215 -0.017184 -0.038275 -0.06304 -0.024195 0.030165 -0.0070596 -0.040659 -0.030251 -0.061263 0.014916 -0.0044765 0.044541 0.075391 0.033687 -0.033086 0.042818 -0.049666 -0.013936 -0.0057507 -0.016638 0.067311 -0.04948 -0.053341 0.032926 0.012223 -0.020786 -0.067484 0.039226 -0.02321 0.038887 -0.0053877 -0.0092926 0.030465 0.033263 -0.041446 0.044041 0.0095334 -0.00098075 -0.021361 -0.057341 -0.015159 -0.012432 -0.0062196 -0.013056 -0.069901 -0.046804 -0.0067141 -0.020026 -0.019817 -0.047374 -0.041297 -0.017603 0.00035275 -0.060122 0.0048325 0.044168 0.030817 -0.014389 -0.0035954 0.034533 -0.0015452 -0.042336 0.052274 -0.011642 0.08757 -0.06339 -0.035564 -0.0057282 -0.0079381 0.013861 0.015869 -0.010355 0.02076 -0.0066423 -0.044164 -0.013363 0.011525 -0.041795 -0.0013189 0.03252 0.00026093 0.058781 -0.057112 -0.0032177 -0.03903 -0.028665 -0.042971 0.054242 -0.016272 0.020184 0.026812 -0.010053 0.0051579 0.020192 -0.0043338 0.041144 -0.039724 0.0032687 0.016273 -0.011885 0.032721 -0.055428 0.016502 0.03071 -0.030709 0.021721 0.085651 -0.011818 0.037572 0.056893 -0.037182 0.0071444 0.026906 -0.0056371 -0.041195 -0.091871 -0.073334 -0.026663 0.06208 -0.0062815 0.015393 0.0088205 -0.059231 -0.081009 -0.085779 0.047273 0.031058 -0.031895 0.02399 -0.025668 -0.0043209 0.017118 0.10567 0.030344 0.037485 -0.030828 -0.0022631 0.032846 0.0048801 0.010365 0.019624 -0.033842 0.00020643 -0.0096909 0.056054 0.022646 -0.029788 0.01611 0.075373 -0.015771 -0.0023111 0.016851 0.060179 0.031233 -0.0030546 -0.037429 0.011137 -0.012194 0.074512 0.0040641 -0.018915 0.057009 -0.023071 0.034958 -0.024423 -0.01411 -0.014674 -0.039508 0.027031 -0.061022 -0.032516 -0.058173 
esse -0.042329 -0.030795 -0.038444 0.0014814 -0.034593 0.0029438 -0.032737 0.022256 -0.015497 -0.013313 -0.025544 0.014997 -0.067556 -0.0078647 0.060095 -0.0051137 -0.033437 0.017106 -0.058936 0.025467 -0.0084099 -0.0016997 -0.051078 0.045563 0.010745 -0.053398 0.068567 0.039097 -0.074016 -0.014578 -0.021472 0.0091517 -0.017871 0.045183 0.0066662 -0.029456 -0.028114 -0.047357 0.027576 0.037805 0.057224 0.023477 -0.086256 0.029111 0.053574 0.019777 0.011896 -0.079806 -0.016095 0.0070672 -0.0081802 -0.097941 -0.027232 -0.047877 0.06553 -0.054087 0.0071365 0.027148 -0.068576 0.014145 -0.039472 -0.067838 0.026628 -0.017663 0.043791 -0.056918 0.023123 0.017591 -0.021881 -0.043267 0.0035423 -0.010129 0.013941 -0.0033818 -0.019335 0.00029357 -0.011549 -0.022784 -0.032413 0.083428 -0.049923 -0.034524 0.023459 0.02117 0.013955 0.00028289 0.022612 0.046403 0.024775 -0.04751 0.0051246 0.035755 -0.0025642 -0.0036689 -0.016022 -0.046706 -0.00037588 0.080749 0.063383 0.015242 -0.032447 0.067003 -0.00059547 0.036948 -0.0081884 0.045746 -0.0062313 0.032225 0.019128 -0.012659 -0.017277 -0.0051261 -0.033193 -0.021027 0.047577 0.047553 0.014378 0.044518 -0.10763 -7.577e-05 -0.053252 0.0057562 -0.038314 -0.0062043 0.05303 -0.032934 0.028847 0.06602 -0.018876 -0.040848 -0.068958 -0.02624 0.031349 -0.0074699 -0.044327 -0.034824 -0.0667 0.015769 -0.0037941 0.048399 0.082991 0.036622 -0.035968 0.048208 -0.053625 -0.013881 -0.0076253 -0.017749 0.073705 -0.053848 -0.058184 0.034863 0.012278 -0.023401 -0.072901 0.043252 -0.025404 0.042913 -0.006147 -0.010156 0.033113 0.035791 -0.045418 0.049016 0.010501 -0.0015869 -0.023738 -0.062681 -0.017406 -0.014649 -0.0046804 -0.015253 -0.076998 -0.051641 -0.007417 -0.021474 -0.021842 -0.05124 -0.045016 -0.018456 0.00033837 -0.065577 0.0053431 0.048423 0.034486 -0.01641 -0.0044752 0.03848 -0.0027304 -0.047408 0.056536 -0.012372 0.097619 -0.068799 -0.038116 -0.0074151 -0.0087819 0.016003 0.017336 -0.010427 0.022459 -0.0062642 -0.047742 -0.015553 0.013497 -0.045227 -0.0022037 0.035463 0.00066092 0.063794 -0.0619 -0.0035234 -0.042507 -0.03146 -0.04651 0.058864 -0.017791 0.022896 0.028208 -0.011175 0.0059632 0.023049 -0.0036864 0.045622 -0.043228 0.0033037 0.017888 -0.012833 0.035637 -0.060569 0.017247 0.033893 -0.034374 0.023356 0.094829 -0.01222 0.040471 0.062351 -0.040467 0.0082338 0.029054 -0.0058478 -0.044794 -0.10045 -0.080795 -0.028293 0.068817 -0.0064381 0.016086 0.010327 -0.064585 -0.089957 -0.092599 0.049867 0.033248 -0.035014 0.026289 -0.028112 -0.0037341 0.018589 0.11472 0.033327 0.040008 -0.033575 -0.0024558 0.035913 0.0047587 0.012336 0.02199 -0.037026 -2.2724e-05 -0.0096627 0.062188 0.024995 -0.034056 0.01734 0.082751 -0.015448 -0.0028012 0.01733 0.066382 0.033816 -0.0030914 -0.04006 0.01178 -0.01467 0.080162 0.0037808 -0.021675 0.062579 -0.024553 0.038675 -0.026376 -0.014903 -0.016333 -0.043488 0.029822 -0.067272 -0.035566 -0.062107 
velit -0.037502 -0.026298 -0.034425 0.00087747 -0.030805 0.0027733 -0.028649 0.020231 -0.015526 -0.012548 -0.023897 0.013206 -0.059491 -0.0065197 0.052985 -0.0058669 -0.029419 0.01535 -0.051521 0.021836 -0.0061866 -0.0023308 -0.045468 0.038728 0.0094502 -0.04592 0.060465 0.034438 -0.066317 -0.010842 -0.019157 0.0076199 -0.01508 0.039404 0.006791 -0.026042 -0.025 -0.042502 0.024928 0.03286 0.05032 0.021136 -0.076038 0.025101 0.047646 0.016772 0.0099314 -0.069792 -0.013446 0.0051105 -0.0073949 -0.086252 -0.024312 -0.042745 0.05697 -0.046534 0.0067404 0.023409 -0.060361 0.01434 -0.034991 -0.060343 0.023051 -0.014871 0.038561 -0.049194 0.019052 0.015849 -0.019712 -0.038546 0.0038229 -0.0089217 0.01152 -0.0034785 -0.01677 0.00028951 -0.010634 -0.019087 -0.027603 0.072637 -0.0444 -0.030794 0.020378 0.018262 0.013948 -0.00055698 0.019822 0.041374 0.021013 -0.040374 0.0047546 0.031462 -0.0025669 -0.002438 -0.014961 -0.041672 -0.00010263 0.070135 0.054861 0.01302 -0.027856 0.058319 -5.507e-05 0.033721 -0.0058489 0.039536 -0.0052865 0.027917 0.0173 -0.010963 -0.014722 -0.0044839 -0.029801 -0.018785 0.042489 0.042141 0.012491 0.039685 -0.0956 -0.00072806 -0.047482 0.0056898 -0.034177 -0.0048136 0.046135 -0.028132 0.024215 0.05826 -0.016371 -0.036282 -0.060512 -0.023951 0.028626 -0.0072522 -0.039395 -0.029781 -0.059149 0.014125 -0.0038653 0.04329 0.072189 0.031477 -0.03146 0.041374 -0.049164 -0.013213 -0.0058359 -0.015481 0.065502 -0.047523 -0.050893 0.030593 0.011458 -0.019953 -0.064252 0.037559 -0.02198 0.037593 -0.0047339 -0.008493 0.02886 0.031318 -0.038953 0.04226 0.0085215 -0.00033582 -0.020494 -0.054832 -0.014252 -0.011543 -0.0052285 -0.012739 -0.067912 -0.045228 -0.0069401 -0.019251 -0.020002 -0.045366 -0.040674 -0.015753 6.8703e-05 -0.057253 0.0039952 0.043322 0.029363 -0.015128 -0.0032647 0.033482 -0.0020845 -0.040573 0.050594 -0.010986 0.084041 -0.061338 -0.03401 -0.0061904 -0.0082863 0.0131 0.014278 -0.008335 0.019649 -0.0062144 -0.042441 -0.013131 0.011413 -0.040698 -0.0010207 0.031924 0.001448 0.056649 -0.055077 -0.0032268 -0.037499 -0.02753 -0.040546 0.051406 -0.016273 0.019895 0.025848 -0.010685 0.004424 0.019423 -0.0041691 0.03995 -0.038452 0.0031887 0.014828 -0.011448 0.029914 -0.053209 0.01543 0.029518 -0.029113 0.020142 0.082764 -0.010947 0.036026 0.054675 -0.035976 0.0075434 0.025066 -0.0058672 -0.039219 -0.087874 -0.069328 -0.025655 0.059941 -0.0049007 0.014837 0.0095439 -0.056346 -0.077837 -0.081931 0.044706 0.029983 -0.032043 0.022671 -0.025119 -0.0030666 0.017427 0.10128 0.028667 0.035263 -0.028937 -0.0023776 0.030999 0.004555 0.010475 0.018607 -0.032096 0.00070284 -0.00912 0.054607 0.021532 -0.029312 0.015098 0.073319 -0.014444 -0.0014807 0.015692 0.058844 0.028822 -0.0027127 -0.035548 0.010057 -0.012898 0.070189 0.005031 -0.018198 0.054748 -0.021333 0.033546 -0.023143 -0.012843 -0.014517 -0.038415 0.025645 -0.059126 -0.03155 -0.056833 
voluptate -0.049919 -0.035027 -0.045274 0.0017551 -0.03975 0.0038111 -0.037165 0.025704 -0.019011 -0.016047 -0.030152 0.018037 -0.077612 -0.0079442 0.069923 -0.0064678 -0.038088 0.020142 -0.066741 0.028509 -0.0083939 -0.0018145 -0.05872 0.051556 0.011613 -0.059766 0.07899 0.043485 -0.085378 -0.016121 -0.024352 0.01109 -0.02004 0.051846 0.0078926 -0.03358 -0.034021 -0.054931 0.031388 0.04276 0.065963 0.026844 -0.098527 0.034328 0.061164 0.021454 0.013095 -0.090728 -0.017814 0.0066226 -0.010286 -0.11157 -0.031782 -0.054246 0.074945 -0.06203 0.0083112 0.032018 -0.078322 0.018344 -0.046298 -0.079015 0.029759 -0.01882 0.049459 -0.064475 0.025637 0.021503 -0.024194 -0.049514 0.0049737 -0.011462 0.016078 -0.0033242 -0.02236 0.0010461 -0.013299 -0.025413 -0.037157 0.094794 -0.057563 -0.039667 0.027073 0.024815 0.017255 -0.00063522 0.025538 0.05433 0.028024 -0.052272 0.0060764 0.04158 -0.0021715 -0.0032995 -0.019377 -0.054702 -0.0009715 0.091957 0.072644 0.017635 -0.036783 0.076598 -0.00011802 0.043227 -0.0086773 0.051317 -0.0074633 0.036595 0.022346 -0.014822 -0.01947 -0.0063798 -0.038053 -0.024161 0.055267 0.054711 0.016087 0.050461 -0.12343 -0.00071522 -0.06187 0.0070757 -0.0448 -0.0065582 0.060566 -0.037034 0.032363 0.075754 -0.021646 -0.047957 -0.079294 -0.030831 0.037109 -0.0091802 -0.05115 -0.037744 -0.076499 0.018084 -0.0060417 0.05517 0.094016 0.042455 -0.04107 0.05478 -0.061873 -0.016475 -0.0072902 -0.020638 0.084553 -0.061378 -0.066427 0.039526 0.014815 -0.026972 -0.084074 0.049355 -0.029396 0.04852 -0.006174 -0.011598 0.037617 0.040763 -0.052757 0.056194 0.011718 -0.00097371 -0.027384 -0.072434 -0.018908 -0.016403 -0.0065888 -0.015408 -0.087281 -0.058708 -0.0082215 -0.024225 -0.02533 -0.059435 -0.052654 -0.021949 0.0011549 -0.074985 0.0055788 0.056225 0.038477 -0.020356 -0.0048531 0.044622 -0.0018629 -0.053575 0.066964 -0.014955 0.10984 -0.07961 -0.043625 -0.0076738 -0.010812 0.017549 0.020004 -0.012749 0.025248 -0.0076381 -0.054685 -0.01634 0.014946 -0.052218 -0.0014457 0.041814 0.00073987 0.074077 -0.071228 -0.0046986 -0.048044 -0.035265 -0.053798 0.067322 -0.019618 0.025048 0.034356 -0.013973 0.0067548 0.026487 -0.0052773 0.051005 -0.049339 0.0043546 0.020551 -0.014163 0.040959 -0.069673 0.019569 0.039089 -0.03884 0.027258 0.10838 -0.014849 0.046773 0.072312 -0.046572 0.0098355 0.033662 -0.0079026 -0.050956 -0.1159 -0.091549 -0.033748 0.077451 -0.0075106 0.019309 0.012223 -0.07401 -0.10293 -0.10674 0.058741 0.039496 -0.040439 0.030436 -0.032889 -0.0053708 0.022085 0.13171 0.039326 0.046347 -0.038352 -0.0028695 0.040643 0.0061592 0.012756 0.02475 -0.041796 1.3323e-06 -0.011075 0.07098 0.028473 -0.038365 0.020363 0.095048 -0.019472 -0.0031259 0.020157 0.076471 0.038434 -0.0033231 -0.045932 0.013797 -0.017281 0.092354 0.0049376 -0.023842 0.070987 -0.028992 0.044128 -0.030135 -0.017495 -0.018106 -0.050157 0.033676 -0.076876 -0.040697 -0.072379 
reprehenderit -0.045885 -0.031966 -0.041675 0.0013672 -0.037289 0.0034877 -0.034897 0.024122 -0.017732 -0.015009 -0.02836 0.016606 -0.071914 -0.0073559 0.065486 -0.0056221 -0.036111 0.018583 -0.062508 0.027141 -0.0086968 -0.0021555 -0.055776 0.048787 0.011514 -0.056413 0.073184 0.041131 -0.08023 -0.015089 -0.023433 0.010324 -0.018567 0.047983 0.0079406 -0.03151 -0.030777 -0.051506 0.029931 0.040422 0.061894 0.025736 -0.092167 0.031966 0.056932 0.020715 0.012445 -0.085233 -0.016728 0.0064586 -0.0096638 -0.10504 -0.029509 -0.051494 0.069966 -0.057317 0.0080731 0.030067 -0.073631 0.016652 -0.042398 -0.073942 0.028114 -0.018075 0.046731 -0.060221 0.0241 0.019986 -0.023667 -0.047205 0.0044 -0.010981 0.014638 -0.0038488 -0.02099 0.00048022 -0.012527 -0.023747 -0.034197 0.088874 -0.053928 -0.037157 0.025339 0.023546 0.01603 -0.00072973 0.023711 0.050609 0.025974 -0.049341 0.0061044 0.038441 -0.002225 -0.0035296 -0.018012 -0.050819 -0.00088389 0.086015 0.067651 0.016513 -0.033957 0.07147 -0.00082377 0.04054 -0.0079258 0.048108 -0.0071075 0.033983 0.020571 -0.013836 -0.018852 -0.0057402 -0.035019 -0.022996 0.052359 0.05119 0.015123 0.047409 -0.11562 5.6433e-05 -0.058207 0.0066097 -0.041393 -0.006462 0.057345 -0.035222 0.030223 0.071288 -0.019627 -0.043882 -0.074706 -0.028704 0.034127 -0.0089264 -0.047988 -0.03538 -0.072063 0.017792 -0.0051703 0.052531 0.08859 0.040135 -0.038523 0.051358 -0.05847 -0.015638 -0.0071954 -0.019217 0.079938 -0.058035 -0.062798 0.038386 0.014447 -0.024609 -0.078762 0.046242 -0.02691 0.045999 -0.0061889 -0.011018 0.034924 0.03783 -0.049503 0.051794 0.011364 -0.0010068 -0.025548 -0.066814 -0.017599 -0.014805 -0.0065405 -0.015474 -0.081934 -0.054946 -0.008288 -0.022881 -0.023979 -0.055932 -0.04864 -0.020376 0.00078604 -0.070102 0.0050721 0.052763 0.036075 -0.018445 -0.0049559 0.041327 -0.0020977 -0.04998 0.062043 -0.013935 0.10328 -0.074146 -0.041563 -0.0068959 -0.0090617 0.016721 0.018551 -0.011584 0.023735 -0.0067364 -0.051212 -0.015532 0.013792 -0.049293 -0.0015673 0.038525 0.0009498 0.069417 -0.067076 -0.0042833 -0.045322 -0.033888 -0.049813 0.064187 -0.019175 0.024302 0.031129 -0.012982 0.0062076 0.023902 -0.004918 0.048377 -0.046597 0.0040524 0.018785 -0.013578 0.038036 -0.065717 0.018098 0.036199 -0.036243 0.025439 0.10154 -0.013312 0.043751 0.066991 -0.043291 0.0093896 0.031507 -0.0071376 -0.048028 -0.10799 -0.085792 -0.03091 0.072623 -0.0066171 0.018365 0.011269 -0.068854 -0.096325 -0.099585 0.054748 0.036739 -0.038071 0.028117 -0.030459 -0.0045437 0.020507 0.12344 0.036237 0.042977 -0.035248 -0.0031696 0.038178 0.0054717 0.011812 0.023227 -0.039229 0.00032966 -0.010518 0.0666 0.026876 -0.035549 0.01913 0.089127 -0.017594 -0.0022481 0.019187 0.07128 0.035482 -0.0029842 -0.042731 0.012674 -0.015778 0.086844 0.0051258 -0.022982 0.06661 -0.02673 0.04154 -0.029222 -0.016046 -0.016537 -0.046717 0.032131 -0.071478 -0.038333 -0.067741 
irure -0.043389 -0.029599 -0.039213 0.001115 -0.034568 0.0031651 -0.032352 0.022168 -0.017263 -0.014078 -0.026015 0.015431 -0.066007 -0.0073586 0.060177 -0.005555 -0.033128 0.017938 -0.05805 0.024558 -0.007995 -0.0011839 -0.052291 0.044914 0.011427 -0.053026 0.067549 0.037815 -0.074095 -0.013283 -0.021128 0.0089724 -0.01731 0.045603 0.0057765 -0.030128 -0.027789 -0.047415 0.027426 0.037657 0.056884 0.022656 -0.085604 0.029331 0.052638 0.019491 0.011835 -0.079611 -0.01601 0.0055827 -0.008854 -0.097328 -0.027522 -0.04748 0.064131 -0.053007 0.0065365 0.028011 -0.067493 0.015637 -0.039397 -0.068671 0.026074 -0.017478 0.043513 -0.055334 0.022718 0.017999 -0.021867 -0.042253 0.0040287 -0.010886 0.014229 -0.0040878 -0.01964 0.0006747 -0.011963 -0.022148 -0.031695 0.082936 -0.050328 -0.03498 0.023601 0.021715 0.014864 0.00081927 0.02161 0.046938 0.025063 -0.0457 0.006063 0.036088 -0.0026368 -0.0037581 -0.016003 -0.047061 -0.0011712 0.080362 0.063371 0.015259 -0.031859 0.066069 -0.00054954 0.037672 -0.0071976 0.044985 -0.0065814 0.032574 0.019063 -0.011297 -0.016671 -0.0053415 -0.032903 -0.021495 0.047951 0.047861 0.014193 0.045088 -0.10679 -0.00057564 -0.053861 0.0062669 -0.038902 -0.0058906 0.051376 -0.033127 0.028298 0.067125 -0.018835 -0.041049 -0.069491 -0.026892 0.031381 -0.0077634 -0.043489 -0.033366 -0.065968 0.015854 -0.0042028 0.048221 0.08214 0.036929 -0.035882 0.047349 -0.053558 -0.013783 -0.0074217 -0.017719 0.074484 -0.053452 -0.058577 0.035789 0.012596 -0.022612 -0.072598 0.043015 -0.024931 0.042187 -0.0052114 -0.010359 0.032839 0.034639 -0.045516 0.04832 0.010413 -0.0011513 -0.0243 -0.063502 -0.016941 -0.013824 -0.00489 -0.015575 -0.076408 -0.051002 -0.0071135 -0.020067 -0.023223 -0.051268 -0.045146 -0.018396 0.00058788 -0.064672 0.0042557 0.049104 0.032577 -0.017125 -0.0036164 0.038668 -0.0022049 -0.046357 0.057603 -0.012165 0.096187 -0.068291 -0.038327 -0.0074758 -0.007946 0.01487 0.016711 -0.01167 0.021828 -0.0072223 -0.047334 -0.014095 0.013138 -0.044721 -0.0018632 0.035277 0.0011095 0.06422 -0.062635 -0.0040274 -0.042568 -0.030987 -0.046832 0.059041 -0.017388 0.023561 0.028499 -0.011805 0.0051497 0.022677 -0.0037805 0.045198 -0.043465 0.00307 0.018899 -0.0123 0.035789 -0.060717 0.017541 0.032795 -0.033923 0.024049 0.094739 -0.012251 0.040914 0.062452 -0.039725 0.0089348 0.029334 -0.0062448 -0.044736 -0.099861 -0.079976 -0.028541 0.067183 -0.0070773 0.016256 0.010877 -0.064463 -0.089165 -0.092757 0.050129 0.033387 -0.034504 0.025905 -0.029368 -0.0040863 0.01888 0.11425 0.033112 0.03994 -0.033434 -0.0014695 0.035289 0.0054919 0.01209 0.020961 -0.036437 0.00016367 -0.009669 0.061908 0.025418 -0.033358 0.017531 0.082048 -0.016585 -0.0019752 0.017324 0.066089 0.033069 -0.003429 -0.039406 0.011416 -0.015003 0.080239 0.0050025 -0.02107 0.061992 -0.024964 0.038024 -0.026983 -0.014674 -0.016246 -0.043829 0.029958 -0.066561 -0.035689 -0.062548 
aute -0.03821 -0.025241 -0.035032 0.00094895 -0.030925 0.0036833 -0.027604 0.019816 -0.014659 -0.011954 -0.024306 0.01375 -0.058492 -0.0065334 0.052217 -0.0052031 -0.029328 0.014305 -0.049285 0.021683 -0.0066562 -0.0023334 -0.045204 0.039238 0.0097269 -0.045878 0.059187 0.033982 -0.064931 -0.012762 -0.018771 0.0077053 -0.014305 0.039469 0.0051493 -0.025066 -0.024805 -0.042113 0.024786 0.032443 0.05038 0.020706 -0.074538 0.025685 0.045956 0.01707 0.0098193 -0.06975 -0.01408 0.0049009 -0.0082486 -0.085345 -0.024213 -0.041621 0.056974 -0.046639 0.0072411 0.023255 -0.059462 0.013919 -0.034003 -0.060386 0.022742 -0.014686 0.037391 -0.04851 0.01925 0.015798 -0.018785 -0.037139 0.0039983 -0.0086848 0.012203 -0.0025936 -0.017185 0.00069617 -0.0098372 -0.018735 -0.028204 0.071832 -0.04379 -0.030734 0.02058 0.019088 0.013532 -0.0010193 0.018811 0.040052 0.020264 -0.039815 0.0050603 0.031832 -0.0020728 -0.0022182 -0.013455 -0.041465 -0.00079002 0.069028 0.054868 0.013247 -0.026717 0.057094 -0.00094168 0.033068 -0.007144 0.038858 -0.0061993 0.027916 0.017574 -0.01118 -0.015529 -0.0037203 -0.028963 -0.018089 0.042475 0.041628 0.013292 0.037442 -0.094398 -0.0016402 -0.046459 0.005898 -0.033562 -0.0046581 0.046524 -0.027553 0.024528 0.057072 -0.016755 -0.035206 -0.05883 -0.023294 0.026873 -0.008216 -0.038837 -0.02852 -0.058621 0.013828 -0.0036321 0.042876 0.071763 0.031858 -0.030939 0.040694 -0.047364 -0.011949 -0.0058023 -0.016087 0.065062 -0.046346 -0.051676 0.030761 0.012077 -0.01945 -0.065096 0.036521 -0.021241 0.037439 -0.0055548 -0.0085674 0.028813 0.032017 -0.040379 0.041619 0.008988 -0.0016453 -0.020304 -0.054125 -0.014099 -0.012088 -0.0050676 -0.012447 -0.065506 -0.045372 -0.0065453 -0.018488 -0.018871 -0.04541 -0.039851 -0.015998 0.00080712 -0.056605 0.0053048 0.042969 0.029111 -0.016154 -0.0036595 0.033993 -0.0026886 -0.039681 0.049164 -0.010568 0.0836 -0.060772 -0.033161 -0.0060374 -0.0087083 0.014427 0.014736 -0.0085522 0.020742 -0.0055225 -0.042169 -0.011351 0.011607 -0.04058 -0.0013569 0.032354 -0.00043517 0.055319 -0.053858 -0.0036502 -0.036659 -0.027551 -0.04041 0.051314 -0.014943 0.019391 0.024516 -0.010514 0.0045853 0.020551 -0.0038782 0.0393 -0.038403 0.0037062 0.016024 -0.010388 0.030367 -0.05323 0.015448 0.030105 -0.028943 0.019689 0.081353 -0.01081 0.035667 0.05476 -0.033895 0.0081962 0.02547 -0.0060116 -0.038656 -0.088449 -0.069676 -0.025321 0.060894 -0.0054431 0.015308 0.0096122 -0.056655 -0.07752 -0.080464 0.044173 0.030007 -0.031671 0.022535 -0.026301 -0.0040654 0.016682 0.10031 0.028987 0.035316 -0.028301 -0.0017261 0.032304 0.0045214 0.0099882 0.019302 -0.031584 0.0002056 -0.008337 0.053998 0.022028 -0.028522 0.014877 0.072649 -0.014452 -0.002551 0.015271 0.057707 0.030098 -0.0029248 -0.03533 0.0095846 -0.012373 0.070657 0.0042042 -0.018408 0.054299 -0.021259 0.033501 -0.02347 -0.012124 -0.012938 -0.038248 0.025986 -0.058756 -0.031161 -0.05533 
ea -0.040078 -0.027843 -0.035999 0.00139 -0.031629 0.0037044 -0.031635 0.021534 -0.014035 -0.013277 -0.023897 0.016393 -0.062716 -0.0056423 0.055259 -0.0052879 -0.031266 0.01543 -0.055455 0.022985 -0.0070602 -0.0012748 -0.05017 0.043584 0.012402 -0.050825 0.065505 0.035253 -0.070111 -0.012771 -0.019664 0.010101 -0.015181 0.042 0.0078614 -0.028017 -0.026979 -0.044361 0.027963 0.03793 0.054369 0.024182 -0.080574 0.027634 0.0485 0.018244 0.010629 -0.073948 -0.012782 0.0063832 -0.0084989 -0.093216 -0.02477 -0.045332 0.062159 -0.05025 0.0062536 0.026126 -0.062426 0.015703 -0.036788 -0.065114 0.025652 -0.01616 0.040157 -0.0531 0.020896 0.017258 -0.020201 -0.041583 0.0034859 -0.0096234 0.012781 -0.0028509 -0.020539 -0.00031385 -0.011122 -0.020414 -0.030038 0.079685 -0.045903 -0.032585 0.023384 0.020896 0.013786 4.5904e-05 0.019931 0.045929 0.023429 -0.042518 0.0045631 0.034036 -0.0038517 -0.0027557 -0.017023 -0.046738 -0.0017102 0.076051 0.061234 0.015127 -0.031159 0.063563 -0.0012974 0.036157 -0.0063553 0.042172 -0.0063204 0.030812 0.017202 -0.012114 -0.016701 -0.003961 -0.0316 -0.019438 0.045932 0.043963 0.015548 0.041536 -0.10293 -0.00041092 -0.051499 0.0033948 -0.037423 -0.0051588 0.048371 -0.031829 0.025762 0.062288 -0.016643 -0.039447 -0.066768 -0.026327 0.031788 -0.0067924 -0.04218 -0.029893 -0.06329 0.016597 -0.0046997 0.046253 0.075988 0.036236 -0.034164 0.044263 -0.051851 -0.014345 -0.0060815 -0.016673 0.068538 -0.050075 -0.054845 0.034214 0.012988 -0.021662 -0.068588 0.04015 -0.024293 0.041857 -0.0043114 -0.010792 0.031152 0.033124 -0.043248 0.045891 0.0095763 -0.0016439 -0.021297 -0.057041 -0.014261 -0.013861 -0.0046299 -0.01248 -0.071819 -0.047447 -0.0060266 -0.019661 -0.019771 -0.05002 -0.043954 -0.019247 0.0014314 -0.060609 0.0056586 0.046355 0.031139 -0.016179 -0.0048987 0.035718 -0.0018478 -0.04428 0.055149 -0.012121 0.091478 -0.06365 -0.037525 -0.0048442 -0.0058833 0.014756 0.01701 -0.010763 0.021873 -0.0048551 -0.044958 -0.014229 0.012759 -0.043755 -0.0011878 0.032693 -4.8904e-05 0.061254 -0.058752 -0.003894 -0.040936 -0.029576 -0.04346 0.056089 -0.018091 0.021034 0.028722 -0.011556 0.0050435 0.019393 -0.0035291 0.042037 -0.041595 0.0025112 0.016339 -0.012099 0.03587 -0.05644 0.017449 0.032325 -0.032569 0.021732 0.089162 -0.012017 0.039107 0.058788 -0.038915 0.0075091 0.028535 -0.0060565 -0.043003 -0.095526 -0.074507 -0.025904 0.062834 -0.0077157 0.016985 0.011787 -0.060606 -0.085782 -0.086375 0.049744 0.031711 -0.031689 0.025258 -0.026009 -0.0048388 0.018588 0.10777 0.032387 0.038186 -0.031702 -0.0023548 0.034279 0.0061486 0.010104 0.020422 -0.036001 0.0012744 -0.0092258 0.058405 0.023341 -0.032428 0.017284 0.077872 -0.016849 -0.0011045 0.017519 0.06173 0.0306 -0.0036785 -0.037408 0.010213 -0.014084 0.075802 0.0057688 -0.01962 0.05839 -0.023511 0.036419 -0.024658 -0.014705 -0.0145 -0.041114 0.028816 -0.063192 -0.033651 -0.057534 
sint -0.043348 -0.030527 -0.040746 0.0016896 -0.036153 0.0036149 -0.033147 0.022888 -0.018098 -0.013697 -0.027668 0.016732 -0.069825 -0.0076096 0.062583 -0.0057667 -0.033177 0.018147 -0.059609 0.025549 -0.0074718 -0.0027864 -0.053485 0.046043 0.011248 -0.053904 0.069856 0.039939 -0.076123 -0.013963 -0.022064 0.0092957 -0.017809 0.046883 0.0069277 -0.029737 -0.028959 -0.049393 0.028451 0.037573 0.059129 0.024688 -0.088055 0.029373 0.054313 0.019005 0.012548 -0.080994 -0.015974 0.0059226 -0.0089734 -0.099218 -0.028186 -0.048658 0.066957 -0.05523 0.0078233 0.027985 -0.070018 0.01634 -0.040839 -0.070557 0.026646 -0.017884 0.044003 -0.0573 0.022065 0.018388 -0.022578 -0.043771 0.0053132 -0.010341 0.015397 -0.0034499 -0.019808 -0.00030925 -0.011468 -0.023154 -0.033343 0.084086 -0.050822 -0.036017 0.024414 0.020736 0.015713 -0.0023238 0.022823 0.04771 0.024342 -0.047115 0.0051272 0.036931 -0.0030902 -0.0035113 -0.016344 -0.047158 -0.00096576 0.081876 0.064572 0.016025 -0.032365 0.068125 -0.00022211 0.038176 -0.0081917 0.046084 -0.0077421 0.032666 0.020525 -0.013506 -0.017355 -0.0049034 -0.033777 -0.021999 0.049047 0.048908 0.015145 0.045053 -0.11121 -0.00037873 -0.054789 0.0055006 -0.039918 -0.0049512 0.053856 -0.032123 0.028486 0.067268 -0.019827 -0.042721 -0.070114 -0.028284 0.032186 -0.0092883 -0.046079 -0.034742 -0.068799 0.017534 -0.0052688 0.049793 0.084149 0.037639 -0.03691 0.04881 -0.055806 -0.014437 -0.006809 -0.019547 0.076447 -0.054911 -0.060816 0.035899 0.013382 -0.024013 -0.074817 0.043969 -0.026029 0.044306 -0.0059479 -0.011079 0.03427 0.036661 -0.046242 0.049805 0.010249 -0.00065859 -0.024392 -0.064621 -0.016666 -0.013547 -0.0065659 -0.014323 -0.077232 -0.052238 -0.0075502 -0.022673 -0.022637 -0.052834 -0.046744 -0.017703 0.00094296 -0.067445 0.0049291 0.049959 0.033806 -0.018337 -0.003521 0.039487 -0.0024893 -0.047507 0.05879 -0.01249 0.098618 -0.071494 -0.038104 -0.0073275 -0.0095762 0.015921 0.017411 -0.010614 0.023005 -0.0068261 -0.049549 -0.014339 0.013786 -0.047038 -0.0022329 0.037738 0.00076114 0.066166 -0.064518 -0.0043178 -0.044296 -0.032109 -0.048021 0.060371 -0.017623 0.022783 0.029674 -0.011986 0.0046307 0.023855 -0.0039157 0.046361 -0.044365 0.0044742 0.017469 -0.011738 0.034979 -0.062659 0.017828 0.035592 -0.034989 0.023699 0.095577 -0.012408 0.041458 0.063804 -0.041925 0.0094015 0.029082 -0.00676 -0.046542 -0.10345 -0.082216 -0.029003 0.070555 -0.0058334 0.017442 0.01061 -0.065566 -0.091145 -0.09489 0.052827 0.035046 -0.036665 0.02645 -0.030255 -0.0045073 0.019915 0.11742 0.033697 0.040821 -0.033616 -0.0024613 0.037545 0.005619 0.01122 0.022152 -0.037563 0.0013908 -0.011121 0.064609 0.025734 -0.035283 0.017892 0.085419 -0.016564 -0.0021283 0.018508 0.068428 0.034638 -0.0020615 -0.041464 0.01239 -0.015036 0.082001 0.0049102 -0.021237 0.063393 -0.026013 0.039641 -0.027384 -0.015157 -0.016011 -0.045648 0.030343 -0.068903 -0.03667 -0.065703 
occaecat -0.036973 -0.026356 -0.034178 0.00088293 -0.030249 0.0032643 -0.028254 0.02001 -0.014816 -0.012146 -0.023234 0.01313 -0.058572 -0.0060036 0.053148 -0.0046616 -0.028475 0.015229 -0.05108 0.021687 -0.0069001 -0.0015139 -0.045653 0.039349 0.010076 -0.046518 0.059999 0.03398 -0.06517 -0.012347 -0.018646 0.00827 -0.014851 0.03926 0.0057649 -0.025453 -0.025061 -0.041117 0.024487 0.033096 0.050235 0.020128 -0.074668 0.026074 0.04604 0.016838 0.0098716 -0.069418 -0.013719 0.0048756 -0.0076443 -0.08529 -0.023987 -0.041392 0.0569 -0.046164 0.0062766 0.024618 -0.059306 0.013454 -0.035235 -0.060963 0.022335 -0.015096 0.038435 -0.04914 0.020014 0.016226 -0.018653 -0.037957 0.0028386 -0.00852 0.011534 -0.0030225 -0.016673 0.00065101 -0.0099561 -0.019404 -0.027674 0.072376 -0.044178 -0.030578 0.020589 0.019156 0.013143 0.00023784 0.019139 0.04149 0.02168 -0.040592 0.0054077 0.031827 -0.0018383 -0.0028823 -0.014091 -0.041464 -0.00028969 0.069983 0.055135 0.013748 -0.027443 0.058038 -0.00017185 0.033451 -0.0059144 0.038765 -0.0057514 0.027929 0.017046 -0.010861 -0.01494 -0.0043065 -0.029587 -0.018772 0.042149 0.041936 0.012382 0.038594 -0.094748 -0.00051483 -0.047104 0.005376 -0.03358 -0.00506 0.046556 -0.028151 0.024395 0.058559 -0.016069 -0.035133 -0.060442 -0.023877 0.027562 -0.007517 -0.038772 -0.029026 -0.05816 0.014105 -0.0041933 0.042423 0.072322 0.032745 -0.031614 0.04162 -0.047823 -0.012433 -0.0055474 -0.01609 0.064772 -0.046761 -0.051508 0.03179 0.011011 -0.020469 -0.063786 0.037491 -0.022175 0.037002 -0.0043335 -0.0089279 0.028506 0.031205 -0.039993 0.041746 0.0089772 -0.0017502 -0.020664 -0.054817 -0.014146 -0.011784 -0.0051285 -0.012706 -0.066803 -0.045025 -0.0061844 -0.018595 -0.019429 -0.04452 -0.039371 -0.016541 0.00084557 -0.056574 0.0037729 0.042578 0.029007 -0.015352 -0.0037188 0.033949 -0.0021399 -0.040537 0.05047 -0.010824 0.083749 -0.060861 -0.034148 -0.0053469 -0.0072125 0.013571 0.015255 -0.0093684 0.019591 -0.0052787 -0.042288 -0.011905 0.011949 -0.039696 -0.00067257 0.031491 0.001261 0.056256 -0.054763 -0.0037415 -0.037158 -0.027498 -0.040355 0.051744 -0.016199 0.019732 0.025552 -0.010619 0.0045799 0.019729 -0.003802 0.039237 -0.037822 0.0031018 0.015461 -0.010272 0.031019 -0.05283 0.01524 0.029164 -0.029245 0.020821 0.082654 -0.010499 0.036334 0.05467 -0.035063 0.0079682 0.025109 -0.005079 -0.038454 -0.088085 -0.069725 -0.025818 0.058988 -0.00605 0.014412 0.0097177 -0.056277 -0.078059 -0.081011 0.044408 0.02981 -0.03136 0.022679 -0.024707 -0.0037684 0.017607 0.10025 0.029797 0.035715 -0.029575 -0.0023749 0.03122 0.0046602 0.0095158 0.018823 -0.031613 0.00010478 -0.0092899 0.054283 0.022045 -0.028833 0.015604 0.072365 -0.014417 -0.0020138 0.015605 0.058046 0.029067 -0.0022925 -0.034579 0.0099961 -0.012617 0.070249 0.0043933 -0.018752 0.053971 -0.021893 0.033627 -0.022824 -0.013407 -0.014452 -0.038295 0.025918 -0.057944 -0.031127 -0.055092 
cupidatat -0.042265 -0.029544 -0.038945 0.0012674 -0.034004 0.0034269 -0.032147 0.022081 -0.016893 -0.013366 -0.026262 0.01516 -0.066376 -0.007196 0.060173 -0.0053262 -0.032327 0.017385 -0.056798 0.024852 -0.0075243 -0.0020339 -0.050317 0.044462 0.0098757 -0.051571 0.067478 0.037414 -0.072815 -0.014053 -0.021454 0.0092716 -0.017148 0.044028 0.0071549 -0.028549 -0.028297 -0.046896 0.027254 0.037127 0.05656 0.023079 -0.083811 0.028988 0.051995 0.018966 0.01181 -0.078277 -0.015377 0.006039 -0.0086883 -0.095972 -0.027663 -0.046468 0.064236 -0.052702 0.0075688 0.027457 -0.067037 0.015553 -0.039386 -0.06791 0.025305 -0.016509 0.042565 -0.055552 0.022043 0.018234 -0.021199 -0.042957 0.0037275 -0.0095272 0.013619 -0.0035988 -0.018975 0.00044779 -0.011198 -0.021649 -0.032135 0.081544 -0.049297 -0.03406 0.023579 0.02148 0.014565 3.8347e-05 0.021343 0.046418 0.023123 -0.045704 0.00612 0.035331 -0.0015341 -0.0028201 -0.016762 -0.046173 -0.00049462 0.079028 0.062133 0.015453 -0.031617 0.065437 2.9786e-06 0.036524 -0.0072114 0.043556 -0.0058301 0.031023 0.019182 -0.012974 -0.017077 -0.0050522 -0.031769 -0.020939 0.047118 0.04697 0.014048 0.043219 -0.1058 -0.00031916 -0.052701 0.0057934 -0.037763 -0.0055239 0.052029 -0.031995 0.028146 0.06427 -0.018349 -0.040484 -0.068192 -0.025838 0.031507 -0.0082452 -0.043663 -0.032067 -0.065774 0.015885 -0.0047693 0.047653 0.080629 0.037132 -0.035711 0.047018 -0.053551 -0.014488 -0.0059677 -0.017765 0.072886 -0.051995 -0.057181 0.034401 0.012953 -0.022736 -0.071967 0.042644 -0.025008 0.041882 -0.0054552 -0.01006 0.032727 0.035113 -0.045083 0.047455 0.010308 -0.001065 -0.023352 -0.061884 -0.015814 -0.013588 -0.0060516 -0.014075 -0.074845 -0.049655 -0.0072044 -0.021199 -0.021124 -0.050376 -0.044462 -0.018438 0.0011498 -0.064825 0.0052153 0.048133 0.032925 -0.016877 -0.004315 0.037477 -0.0015988 -0.045726 0.056901 -0.01206 0.09387 -0.068259 -0.037815 -0.0061716 -0.0084956 0.015198 0.017166 -0.010648 0.021439 -0.0069167 -0.047533 -0.013503 0.013157 -0.04524 -0.0012044 0.035387 0.0007268 0.063455 -0.061153 -0.003256 -0.04138 -0.030149 -0.045021 0.058221 -0.016521 0.022027 0.02867 -0.01146 0.0056461 0.022265 -0.0041158 0.043937 -0.042094 0.0037214 0.016984 -0.012373 0.035129 -0.059592 0.017027 0.032919 -0.033141 0.024399 0.093056 -0.011757 0.039695 0.061235 -0.039469 0.0088542 0.029017 -0.006595 -0.044109 -0.098343 -0.07895 -0.028982 0.066841 -0.0061549 0.016101 0.010812 -0.063326 -0.088325 -0.091717 0.050671 0.033406 -0.034761 0.025789 -0.028518 -0.0041581 0.019092 0.11305 0.032848 0.04064 -0.032744 -0.0023089 0.034787 0.0050246 0.011077 0.021362 -0.035476 0.00036362 -0.010032 0.06117 0.024535 -0.032741 0.017255 0.081233 -0.016181 -0.0020348 0.017483 0.065197 0.032758 -0.0021783 -0.039095 0.01152 -0.013527 0.079486 0.0050267 -0.020664 0.060304 -0.024807 0.037992 -0.02639 -0.014922 -0.015742 -0.042688 0.028907 -0.065481 -0.035026 -0.062179 
non -0.040748 -0.028354 -0.038019 0.0004538 -0.032751 0.0035848 -0.030959 0.021334 -0.015555 -0.014308 -0.026403 0.015601 -0.06474 -0.0058731 0.057881 -0.0052492 -0.032768 0.01565 -0.055814 0.025179 -0.0073983 -0.0032626 -0.050547 0.043629 0.011387 -0.049021 0.065976 0.037724 -0.071692 -0.013179 -0.020527 0.0089121 -0.014868 0.042779 0.0070914 -0.027999 -0.027494 -0.045436 0.026607 0.035065 0.055355 0.023061 -0.08162 0.028353 0.050192 0.018407 0.011174 -0.076298 -0.013835 0.0052935 -0.0094734 -0.093475 -0.026924 -0.044139 0.061647 -0.051059 0.0075957 0.027392 -0.064464 0.015139 -0.038932 -0.065215 0.025287 -0.017072 0.041407 -0.054416 0.021727 0.017527 -0.020792 -0.04205 0.0037214 -0.0095796 0.012287 -0.0038407 -0.017634 0.00078716 -0.011078 -0.020991 -0.031047 0.078684 -0.046549 -0.032717 0.021928 0.020048 0.012603 -0.0011798 0.022157 0.045268 0.023188 -0.043325 0.0058477 0.034567 -0.0010002 -0.0032364 -0.015283 -0.045446 -0.0012388 0.076996 0.05992 0.015491 -0.029945 0.062932 -0.00088994 0.036451 -0.0059951 0.042673 -0.0059829 0.031174 0.017666 -0.012821 -0.018239 -0.0060145 -0.030277 -0.020954 0.046704 0.045258 0.013368 0.041623 -0.10285 0.00071124 -0.052308 0.004889 -0.035795 -0.0066981 0.051267 -0.031208 0.026777 0.063963 -0.018821 -0.038402 -0.064966 -0.025908 0.030219 -0.0083168 -0.042929 -0.031046 -0.065214 0.015393 -0.0048907 0.046752 0.079381 0.036293 -0.034182 0.04645 -0.051691 -0.013954 -0.0052217 -0.017885 0.07051 -0.052376 -0.057523 0.03407 0.012523 -0.020245 -0.071055 0.040466 -0.022991 0.039795 -0.0053198 -0.0093498 0.031159 0.034361 -0.044618 0.046194 0.0084229 -0.00031302 -0.024504 -0.060623 -0.014914 -0.011404 -0.005719 -0.013756 -0.072619 -0.050117 -0.007679 -0.021019 -0.020661 -0.05033 -0.044095 -0.01785 0.00098317 -0.062402 0.0046079 0.046462 0.032699 -0.016615 -0.0034409 0.036394 -0.0023165 -0.043896 0.054855 -0.01212 0.091584 -0.066438 -0.036985 -0.0053604 -0.008555 0.014234 0.01693 -0.0097218 0.023314 -0.005273 -0.045808 -0.013315 0.013188 -0.044314 -0.0015349 0.034219 0.00051285 0.061283 -0.059552 -0.0028752 -0.040254 -0.030612 -0.044834 0.056746 -0.015591 0.020109 0.028169 -0.012904 0.0051134 0.022731 -0.0039251 0.042916 -0.041405 0.0036855 0.017191 -0.011179 0.033302 -0.058308 0.016661 0.031615 -0.033024 0.021643 0.090772 -0.012595 0.038139 0.05973 -0.037273 0.008377 0.027785 -0.0057473 -0.042921 -0.096605 -0.076121 -0.027613 0.065884 -0.0057652 0.014427 0.008752 -0.062285 -0.085241 -0.088751 0.049649 0.033506 -0.034303 0.023499 -0.027883 -0.0039873 0.018675 0.10994 0.03376 0.039208 -0.033853 -0.003145 0.035048 0.0053827 0.0089329 0.021213 -0.033637 0.00066312 -0.0094041 0.060113 0.023897 -0.030425 0.016434 0.07959 -0.015407 -0.0029525 0.01695 0.064184 0.031055 -0.0012347 -0.038945 0.0111 -0.015343 0.077542 0.0033976 -0.01988 0.05913 -0.023761 0.037297 -0.024114 -0.014613 -0.015314 -0.042256 0.027845 -0.0638 -0.034417 -0.061412 
proident, -0.040558 -0.028945 -0.037701 0.0011761 -0.032713 0.0036335 -0.031119 0.021967 -0.015861 -0.012947 -0.025302 0.014349 -0.064137 -0.0065472 0.05764 -0.004999 -0.031474 0.016374 -0.055653 0.02308 -0.0072494 -0.0017167 -0.049484 0.04272 0.011157 -0.049745 0.064998 0.036988 -0.070508 -0.01337 -0.020465 0.0087211 -0.016528 0.042225 0.006614 -0.028388 -0.027641 -0.045683 0.026631 0.035566 0.054798 0.021687 -0.082153 0.028186 0.050615 0.01821 0.011227 -0.075961 -0.01509 0.0059344 -0.0079667 -0.093081 -0.025996 -0.045434 0.06213 -0.050478 0.0071077 0.026618 -0.064833 0.015207 -0.038198 -0.065623 0.023937 -0.016099 0.041387 -0.053884 0.020815 0.017068 -0.02062 -0.041555 0.0035808 -0.0097253 0.011968 -0.0036016 -0.018349 0.00054501 -0.011356 -0.020946 -0.030858 0.079415 -0.047588 -0.033079 0.021937 0.020976 0.014749 -0.0002306 0.020764 0.044669 0.023476 -0.044113 0.0053857 0.034051 -0.0014228 -0.0030255 -0.015727 -0.044878 -0.0002039 0.076037 0.059626 0.013875 -0.030371 0.063207 -0.001483 0.035991 -0.0064251 0.041958 -0.0060671 0.029902 0.018462 -0.011755 -0.015986 -0.0045577 -0.031287 -0.021029 0.045468 0.045046 0.013457 0.041115 -0.10297 -5.4709e-05 -0.051362 0.0061093 -0.037248 -0.0055287 0.050821 -0.030772 0.026431 0.063844 -0.017608 -0.038672 -0.065893 -0.025999 0.030748 -0.0078018 -0.042661 -0.032608 -0.063484 0.015603 -0.004617 0.046271 0.077931 0.035293 -0.034633 0.045482 -0.052284 -0.013435 -0.0065954 -0.017456 0.070766 -0.051354 -0.056066 0.033747 0.012186 -0.02166 -0.069624 0.040554 -0.02389 0.040874 -0.0053477 -0.0099269 0.031014 0.034429 -0.043396 0.045985 0.0093469 -0.001335 -0.022846 -0.060248 -0.016135 -0.012795 -0.0051035 -0.013684 -0.07265 -0.049462 -0.0059897 -0.020987 -0.021439 -0.048941 -0.043564 -0.018066 0.00047993 -0.06113 0.0045817 0.046517 0.032687 -0.016197 -0.0038791 0.037473 -0.0021157 -0.044321 0.054542 -0.012398 0.091453 -0.06576 -0.036699 -0.006079 -0.0082895 0.013911 0.016167 -0.010251 0.020754 -0.0064729 -0.045961 -0.013889 0.012457 -0.04336 -0.00071961 0.03368 0.00075945 0.061642 -0.059804 -0.0039651 -0.040568 -0.030255 -0.044574 0.055672 -0.017346 0.020994 0.027446 -0.011613 0.0054327 0.021461 -0.0044618 0.043131 -0.041414 0.0030995 0.016636 -0.012129 0.034179 -0.057636 0.016723 0.032088 -0.032016 0.022422 0.089793 -0.011934 0.038798 0.059083 -0.038662 0.0092868 0.027582 -0.0062888 -0.042391 -0.095599 -0.076223 -0.027606 0.064554 -0.0063296 0.01654 0.010771 -0.061515 -0.085209 -0.089143 0.048772 0.032602 -0.0341 0.02507 -0.026875 -0.0036685 0.018266 0.1093 0.032581 0.038186 -0.031292 -0.0026435 0.034136 0.0043908 0.010655 0.019636 -0.03528 0.00078379 -0.009966 0.059138 0.024075 -0.031059 0.017113 0.079376 -0.016008 -0.0024468 0.017751 0.063797 0.031626 -0.0021078 -0.03839 0.011451 -0.013899 0.076722 0.005363 -0.02035 0.059246 -0.023871 0.036296 -0.024747 -0.014489 -0.015141 -0.041011 0.028063 -0.063707 -0.034021 -0.060147 
sunt -0.047113 -0.032331 -0.042632 0.0018494 -0.038593 0.003202 -0.035351 0.024121 -0.018791 -0.015594 -0.029737 0.017685 -0.073398 -0.0061422 0.065893 -0.0068548 -0.03603 0.018691 -0.063422 0.026803 -0.0086234 -0.00096076 -0.057215 0.049071 0.012336 -0.056342 0.074619 0.041802 -0.080878 -0.016421 -0.02421 0.010236 -0.018313 0.048395 0.0077751 -0.031881 -0.031508 -0.052449 0.031052 0.040445 0.063615 0.026321 -0.094215 0.03265 0.057777 0.020467 0.012029 -0.087415 -0.016909 0.0071343 -0.011628 -0.10625 -0.030562 -0.052936 0.070985 -0.059779 0.0076135 0.030152 -0.07494 0.017231 -0.043205 -0.07496 0.028329 -0.018628 0.048388 -0.06083 0.024108 0.020208 -0.024068 -0.046552 0.0057073 -0.011512 0.015343 -0.0035533 -0.022045 0.00024271 -0.013381 -0.023557 -0.035136 0.091029 -0.054415 -0.038417 0.026413 0.023473 0.016989 -0.0024785 0.023273 0.051445 0.025534 -0.049559 0.0051756 0.039435 -0.002049 -0.004161 -0.01808 -0.051782 -0.0010136 0.086925 0.068666 0.01684 -0.034768 0.072209 -0.0011599 0.040226 -0.0078879 0.047845 -0.0082931 0.035284 0.021082 -0.013514 -0.01862 -0.0058739 -0.035633 -0.024147 0.052542 0.052105 0.0147 0.047237 -0.11875 -0.0010843 -0.05878 0.0054287 -0.041655 -0.0064458 0.05694 -0.035696 0.029443 0.071999 -0.02074 -0.044653 -0.075853 -0.029405 0.034819 -0.009952 -0.048509 -0.036727 -0.073281 0.019194 -0.0059841 0.052959 0.088928 0.040292 -0.039418 0.051822 -0.058969 -0.016382 -0.0082468 -0.019819 0.081891 -0.05833 -0.063973 0.039152 0.013918 -0.025636 -0.080694 0.046357 -0.027915 0.047009 -0.0056584 -0.01247 0.036295 0.039155 -0.049905 0.052762 0.01093 -0.00066666 -0.026637 -0.069014 -0.017659 -0.015942 -0.0075369 -0.01556 -0.081956 -0.055244 -0.0082479 -0.023302 -0.024922 -0.057075 -0.050621 -0.021309 0.00043675 -0.072012 0.0058449 0.053267 0.036547 -0.019607 -0.0047087 0.042394 -0.0011588 -0.050816 0.063188 -0.01466 0.10451 -0.074644 -0.041608 -0.0083425 -0.0099075 0.016497 0.018958 -0.010738 0.023913 -0.0072447 -0.052652 -0.015478 0.013954 -0.049958 -0.0024268 0.039948 8.163e-05 0.070384 -0.068281 -0.0043401 -0.045406 -0.034114 -0.051848 0.064481 -0.018662 0.024021 0.03149 -0.013564 0.0062206 0.025327 -0.0048933 0.050603 -0.047806 0.0050384 0.019424 -0.013321 0.039181 -0.066095 0.01921 0.037227 -0.037749 0.025434 0.10356 -0.014083 0.044072 0.069484 -0.043322 0.0097272 0.031451 -0.0081121 -0.048702 -0.11046 -0.086985 -0.031191 0.074168 -0.0063759 0.019179 0.011786 -0.070274 -0.0986 -0.10193 0.056611 0.037953 -0.038866 0.028933 -0.031795 -0.0048345 0.020175 0.12563 0.036078 0.04392 -0.035424 -0.0020002 0.038725 0.0054923 0.011011 0.023385 -0.040247 0.00032273 -0.010707 0.067391 0.027772 -0.036095 0.018597 0.090025 -0.017799 -0.0024613 0.020064 0.072742 0.036971 -0.0034907 -0.044439 0.013763 -0.016141 0.087313 0.0059323 -0.022957 0.06855 -0.02741 0.04271 -0.029106 -0.015136 -0.016642 -0.047871 0.032865 -0.072446 -0.038431 -0.068907 
culpa -0.041309 -0.02966 -0.037665 0.0022096 -0.034162 0.0035262 -0.031086 0.022625 -0.016177 -0.013328 -0.025986 0.014792 -0.066544 -0.0066364 0.05882 -0.0050743 -0.031966 0.016369 -0.057039 0.02448 -0.0083041 -0.0014289 -0.0503 0.044797 0.010802 -0.051732 0.06733 0.037675 -0.071872 -0.013952 -0.020593 0.009898 -0.017855 0.044016 0.0073792 -0.029351 -0.028307 -0.046177 0.027598 0.036265 0.05621 0.022286 -0.083935 0.028429 0.051768 0.018992 0.011514 -0.077547 -0.014936 0.0052635 -0.0082602 -0.095558 -0.026233 -0.045435 0.064034 -0.052116 0.006739 0.026811 -0.06709 0.015289 -0.038627 -0.066633 0.025129 -0.015949 0.04171 -0.055502 0.02235 0.017849 -0.021342 -0.042542 0.0047451 -0.010066 0.013514 -0.0033433 -0.018947 0.00094237 -0.011677 -0.021623 -0.031565 0.080858 -0.04917 -0.033591 0.023403 0.02114 0.014338 0.00023016 0.021611 0.04495 0.024211 -0.04561 0.0057694 0.034775 -0.0021238 -0.0035418 -0.015818 -0.044382 -0.00023467 0.079211 0.060737 0.014648 -0.031067 0.064574 -0.00046381 0.03728 -0.0070264 0.043667 -0.0064459 0.031026 0.01826 -0.012849 -0.016972 -0.0046667 -0.032117 -0.021369 0.046678 0.046787 0.014371 0.043786 -0.10515 -0.00020952 -0.053175 0.0052314 -0.037783 -0.0056514 0.052002 -0.031331 0.026855 0.064566 -0.018585 -0.040355 -0.068017 -0.026338 0.031132 -0.0077112 -0.043575 -0.032711 -0.065567 0.015723 -0.0044125 0.047073 0.079823 0.036497 -0.03608 0.047532 -0.05264 -0.01367 -0.0072108 -0.017459 0.072397 -0.052269 -0.056873 0.035002 0.012981 -0.023218 -0.070124 0.041726 -0.025116 0.041101 -0.0053785 -0.010209 0.032092 0.034767 -0.044456 0.046899 0.0092583 -0.00097562 -0.02378 -0.061849 -0.015929 -0.013469 -0.0060302 -0.013735 -0.074887 -0.049304 -0.0079199 -0.021388 -0.021387 -0.050336 -0.044207 -0.017508 -9.3925e-05 -0.063442 0.0048503 0.047071 0.034128 -0.016083 -0.0048082 0.037382 -0.0020471 -0.045496 0.055912 -0.01204 0.093845 -0.067431 -0.036573 -0.0057475 -0.0083259 0.014842 0.016505 -0.010603 0.022239 -0.0059405 -0.046881 -0.01399 0.013015 -0.044686 -0.0011926 0.034526 0.00087044 0.063566 -0.061147 -0.0039437 -0.041145 -0.031412 -0.044804 0.058218 -0.016567 0.02184 0.028265 -0.012585 0.0058016 0.021667 -0.0037504 0.044706 -0.041639 0.0038482 0.017105 -0.011987 0.035144 -0.059689 0.016633 0.033357 -0.033398 0.023546 0.091715 -0.01144 0.039638 0.061097 -0.03956 0.0095046 0.028148 -0.0066133 -0.043942 -0.098003 -0.078066 -0.027491 0.066187 -0.0064811 0.016147 0.010743 -0.062626 -0.087486 -0.09108 0.049322 0.032884 -0.033693 0.025275 -0.027216 -0.0039972 0.018857 0.11089 0.032221 0.038893 -0.033273 -0.002365 0.034649 0.0048077 0.011678 0.021023 -0.03544 0.00043285 -0.010231 0.060807 0.02374 -0.032342 0.017682 0.08096 -0.0161 -0.0024843 0.018055 0.065022 0.032879 -0.0023586 -0.038762 0.011351 -0.014205 0.078986 0.0043712 -0.020947 0.06086 -0.024991 0.038004 -0.025408 -0.015197 -0.015315 -0.042394 0.028893 -0.065043 -0.034521 -0.061579 
qui -0.029932 -0.021718 -0.027026 0.001841 -0.025323 0.0026815 -0.023301 0.015747 -0.011691 -0.0098502 -0.019445 0.010478 -0.046942 -0.003778 0.041473 -0.0033011 -0.023384 0.012661 -0.04083 0.017131 -0.00577 -0.00064092 -0.037028 0.032049 0.0078482 -0.037507 0.048008 0.027224 -0.051044 -0.0099815 -0.015874 0.0072513 -0.011456 0.033017 0.0051066 -0.021218 -0.019157 -0.034711 0.020729 0.026598 0.040697 0.015889 -0.059111 0.020045 0.037647 0.014386 0.0089367 -0.055318 -0.01264 0.0046914 -0.0068967 -0.069131 -0.019449 -0.032964 0.045251 -0.037539 0.0048424 0.020063 -0.048643 0.009069 -0.02775 -0.048586 0.0168 -0.012143 0.030283 -0.039531 0.016368 0.013547 -0.016541 -0.029767 0.0026017 -0.0061989 0.010488 -0.0016806 -0.013425 0.002081 -0.0078189 -0.016494 -0.024821 0.058596 -0.036261 -0.024329 0.016842 0.015827 0.010712 -0.00075846 0.015043 0.033959 0.018548 -0.033761 0.0029213 0.024724 -0.0029789 -0.0029156 -0.012808 -0.032589 -0.0012419 0.056869 0.04525 0.011249 -0.023466 0.046452 0.0010004 0.026325 -0.0052699 0.031257 -0.0045441 0.022007 0.013978 -0.0089874 -0.012198 -0.0011114 -0.024028 -0.015456 0.035253 0.033545 0.010798 0.031 -0.075112 -0.00012365 -0.039302 0.0025678 -0.026367 -0.0045716 0.037496 -0.022828 0.018299 0.047457 -0.013872 -0.029008 -0.04767 -0.019483 0.023708 -0.0060709 -0.029941 -0.022582 -0.046801 0.011828 -0.0026395 0.033701 0.058438 0.025915 -0.02586 0.033926 -0.03814 -0.010166 -0.0051683 -0.012485 0.051537 -0.038002 -0.040113 0.026172 0.011225 -0.016562 -0.051559 0.030425 -0.015762 0.030554 -0.0047715 -0.007197 0.023742 0.025649 -0.031911 0.035304 0.0067577 -0.00084741 -0.016117 -0.044392 -0.010642 -0.0089229 -0.0059364 -0.010891 -0.052729 -0.036183 -0.0052097 -0.015218 -0.015561 -0.035723 -0.031691 -0.014397 -0.00028943 -0.045874 0.0026039 0.034357 0.023217 -0.012226 -0.0025882 0.028103 -0.0027627 -0.03271 0.041108 -0.01022 0.068003 -0.047993 -0.027215 -0.0030746 -0.0050573 0.010483 0.01293 -0.0085576 0.015911 -0.0042502 -0.034313 -0.010366 0.0088487 -0.031239 -0.00039794 0.025881 0.0017229 0.045594 -0.044262 -0.0023614 -0.029676 -0.021977 -0.032143 0.041812 -0.013166 0.016344 0.020472 -0.0096892 0.0041165 0.01573 -0.0032717 0.032013 -0.032043 0.0025535 0.012483 -0.0079051 0.024674 -0.04238 0.012691 0.022938 -0.024666 0.016124 0.066581 -0.0081409 0.027803 0.043551 -0.029952 0.0065839 0.020444 -0.0045886 -0.031697 -0.069637 -0.056028 -0.020635 0.0478 -0.0048422 0.012722 0.0089803 -0.045258 -0.063194 -0.066247 0.035543 0.024234 -0.025052 0.019625 -0.020622 -0.0030197 0.01397 0.080738 0.023139 0.027943 -0.023784 -0.0017381 0.025017 0.0029002 0.0073617 0.013916 -0.026676 -5.0843e-05 -0.008076 0.043395 0.016334 -0.023433 0.012503 0.058401 -0.011241 -0.0030958 0.014061 0.045455 0.023524 -0.0018129 -0.027363 0.0078581 -0.0095198 0.057505 0.0037919 -0.015826 0.042927 -0.018464 0.02642 -0.01887 -0.011527 -0.012604 -0.030213 0.021011 -0.046551 -0.025238 -0.044369 
officia -0.042542 -0.029823 -0.03902 0.0015014 -0.034417 0.0034922 -0.032828 0.021895 -0.017065 -0.013825 -0.026079 0.015614 -0.067811 -0.0072137 0.060754 -0.0055027 -0.032974 0.016772 -0.058145 0.025463 -0.0084305 -0.0021528 -0.051794 0.045612 0.010811 -0.052508 0.069215 0.03889 -0.074728 -0.013181 -0.021536 0.0090482 -0.017337 0.044809 0.0067395 -0.029862 -0.028793 -0.047959 0.028505 0.037518 0.057793 0.023456 -0.085996 0.029641 0.052856 0.019114 0.011536 -0.07986 -0.015682 0.0055152 -0.008791 -0.099001 -0.027704 -0.04696 0.06564 -0.053447 0.0073558 0.027452 -0.068371 0.015146 -0.040031 -0.069101 0.026541 -0.01715 0.042804 -0.056077 0.022657 0.01876 -0.0215 -0.043992 0.004029 -0.01031 0.01427 -0.0037918 -0.019447 0.00036866 -0.011462 -0.022168 -0.031866 0.083115 -0.049458 -0.035059 0.02348 0.021281 0.014661 -0.00038597 0.022248 0.047084 0.024148 -0.046484 0.006446 0.036139 -0.0022469 -0.0035207 -0.016262 -0.046794 -0.00061139 0.080924 0.062499 0.015797 -0.03219 0.066461 -0.00082002 0.037925 -0.0072569 0.044687 -0.0068568 0.032107 0.019194 -0.012677 -0.017746 -0.0049678 -0.032609 -0.021777 0.048658 0.048541 0.015565 0.044395 -0.10801 -0.00053733 -0.054131 0.0055147 -0.038946 -0.005387 0.053125 -0.031789 0.027972 0.06573 -0.018937 -0.041548 -0.069056 -0.02696 0.031957 -0.0081543 -0.044836 -0.033845 -0.067324 0.016377 -0.0045883 0.047767 0.081982 0.037711 -0.035665 0.04811 -0.054516 -0.014841 -0.0067956 -0.018974 0.074559 -0.053903 -0.058475 0.035739 0.013005 -0.022677 -0.072977 0.042877 -0.025538 0.042577 -0.0052038 -0.010172 0.032668 0.035656 -0.045117 0.048016 0.010188 -0.00018025 -0.025069 -0.062568 -0.016075 -0.013583 -0.005924 -0.014669 -0.076067 -0.050683 -0.0080795 -0.021548 -0.022286 -0.051303 -0.045111 -0.018828 0.0009865 -0.065983 0.0055898 0.04853 0.034193 -0.016177 -0.004222 0.038053 -0.0020847 -0.046911 0.058054 -0.012384 0.095746 -0.069457 -0.038374 -0.0062346 -0.00828 0.015729 0.017507 -0.011181 0.022346 -0.0072815 -0.048583 -0.014638 0.012988 -0.045993 -0.0016435 0.036179 0.0012617 0.064568 -0.062413 -0.0040584 -0.042612 -0.031356 -0.046774 0.05929 -0.017095 0.022277 0.028979 -0.011945 0.0062164 0.021959 -0.0039084 0.044879 -0.043549 0.0039061 0.017833 -0.012101 0.036399 -0.060584 0.017728 0.033394 -0.033609 0.023859 0.09382 -0.012583 0.041344 0.062059 -0.040342 0.0086886 0.029309 -0.006658 -0.044479 -0.10089 -0.08059 -0.028985 0.06849 -0.0069478 0.015948 0.010939 -0.064548 -0.089724 -0.093733 0.05134 0.034232 -0.035313 0.026407 -0.029413 -0.0043454 0.019599 0.1148 0.033667 0.040344 -0.033541 -0.0022071 0.035849 0.005666 0.010955 0.021708 -0.036913 -0.00023045 -0.010396 0.061791 0.024987 -0.032907 0.017388 0.081995 -0.016774 -0.0023318 0.017961 0.066425 0.033738 -0.0020977 -0.040566 0.012114 -0.015112 0.081142 0.0041567 -0.020902 0.062442 -0.025391 0.038832 -0.02637 -0.015528 -0.016166 -0.04408 0.029533 -0.066956 -0.035588 -0.063521 
deserunt -0.043861 -0.030655 -0.04027 0.0019118 -0.035558 0.0044346 -0.033576 0.02268 -0.017351 -0.014141 -0.027338 0.015893 -0.068772 -0.0069923 0.061926 -0.0062561 -0.034343 0.017689 -0.059574 0.025131 -0.0082305 -0.0021692 -0.053345 0.046799 0.011251 -0.053402 0.069581 0.03936 -0.075678 -0.014498 -0.021644 0.0092701 -0.017679 0.045762 0.0069482 -0.029759 -0.029954 -0.048169 0.028706 0.038422 0.058878 0.023568 -0.087888 0.029609 0.054512 0.019606 0.01227 -0.08185 -0.016337 0.0062878 -0.0095756 -0.10003 -0.028727 -0.048572 0.066548 -0.054688 0.0075958 0.0278 -0.069612 0.016217 -0.040639 -0.070135 0.026718 -0.017345 0.044575 -0.057595 0.022774 0.01885 -0.02227 -0.043512 0.0046404 -0.010694 0.014505 -0.0036635 -0.019634 0.00035916 -0.012269 -0.022123 -0.033145 0.084649 -0.050668 -0.0361 0.023914 0.022553 0.015848 -0.00078095 0.02213 0.04724 0.025025 -0.047123 0.0055672 0.037009 -0.0022052 -0.0036266 -0.017015 -0.048207 -0.0010544 0.08196 0.0646 0.015727 -0.032498 0.067718 -0.00047223 0.038202 -0.0076972 0.045278 -0.0069604 0.03272 0.019805 -0.012762 -0.017215 -0.0052795 -0.033553 -0.022107 0.048651 0.04793 0.01488 0.045011 -0.11025 -0.00079904 -0.054295 0.0069004 -0.040022 -0.0064316 0.053918 -0.032661 0.028492 0.067636 -0.019323 -0.041699 -0.070576 -0.027744 0.032717 -0.0086093 -0.045826 -0.03446 -0.069053 0.016511 -0.0047109 0.050022 0.083448 0.038281 -0.036587 0.048428 -0.055769 -0.014236 -0.0076644 -0.018474 0.075958 -0.054121 -0.060051 0.035967 0.013122 -0.023027 -0.074958 0.04377 -0.025978 0.043729 -0.0057469 -0.011009 0.034274 0.036599 -0.046933 0.049801 0.010869 -0.0013372 -0.024495 -0.064468 -0.017077 -0.014013 -0.0062931 -0.013792 -0.077662 -0.052712 -0.0070618 -0.021707 -0.023208 -0.053279 -0.047136 -0.019702 0.00068795 -0.066679 0.0056653 0.049895 0.034311 -0.017774 -0.004122 0.04011 -0.0024427 -0.047445 0.058253 -0.01326 0.098045 -0.070936 -0.039553 -0.0076514 -0.0092376 0.015647 0.017208 -0.010289 0.02267 -0.0067649 -0.048772 -0.014623 0.013736 -0.046865 -0.0019004 0.036682 0.00053922 0.065727 -0.063275 -0.0037565 -0.043312 -0.032164 -0.047735 0.060139 -0.017855 0.022804 0.029422 -0.011759 0.0060079 0.023464 -0.0039584 0.046642 -0.044481 0.0037937 0.018172 -0.012315 0.036509 -0.061843 0.017898 0.034394 -0.035737 0.023849 0.096588 -0.012193 0.041967 0.064124 -0.040281 0.0095248 0.03 -0.0067126 -0.045844 -0.10306 -0.081353 -0.029032 0.06969 -0.006132 0.017689 0.011472 -0.065964 -0.092007 -0.095135 0.05197 0.035246 -0.03605 0.026292 -0.029445 -0.0048421 0.019835 0.11705 0.034405 0.041381 -0.033702 -0.0021794 0.0369 0.0048097 0.011555 0.02175 -0.037798 8.0235e-05 -0.010408 0.063604 0.025746 -0.034058 0.017727 0.083796 -0.017215 -0.0020745 0.018189 0.067484 0.034697 -0.0033266 -0.041205 0.012088 -0.015008 0.082326 0.0053852 -0.022057 0.063808 -0.025801 0.038971 -0.027271 -0.014836 -0.01616 -0.044211 0.029894 -0.068334 -0.036417 -0.06494 
mollit -0.042748 -0.029921 -0.038282 0.0012741 -0.034141 0.0037684 -0.032524 0.023018 -0.016595 -0.014157 -0.02641 0.014776 -0.066344 -0.0064595 0.06046 -0.0056545 -0.032913 0.016408 -0.057675 0.024891 -0.0079415 -0.00093703 -0.051386 0.044467 0.010696 -0.052159 0.067355 0.038357 -0.073587 -0.013549 -0.021527 0.0091963 -0.017162 0.044343 0.0066138 -0.029341 -0.02856 -0.047642 0.027885 0.037148 0.056662 0.023559 -0.084815 0.028974 0.052888 0.01931 0.010723 -0.079053 -0.016056 0.0052659 -0.0087942 -0.096862 -0.02698 -0.047252 0.0644 -0.053233 0.0079088 0.026582 -0.067831 0.01517 -0.03955 -0.068478 0.026386 -0.016888 0.043261 -0.055927 0.022238 0.018087 -0.021552 -0.042581 0.0049611 -0.0097324 0.01382 -0.0033941 -0.019282 -3.2997e-06 -0.011335 -0.021302 -0.031783 0.081124 -0.04933 -0.033944 0.022635 0.022051 0.015395 -0.00030334 0.022153 0.04714 0.023371 -0.045461 0.0057327 0.03597 -0.002113 -0.0035646 -0.017432 -0.04691 -0.0010196 0.079786 0.062122 0.014445 -0.032026 0.065777 -0.00025685 0.037238 -0.0077795 0.045014 -0.0069401 0.031751 0.018913 -0.012529 -0.017682 -0.0050526 -0.032797 -0.021428 0.048035 0.047435 0.015084 0.044403 -0.10632 -0.0012314 -0.053684 0.0051014 -0.038772 -0.0059134 0.052262 -0.032153 0.027161 0.065228 -0.017921 -0.040563 -0.067978 -0.026679 0.03147 -0.0074704 -0.044548 -0.033389 -0.066374 0.016073 -0.003904 0.048146 0.082098 0.0359 -0.035419 0.047389 -0.053534 -0.014434 -0.0070438 -0.017401 0.072767 -0.053024 -0.058044 0.035769 0.012726 -0.022716 -0.072685 0.041905 -0.025304 0.04127 -0.005887 -0.009808 0.031897 0.034499 -0.04524 0.047366 0.010364 -0.00049696 -0.023896 -0.062578 -0.015947 -0.013899 -0.0063504 -0.014236 -0.075288 -0.050439 -0.0074994 -0.021144 -0.021238 -0.050791 -0.044554 -0.019581 0.00070494 -0.064964 0.0051111 0.048509 0.033597 -0.01653 -0.0035351 0.037628 -0.0016828 -0.045645 0.057143 -0.013053 0.094777 -0.068026 -0.03781 -0.0059899 -0.0081212 0.015603 0.017737 -0.010976 0.021464 -0.0065793 -0.047419 -0.01466 0.013321 -0.044335 -0.0022331 0.035727 0.0005063 0.063684 -0.060971 -0.0031564 -0.040798 -0.03081 -0.046907 0.058821 -0.017338 0.02271 0.028758 -0.011426 0.0060319 0.021685 -0.0038165 0.044544 -0.043016 0.0033074 0.018209 -0.01227 0.034981 -0.059824 0.01719 0.033576 -0.033842 0.023677 0.093549 -0.012829 0.040724 0.061321 -0.040259 0.0078778 0.029468 -0.0053348 -0.04469 -0.099844 -0.079342 -0.028401 0.067033 -0.0066166 0.016731 0.0099379 -0.063209 -0.0893 -0.091916 0.050818 0.033788 -0.035166 0.026191 -0.0273 -0.0044991 0.018993 0.11387 0.033385 0.040157 -0.033079 -0.0023856 0.035445 0.005539 0.01077 0.021906 -0.036381 -6.4144e-05 -0.01021 0.061091 0.023941 -0.033281 0.017845 0.081742 -0.016647 -0.0029349 0.017633 0.06492 0.033079 -0.0029747 -0.039406 0.011672 -0.014352 0.080114 0.0049856 -0.020083 0.062008 -0.024835 0.037817 -0.025502 -0.015438 -0.016086 -0.042655 0.030001 -0.065559 -0.035545 -0.061523 
anim -0.039154 -0.026713 -0.034738 0.0010362 -0.030315 0.0032712 -0.02839 0.020794 -0.014682 -0.01226 -0.024 0.014331 -0.059229 -0.0056601 0.053197 -0.005511 -0.028857 0.014939 -0.0517 0.020826 -0.007052 -0.00031963 -0.045996 0.038255 0.0091821 -0.046504 0.060628 0.033635 -0.066089 -0.012393 -0.019471 0.0077649 -0.015607 0.040599 0.0049497 -0.026284 -0.024541 -0.042523 0.024874 0.03378 0.051382 0.02123 -0.075959 0.025829 0.04626 0.016199 0.0097975 -0.070682 -0.013968 0.0059557 -0.0067494 -0.084918 -0.023579 -0.042066 0.057545 -0.047976 0.0060579 0.024887 -0.060332 0.01364 -0.03537 -0.060404 0.0224 -0.015686 0.038392 -0.05014 0.020469 0.01603 -0.018604 -0.038324 0.0044161 -0.0080225 0.011483 -0.0037867 -0.017451 0.00053569 -0.010073 -0.019139 -0.028121 0.073812 -0.044856 -0.030079 0.020396 0.019102 0.013063 -0.001842 0.018429 0.041715 0.022085 -0.04132 0.0041993 0.032067 -0.0019597 -0.001509 -0.014266 -0.042407 -0.0012831 0.070662 0.056176 0.013567 -0.028014 0.058689 -0.00055572 0.033384 -0.0068696 0.038965 -0.0065798 0.027642 0.016367 -0.010724 -0.014183 -0.0041034 -0.030292 -0.018921 0.042482 0.042369 0.012347 0.038385 -0.095356 -0.0017753 -0.047466 0.005025 -0.033934 -0.0035554 0.047349 -0.028846 0.025431 0.058659 -0.016951 -0.03599 -0.061781 -0.023246 0.027102 -0.0075314 -0.039468 -0.028862 -0.05842 0.013596 -0.0035704 0.043422 0.071304 0.032142 -0.03216 0.0418 -0.047211 -0.012195 -0.0056313 -0.016229 0.06562 -0.046322 -0.051639 0.031711 0.012373 -0.019949 -0.065262 0.037171 -0.023054 0.037048 -0.0053148 -0.0081347 0.030062 0.030612 -0.040388 0.042758 0.0087948 -0.00098802 -0.020426 -0.055327 -0.014233 -0.013012 -0.0048336 -0.013168 -0.067146 -0.04519 -0.0067721 -0.018789 -0.0199 -0.045174 -0.038653 -0.016398 -4.5239e-06 -0.057922 0.0035059 0.044099 0.029948 -0.015842 -0.003442 0.034416 -0.0016477 -0.040231 0.051033 -0.010381 0.083792 -0.059844 -0.033856 -0.0064535 -0.0089486 0.013954 0.015754 -0.0089569 0.019892 -0.005028 -0.041992 -0.011951 0.011325 -0.039965 -0.0010052 0.032886 0.00046624 0.055896 -0.055736 -0.0035041 -0.037805 -0.028438 -0.042001 0.051952 -0.01532 0.019906 0.025335 -0.01023 0.005075 0.019455 -0.0033373 0.039319 -0.037084 0.0044145 0.015477 -0.010992 0.031626 -0.05216 0.016001 0.0304 -0.029201 0.020348 0.083782 -0.011287 0.036136 0.055481 -0.035591 0.0065715 0.024953 -0.0061624 -0.039647 -0.088916 -0.070274 -0.025388 0.060838 -0.0051109 0.015392 0.0099484 -0.056312 -0.078618 -0.081874 0.045013 0.030164 -0.031756 0.022225 -0.024743 -0.0051201 0.016936 0.10088 0.029569 0.03561 -0.030224 -0.001873 0.032058 0.0046657 0.0093526 0.018718 -0.031629 0.00061286 -0.0095709 0.054302 0.021534 -0.030404 0.015507 0.073811 -0.01468 -0.0027337 0.015956 0.059282 0.029365 -0.001657 -0.035561 0.010105 -0.013382 0.071232 0.0039945 -0.017715 0.055131 -0.02178 0.033956 -0.02172 -0.013125 -0.013358 -0.038345 0.026331 -0.058089 -0.031305 -0.05552 
id -0.027087 -0.019 -0.025404 0.0013325 -0.021722 0.0037562 -0.020832 0.01598 -0.01188 -0.0075117 -0.017056 0.0085978 -0.041915 -0.004719 0.037371 -0.0024208 -0.020222 0.012264 -0.037135 0.016732 -0.0059167 -0.001328 -0.034082 0.0283 0.0054558 -0.033462 0.043033 0.024014 -0.04863 -0.0084704 -0.012337 0.0068457 -0.012756 0.029813 0.0052544 -0.017223 -0.016997 -0.030296 0.018209 0.023041 0.037096 0.015502 -0.05485 0.01784 0.033673 0.013778 0.0078576 -0.050384 -0.010021 0.0038559 -0.0055542 -0.062576 -0.018088 -0.029435 0.042153 -0.033978 0.0056255 0.016468 -0.041482 0.010561 -0.023893 -0.042397 0.015289 -0.011498 0.027571 -0.034527 0.013485 0.013184 -0.013004 -0.025946 0.0036923 -0.0061826 0.0091728 -0.0033455 -0.011575 -0.001441 -0.007544 -0.014655 -0.01868 0.052952 -0.030889 -0.022051 0.014013 0.012653 0.010481 -0.00038622 0.013329 0.029253 0.014636 -0.029322 0.0033942 0.024472 -0.0015416 -0.0032982 -0.011627 -0.031171 0.00014225 0.05107 0.04032 0.0090688 -0.020522 0.041622 0.00012019 0.024392 -0.0054455 0.02814 -0.0035965 0.018638 0.012402 -0.0072829 -0.01246 -0.00071543 -0.021344 -0.014465 0.029981 0.03028 0.0085943 0.027934 -0.067512 3.5676e-05 -0.034192 0.0046937 -0.02408 -0.0045757 0.032299 -0.02167 0.017725 0.042543 -0.013152 -0.026269 -0.044216 -0.017928 0.018814 -0.00563 -0.027827 -0.021705 -0.043746 0.01163 -0.0031019 0.030626 0.053016 0.02556 -0.022095 0.031562 -0.036076 -0.0061725 -0.0040356 -0.013167 0.047729 -0.033672 -0.03714 0.021393 0.0083375 -0.014112 -0.046507 0.027887 -0.016557 0.026913 -0.0049466 -0.0065535 0.018593 0.02425 -0.029319 0.030147 0.0073855 -0.0003871 -0.015514 -0.039883 -0.011003 -0.007704 -0.0029987 -0.0086298 -0.048189 -0.034298 -0.0054091 -0.012757 -0.013956 -0.034512 -0.028487 -0.011119 0.0015176 -0.04047 0.0013583 0.033372 0.021814 -0.011215 -0.0049512 0.026699 -0.0016978 -0.029439 0.036439 -0.0086881 0.061752 -0.045337 -0.025433 -0.0050854 -0.0040624 0.00968 0.0096613 -0.007952 0.014975 -0.0040299 -0.030276 -0.010412 0.0087927 -0.029373 -0.0012932 0.023463 0.000655 0.0405 -0.039854 -0.002305 -0.026149 -0.019057 -0.030221 0.039001 -0.010286 0.015719 0.019784 -0.0067486 0.0043274 0.015776 -0.0046769 0.028892 -0.027603 0.0013172 0.012364 -0.008148 0.024438 -0.038615 0.011859 0.020896 -0.022403 0.01671 0.060279 -0.005436 0.025366 0.040274 -0.026124 0.0058064 0.020392 -0.0042871 -0.026283 -0.063274 -0.05035 -0.019599 0.043983 -0.0038573 0.012365 0.0073616 -0.040661 -0.056179 -0.058864 0.031448 0.02209 -0.022021 0.016709 -0.019016 -0.0014199 0.013195 0.070934 0.022834 0.026291 -0.020042 -0.0004477 0.022991 0.0040338 0.0070831 0.013324 -0.023339 -0.00058792 -0.0062994 0.038902 0.01533 -0.022024 0.011371 0.051825 -0.0097819 -0.00019038 0.011965 0.042567 0.020503 -0.0027807 -0.024531 0.0082735 -0.010359 0.051485 0.0029538 -0.013203 0.039924 -0.017658 0.024241 -0.018073 -0.0086103 -0.0092038 -0.027644 0.020081 -0.042859 -0.023226 -0.041835 
est -0.032424 -0.022515 -0.030622 0.00033217 -0.028809 0.002679 -0.025973 0.016992 -0.013715 -0.010718 -0.021166 0.011239 -0.051662 -0.0050136 0.047789 -0.0039117 -0.025131 0.014252 -0.044273 0.019643 -0.0056544 -0.00036222 -0.040305 0.033135 0.0088515 -0.0405 0.053194 0.029144 -0.056574 -0.010731 -0.017099 0.0087806 -0.01286 0.03417 0.0054582 -0.023727 -0.021694 -0.036623 0.02184 0.028805 0.045409 0.017939 -0.066702 0.022783 0.041524 0.014847 0.0078381 -0.061688 -0.012242 0.0051779 -0.0070458 -0.074832 -0.02202 -0.038301 0.050367 -0.041397 0.0046462 0.021965 -0.052112 0.013173 -0.031768 -0.052884 0.020312 -0.013764 0.032722 -0.043697 0.018163 0.01409 -0.017172 -0.032373 0.0034176 -0.0071958 0.010847 -0.0023634 -0.015006 0.0014378 -0.0087197 -0.017419 -0.024575 0.065171 -0.039556 -0.02707 0.018163 0.016198 0.012841 -0.00057174 0.015179 0.034769 0.017858 -0.035651 0.0040854 0.026056 -0.0015732 -0.0027095 -0.012265 -0.036451 -0.0013166 0.061866 0.048388 0.010381 -0.026688 0.052212 -7.2745e-05 0.027615 -0.0058546 0.034756 -0.0053475 0.024141 0.015454 -0.010469 -0.013641 -0.0031237 -0.02468 -0.016474 0.03724 0.036884 0.010798 0.0327 -0.083843 -0.00024397 -0.041506 0.0041274 -0.030454 -0.0039665 0.039626 -0.02587 0.021833 0.050421 -0.015141 -0.030799 -0.053423 -0.020488 0.02367 -0.0063869 -0.034264 -0.026772 -0.052034 0.0125 -0.0050736 0.037626 0.062803 0.028231 -0.028483 0.036632 -0.042666 -0.011398 -0.0044916 -0.013589 0.058204 -0.041178 -0.044487 0.027812 0.0097021 -0.01777 -0.05689 0.035121 -0.01934 0.034684 -0.0031521 -0.0092381 0.026614 0.026976 -0.034567 0.036513 0.0068425 -0.0020744 -0.018148 -0.048317 -0.012375 -0.010542 -0.0056598 -0.011833 -0.058278 -0.038657 -0.0056372 -0.016801 -0.017464 -0.038899 -0.035307 -0.01448 0.00020311 -0.051277 0.0056287 0.037757 0.026415 -0.013812 -0.0036005 0.028855 -0.0013653 -0.036453 0.044404 -0.010921 0.072967 -0.052826 -0.029673 -0.0047228 -0.0072431 0.012189 0.013278 -0.0077059 0.017292 -0.005436 -0.037636 -0.0098316 0.010432 -0.035773 -0.0014373 0.027651 1.4924e-05 0.050725 -0.046946 -0.0018184 -0.031797 -0.024552 -0.035263 0.045033 -0.01344 0.016495 0.021851 -0.010053 0.003991 0.016785 -0.0036252 0.036008 -0.032555 0.0020158 0.013381 -0.010346 0.027334 -0.047969 0.013249 0.026207 -0.026816 0.018914 0.073071 -0.0098608 0.031113 0.047792 -0.030506 0.0084136 0.023143 -0.005486 -0.033839 -0.079156 -0.060535 -0.02212 0.052233 -0.0038571 0.0134 0.0081839 -0.048969 -0.069088 -0.072362 0.039339 0.025689 -0.028488 0.021457 -0.021389 -0.0028356 0.014966 0.088745 0.025773 0.031059 -0.02492 -0.0017084 0.028175 0.003962 0.0077703 0.01684 -0.028733 0.0011286 -0.0073293 0.046963 0.020049 -0.026088 0.013406 0.062581 -0.011573 -0.00050067 0.014357 0.051443 0.025728 -0.0020174 -0.031308 0.0086934 -0.010408 0.061567 0.0040878 -0.015789 0.04754 -0.019837 0.029545 -0.01987 -0.011097 -0.012537 -0.03293 0.021931 -0.051142 -0.028018 -0.048493 
laborum. -0.043866 -0.031473 -0.039162 0.0014304 -0.035285 0.0035343 -0.033557 0.023111 -0.016983 -0.013878 -0.026754 0.015342 -0.069536 -0.0069666 0.062748 -0.0053161 -0.03443 0.018631 -0.060027 0.025564 -0.0084177 -0.0014811 -0.053299 0.046064 0.011191 -0.05368 0.070538 0.039581 -0.076203 -0.014238 -0.022232 0.0095847 -0.017382 0.046022 0.0077655 -0.0307 -0.029733 -0.049271 0.027992 0.039068 0.059446 0.024008 -0.087902 0.03001 0.054448 0.019706 0.011861 -0.081146 -0.016309 0.0060488 -0.0086344 -0.099679 -0.028997 -0.048904 0.066663 -0.05449 0.0080786 0.028935 -0.070374 0.015444 -0.04148 -0.070927 0.026846 -0.017334 0.044595 -0.057528 0.023426 0.019363 -0.021346 -0.045015 0.0046099 -0.01051 0.014307 -0.0033173 -0.020046 0.0010788 -0.01222 -0.022126 -0.033141 0.085233 -0.051089 -0.03565 0.024454 0.022465 0.014715 -0.0002985 0.022658 0.048699 0.024762 -0.047342 0.0056699 0.036253 -0.0024195 -0.0034612 -0.017057 -0.04848 -0.00056912 0.082655 0.064237 0.016449 -0.032405 0.068323 -0.00025729 0.038432 -0.0081318 0.045964 -0.0072129 0.032442 0.020645 -0.013001 -0.01757 -0.005385 -0.034065 -0.022114 0.049663 0.049214 0.01444 0.045241 -0.11026 -4.36e-05 -0.055512 0.0063081 -0.039012 -0.0062836 0.054076 -0.033171 0.028835 0.067832 -0.019244 -0.042529 -0.070769 -0.028326 0.032797 -0.0081062 -0.045045 -0.034668 -0.068397 0.016171 -0.0049042 0.048663 0.084111 0.03795 -0.036647 0.048751 -0.055501 -0.014876 -0.0065261 -0.019075 0.076286 -0.054999 -0.059276 0.036262 0.013381 -0.023781 -0.075322 0.044043 -0.025761 0.04393 -0.0060793 -0.010653 0.033957 0.036628 -0.046475 0.04984 0.010319 -0.001133 -0.024138 -0.064528 -0.016452 -0.014348 -0.0060378 -0.014748 -0.077841 -0.052023 -0.0078203 -0.0217 -0.022917 -0.052375 -0.046422 -0.019601 0.00048384 -0.066633 0.0045209 0.049894 0.034635 -0.01711 -0.0042228 0.038965 -0.0018228 -0.048296 0.059295 -0.012797 0.097228 -0.070877 -0.03957 -0.0067379 -0.0092526 0.015822 0.017606 -0.010829 0.022401 -0.0067341 -0.048819 -0.014388 0.013004 -0.046789 -0.0013718 0.036679 0.00083024 0.065905 -0.063145 -0.0037895 -0.042974 -0.032012 -0.047913 0.060484 -0.017534 0.023165 0.030045 -0.012011 0.0056406 0.02239 -0.0044518 0.046084 -0.043747 0.0038048 0.018854 -0.012487 0.036619 -0.061943 0.017546 0.033827 -0.0347 0.024268 0.0966 -0.012843 0.042361 0.063845 -0.041356 0.0092544 0.030284 -0.0063493 -0.045333 -0.10254 -0.081908 -0.030117 0.069339 -0.0063952 0.016637 0.010767 -0.066555 -0.091868 -0.095145 0.05206 0.035274 -0.036359 0.027302 -0.028888 -0.0042162 0.01994 0.11768 0.034004 0.041457 -0.03469 -0.0028645 0.036309 0.0053236 0.01203 0.021783 -0.037876 0.00080624 -0.010501 0.063007 0.026026 -0.033527 0.017325 0.084086 -0.017092 -0.0022837 0.019054 0.068096 0.034562 -0.002188 -0.041397 0.012114 -0.015341 0.082912 0.0044619 -0.021279 0.063138 -0.025893 0.039317 -0.027249 -0.015419 -0.016205 -0.044021 0.029952 -0.068353 -0.036505 -0.0649 
