435 100
</s> 0.004003 0.004419 -0.003830 -0.003278 0.001367 0.003021 0.000941 0.000211 -0.003604 0.002218 -0.004356 0.001250 -0.000751 -0.000957 -0.003316 -0.001882 0.002579 0.003025 0.002969 0.001597 0.001545 -0.003803 -0.004096 0.004970 0.003801 0.003090 -0.000604 0.004016 -0.000495 0.000735 -0.000149 -0.002983 0.001312 -0.001337 -0.003825 0.004754 0.004379 -0.001095 -0.000226 0.000509 -0.003638 -0.004007 0.004555 0.000063 -0.002582 -0.003042 -0.003076 0.001697 0.000201 0.001331 -0.004214 -0.003808 -0.000130 0.001144 0.002550 -0.003170 0.004080 0.000927 0.001120 -0.000608 0.002986 -0.002288 -0.002097 0.002158 -0.000753 0.001031 0.001805 -0.004089 -0.001983 0.002914 0.004232 0.003932 -0.003047 -0.002108 -0.000909 0.002001 -0.003788 0.002998 0.002788 -0.001599 -0.001552 -0.002238 0.004229 0.003912 -0.001180 0.004215 0.004820 0.001815 0.004983 -0.003111 -0.001532 -0.002107 -0.002907 0.002815 0.001579 0.000425 -0.002194 0.001524 0.003059 0.000194 
et 0.065103 -0.286523 0.113123 -0.267967 -0.071322 -0.067120 -0.090752 -0.139977 -0.069691 0.182572 -0.001066 0.336990 -0.385081 -0.070025 0.131611 0.436864 0.262294 0.007443 0.139368 0.067435 0.053795 0.238023 0.129775 -0.164821 -0.078077 -0.264162 0.094937 0.046446 0.250781 0.127879 -0.096248 -0.120144 -0.310494 0.202850 0.029711 -0.070201 0.164986 -0.125055 0.002332 -0.073112 -0.263511 0.194947 -0.304613 -0.068838 0.148701 0.214144 0.077265 0.152397 -0.100744 -0.179966 0.071316 -0.200064 0.111830 0.083516 -0.079367 0.068929 0.322799 -0.001353 -0.125702 -0.151813 0.134009 -0.180896 -0.033876 -0.179773 -0.173403 0.275796 0.065289 -0.186138 0.226389 0.060892 -0.209211 -0.003613 0.122452 -0.075892 -0.163041 0.089298 -0.210737 -0.113117 -0.174553 -0.314183 0.070417 0.045745 0.022625 -0.093502 0.093843 0.316804 -0.002149 -0.054628 0.269803 -0.152779 -0.020158 0.203164 -0.028039 0.250874 0.079001 0.166517 0.059464 0.355036 0.085771 -0.114481 
sit 0.005407 -0.268745 0.137069 -0.280150 -0.072577 -0.106089 -0.042013 -0.144888 -0.058908 0.205040 0.026844 0.301271 -0.376915 -0.069401 0.140154 0.371762 0.209684 0.052092 0.147699 0.087859 0.043461 0.229119 0.102816 -0.106911 -0.078888 -0.126843 0.148608 0.051757 0.151598 0.139823 -0.092583 -0.144275 -0.255244 0.227597 0.005931 -0.066500 0.115997 -0.116663 0.002924 -0.105281 -0.270314 0.149361 -0.281372 -0.042565 0.130552 0.186600 0.030509 0.174775 -0.110628 -0.195999 0.037234 -0.184069 0.068683 0.052460 -0.021080 0.012387 0.315309 0.033812 -0.110050 -0.098705 0.183473 -0.115056 -0.077980 -0.156192 -0.164408 0.230441 0.059473 -0.261931 0.231508 0.039684 -0.187235 0.033482 0.114394 -0.073167 -0.183654 0.041510 -0.198037 -0.057384 -0.200310 -0.325266 0.130745 0.030015 0.055004 -0.038817 0.132752 0.336473 -0.031389 -0.106982 0.287181 -0.123972 0.044295 0.214112 -0.028887 0.217571 0.109797 0.086076 0.065615 0.344542 0.095246 -0.100462 
nec 0.013414 -0.244646 0.104579 -0.268555 -0.059516 -0.073309 -0.087890 -0.156403 -0.048590 0.169527 -0.029787 0.342251 -0.366747 -0.068124 0.120087 0.386451 0.224247 0.017554 0.105016 0.033891 0.024070 0.211925 0.097107 -0.151958 -0.086522 -0.205775 0.085237 0.037719 0.270298 0.159825 -0.090958 -0.113915 -0.274183 0.202612 0.039277 -0.043562 0.148761 -0.094023 0.011142 -0.065631 -0.228012 0.191212 -0.296301 -0.058178 0.161533 0.161805 0.062286 0.163819 -0.119299 -0.196598 0.062719 -0.187678 0.101999 0.048979 -0.051193 0.056016 0.296245 0.039098 -0.113585 -0.143659 0.152478 -0.159798 -0.069574 -0.174039 -0.165590 0.244528 0.044988 -0.187889 0.205525 0.053494 -0.179433 0.008474 0.110640 -0.067905 -0.171631 0.068858 -0.165561 -0.092249 -0.196393 -0.295674 0.072607 0.024844 0.059740 -0.086212 0.081762 0.292891 -0.015979 -0.073214 0.256732 -0.119356 0.011390 0.168325 -0.038036 0.212587 0.099171 0.153091 0.066768 0.329833 0.113195 -0.110117 
ac 0.041427 -0.284458 0.110569 -0.283961 -0.066496 -0.072843 -0.095922 -0.148890 -0.063615 0.199144 -0.002907 0.379073 -0.399444 -0.086784 0.140916 0.452140 0.259161 0.026376 0.137111 0.065161 0.056172 0.248228 0.132977 -0.175879 -0.076097 -0.250525 0.098685 0.041858 0.277021 0.146923 -0.102060 -0.124925 -0.309271 0.218954 0.031153 -0.068723 0.164870 -0.104775 0.011208 -0.061442 -0.258680 0.202788 -0.314749 -0.074344 0.165817 0.190908 0.080522 0.174135 -0.112472 -0.192793 0.066317 -0.198712 0.103946 0.080068 -0.068479 0.056320 0.332897 0.023180 -0.120509 -0.153732 0.155585 -0.174592 -0.060342 -0.176627 -0.187683 0.265992 0.061573 -0.208454 0.227497 0.064245 -0.201971 0.004419 0.128283 -0.073280 -0.179404 0.092090 -0.203020 -0.102165 -0.188149 -0.303628 0.071958 0.029400 0.037750 -0.092929 0.097248 0.320599 -0.007607 -0.065359 0.272074 -0.137890 -0.004163 0.192983 -0.035971 0.236400 0.084828 0.158917 0.069205 0.348969 0.092524 -0.118533 
quis 0.017820 -0.245507 0.103001 -0.279314 -0.060112 -0.072285 -0.090360 -0.146245 -0.053630 0.169986 -0.020318 0.346928 -0.363568 -0.075916 0.127314 0.372504 0.215105 0.029586 0.095194 0.043247 0.028382 0.200028 0.098182 -0.144164 -0.075376 -0.190208 0.078897 0.036208 0.254057 0.164309 -0.084770 -0.116061 -0.280788 0.207351 0.028917 -0.044612 0.157103 -0.093967 0.009375 -0.077705 -0.238304 0.193057 -0.290255 -0.060833 0.157977 0.165111 0.060516 0.168018 -0.122389 -0.195926 0.050136 -0.184234 0.099437 0.051083 -0.034468 0.053358 0.304101 0.037640 -0.113605 -0.130786 0.151353 -0.152545 -0.083138 -0.166148 -0.171957 0.229807 0.051774 -0.191399 0.210852 0.049221 -0.173527 0.003873 0.123426 -0.065498 -0.171492 0.068138 -0.164286 -0.082628 -0.207022 -0.290846 0.070280 0.016249 0.058701 -0.071227 0.082348 0.307593 -0.018736 -0.081660 0.268100 -0.108807 0.017442 0.171759 -0.039662 0.205925 0.098326 0.143716 0.066930 0.324605 0.109290 -0.111682 
id 0.034776 -0.275987 0.118864 -0.309799 -0.075656 -0.084756 -0.107020 -0.172037 -0.055292 0.194329 -0.028133 0.392520 -0.412896 -0.064713 0.140038 0.427335 0.247444 0.029380 0.107638 0.048872 0.039669 0.235814 0.112850 -0.166379 -0.087345 -0.227933 0.087861 0.039930 0.299433 0.190627 -0.092893 -0.129901 -0.326238 0.232290 0.044509 -0.054937 0.179519 -0.109701 0.010116 -0.077888 -0.266745 0.221967 -0.341407 -0.072606 0.179987 0.192540 0.063662 0.190172 -0.129453 -0.216027 0.071085 -0.210516 0.118029 0.058812 -0.053575 0.078235 0.339118 0.041179 -0.127407 -0.159091 0.167543 -0.180650 -0.082431 -0.199770 -0.196509 0.272555 0.057993 -0.222752 0.228665 0.062815 -0.210274 0.006908 0.128185 -0.080157 -0.197845 0.084723 -0.198323 -0.098296 -0.228201 -0.330875 0.074570 0.015549 0.073589 -0.089886 0.089776 0.339896 -0.013111 -0.085781 0.294436 -0.127001 0.020775 0.196657 -0.037432 0.232895 0.102266 0.167481 0.081473 0.369727 0.124783 -0.117693 
in 0.062851 -0.275460 0.125820 -0.290238 -0.066814 -0.066375 -0.098133 -0.165424 -0.053974 0.197083 -0.006403 0.369342 -0.404662 -0.064194 0.142466 0.418486 0.260702 0.024002 0.126058 0.058006 0.055609 0.241138 0.120165 -0.169415 -0.092889 -0.228217 0.087157 0.032596 0.276448 0.159595 -0.104859 -0.117817 -0.320729 0.233554 0.039375 -0.066249 0.178983 -0.127549 -0.003602 -0.064841 -0.269127 0.209319 -0.333683 -0.075859 0.171015 0.220472 0.077187 0.176845 -0.126799 -0.211777 0.072898 -0.212423 0.118444 0.066170 -0.067557 0.071257 0.329911 0.019013 -0.125237 -0.150370 0.155308 -0.173788 -0.061673 -0.195760 -0.190003 0.274801 0.052694 -0.215690 0.246848 0.070255 -0.210043 0.007484 0.129645 -0.096597 -0.192809 0.092926 -0.204072 -0.118974 -0.197573 -0.350875 0.079615 0.030030 0.057279 -0.101719 0.089039 0.339971 -0.017397 -0.064109 0.278175 -0.147156 0.003776 0.196004 -0.023658 0.253939 0.099928 0.159526 0.082605 0.363572 0.105138 -0.107833 
at 0.039700 -0.285451 0.128371 -0.325357 -0.069328 -0.085818 -0.104114 -0.176581 -0.047963 0.188665 -0.036577 0.377938 -0.412496 -0.060005 0.143023 0.414803 0.250830 0.023028 0.118920 0.048253 0.030380 0.229242 0.103625 -0.168365 -0.096298 -0.225601 0.092222 0.037505 0.286624 0.179061 -0.097166 -0.120217 -0.306002 0.211798 0.047062 -0.049429 0.164853 -0.113948 0.004612 -0.066361 -0.265843 0.199854 -0.323676 -0.073717 0.179819 0.181873 0.065488 0.170370 -0.125235 -0.214945 0.067774 -0.214647 0.118932 0.051980 -0.058195 0.070231 0.323603 0.034832 -0.112295 -0.144070 0.166133 -0.160651 -0.076644 -0.193645 -0.176449 0.255289 0.053491 -0.200145 0.224028 0.059440 -0.200294 -0.005046 0.133840 -0.081471 -0.191505 0.073979 -0.176159 -0.091658 -0.204224 -0.318569 0.067669 0.018115 0.070736 -0.076587 0.077634 0.302926 -0.019238 -0.072419 0.259327 -0.126870 0.013352 0.171166 -0.025745 0.218550 0.101728 0.155355 0.079879 0.346147 0.115566 -0.106928 
sed 0.025350 -0.299870 0.133748 -0.335526 -0.073530 -0.098495 -0.106229 -0.181473 -0.055699 0.194685 -0.024391 0.396307 -0.411121 -0.081418 0.148691 0.442232 0.251030 0.026650 0.111935 0.044576 0.032229 0.247749 0.118999 -0.171610 -0.091419 -0.231751 0.099355 0.049404 0.306270 0.194795 -0.099595 -0.145833 -0.310839 0.231222 0.036949 -0.058131 0.171478 -0.102624 0.010032 -0.079975 -0.264398 0.219761 -0.342186 -0.073257 0.177820 0.187627 0.061609 0.198750 -0.137615 -0.225848 0.066041 -0.220236 0.107597 0.054984 -0.042049 0.072343 0.348129 0.040293 -0.132750 -0.151571 0.174789 -0.188260 -0.082757 -0.207450 -0.193129 0.272594 0.059679 -0.225777 0.227733 0.052354 -0.205320 -0.002844 0.123931 -0.076062 -0.201460 0.090999 -0.189663 -0.105016 -0.233279 -0.337721 0.085601 0.013095 0.076713 -0.094447 0.092597 0.343381 -0.019861 -0.078728 0.290186 -0.119710 0.018128 0.194456 -0.036955 0.247689 0.111984 0.160754 0.073934 0.376312 0.129130 -0.120592 
eget 0.016019 -0.265347 0.112941 -0.293856 -0.066104 -0.080079 -0.085744 -0.155339 -0.054025 0.178948 -0.022865 0.353691 -0.396703 -0.072269 0.137793 0.394933 0.227253 0.035451 0.112422 0.055432 0.031135 0.220262 0.093593 -0.150509 -0.092115 -0.193275 0.091473 0.046380 0.252303 0.173374 -0.091770 -0.132877 -0.299884 0.225991 0.030916 -0.046751 0.155093 -0.102434 0.006526 -0.077011 -0.260215 0.194959 -0.309457 -0.058470 0.155825 0.183095 0.054775 0.181245 -0.118995 -0.203426 0.061576 -0.205713 0.099235 0.058748 -0.047495 0.066408 0.315234 0.042246 -0.126901 -0.134391 0.169663 -0.158461 -0.078335 -0.184038 -0.190533 0.246433 0.049793 -0.211791 0.221015 0.047126 -0.188698 0.006243 0.121568 -0.078815 -0.194921 0.074754 -0.194812 -0.090051 -0.224003 -0.326090 0.088646 0.017058 0.054165 -0.073136 0.094981 0.326085 -0.027679 -0.088923 0.279442 -0.122435 0.027548 0.186467 -0.029172 0.229788 0.096728 0.151797 0.071172 0.349604 0.124959 -0.114506 
ut 0.028086 -0.279754 0.118374 -0.307983 -0.070040 -0.082116 -0.089356 -0.165355 -0.061991 0.188866 -0.020656 0.367469 -0.389046 -0.077991 0.148594 0.411791 0.238015 0.023288 0.111400 0.057079 0.043342 0.230393 0.109313 -0.161308 -0.092113 -0.214772 0.087016 0.040734 0.276288 0.177138 -0.094976 -0.138273 -0.309913 0.226188 0.035852 -0.050908 0.169460 -0.110931 0.004956 -0.075507 -0.249909 0.214881 -0.332811 -0.070662 0.166972 0.188890 0.062739 0.189201 -0.122188 -0.211669 0.061581 -0.204409 0.108847 0.046935 -0.050006 0.071934 0.327262 0.034270 -0.123244 -0.147769 0.167602 -0.174197 -0.073728 -0.189763 -0.186313 0.257923 0.056807 -0.213839 0.214214 0.053245 -0.191044 -0.000955 0.113248 -0.065895 -0.183365 0.080209 -0.184127 -0.088510 -0.214817 -0.317848 0.076381 0.018757 0.071179 -0.087576 0.086577 0.334374 -0.016591 -0.086649 0.280360 -0.121543 0.024435 0.191844 -0.037320 0.239852 0.106249 0.151978 0.074178 0.357539 0.122125 -0.111921 
non 0.025968 -0.255274 0.118169 -0.276967 -0.073396 -0.079519 -0.094527 -0.165517 -0.053001 0.175410 -0.030842 0.358348 -0.381935 -0.065585 0.142673 0.395821 0.228580 0.019568 0.108517 0.042579 0.028693 0.218215 0.098139 -0.158321 -0.087449 -0.210585 0.084902 0.044041 0.267887 0.178803 -0.096201 -0.129890 -0.303214 0.225672 0.041223 -0.049024 0.162987 -0.111294 0.006601 -0.071036 -0.252238 0.208663 -0.327233 -0.070667 0.168324 0.184825 0.066273 0.183080 -0.126056 -0.210822 0.064388 -0.207897 0.113542 0.057608 -0.038607 0.068515 0.314981 0.036976 -0.123094 -0.143096 0.169733 -0.170244 -0.071488 -0.186606 -0.180055 0.250065 0.050941 -0.204670 0.215380 0.050940 -0.196968 0.007488 0.118280 -0.073757 -0.185911 0.074639 -0.183737 -0.087984 -0.210545 -0.315976 0.080276 0.019715 0.067331 -0.088863 0.082438 0.315029 -0.013561 -0.079878 0.280456 -0.120407 0.019649 0.179630 -0.031637 0.232936 0.111100 0.150347 0.082167 0.352247 0.124443 -0.111481 
a 0.023371 -0.252490 0.114438 -0.296187 -0.064972 -0.080610 -0.104122 -0.164619 -0.055908 0.175158 -0.030471 0.364790 -0.377657 -0.069280 0.132307 0.388422 0.215844 0.017396 0.089992 0.044445 0.024312 0.211430 0.099186 -0.155399 -0.095707 -0.204792 0.082399 0.029067 0.267307 0.168732 -0.090844 -0.119008 -0.296970 0.209238 0.038761 -0.046208 0.158626 -0.104838 0.017612 -0.075680 -0.234409 0.200451 -0.305220 -0.063723 0.166512 0.173366 0.066287 0.187763 -0.135190 -0.213712 0.056169 -0.189509 0.116345 0.049577 -0.035676 0.074176 0.310237 0.032520 -0.113086 -0.145104 0.163083 -0.163125 -0.075740 -0.187572 -0.178490 0.253061 0.049255 -0.193712 0.218393 0.046542 -0.182113 0.004012 0.122761 -0.070004 -0.181527 0.077727 -0.165618 -0.086028 -0.221748 -0.308221 0.064864 0.022438 0.068551 -0.071366 0.075379 0.315078 -0.015383 -0.077079 0.279924 -0.122536 0.014054 0.179630 -0.027587 0.210663 0.107182 0.148611 0.077197 0.328323 0.121762 -0.113546 
amet 0.031601 -0.267092 0.116064 -0.283677 -0.062403 -0.101108 -0.096583 -0.150116 -0.058340 0.160073 -0.013326 0.348075 -0.418015 -0.094335 0.153640 0.414471 0.208048 0.056509 0.122274 0.046380 0.032169 0.257862 0.103958 -0.152961 -0.093531 -0.177170 0.111694 0.059300 0.245826 0.157485 -0.113107 -0.124586 -0.307996 0.237546 0.005493 -0.051499 0.168639 -0.086396 -0.001813 -0.086492 -0.259250 0.196171 -0.346554 -0.033368 0.125254 0.196274 0.026458 0.175779 -0.101240 -0.228948 0.037131 -0.201155 0.065632 0.047340 -0.050898 0.062029 0.330581 0.023930 -0.139316 -0.115239 0.184084 -0.123023 -0.058886 -0.174517 -0.203795 0.250009 0.023607 -0.222511 0.223405 0.019462 -0.181732 0.031065 0.091724 -0.073566 -0.208960 0.076942 -0.215194 -0.064607 -0.205995 -0.314534 0.105024 -0.013942 0.043261 -0.059953 0.098666 0.316295 -0.032374 -0.097245 0.263256 -0.088963 0.058656 0.171067 -0.027786 0.235895 0.089811 0.159207 0.075096 0.355200 0.117123 -0.142413 
vitae 0.024482 -0.274452 0.126691 -0.314570 -0.072724 -0.095970 -0.105898 -0.171899 -0.058329 0.199810 -0.024241 0.388421 -0.423324 -0.068532 0.140765 0.441877 0.248415 0.038527 0.120294 0.058411 0.037074 0.236516 0.101370 -0.172824 -0.099655 -0.218579 0.094445 0.041792 0.291139 0.196824 -0.103317 -0.134994 -0.323189 0.239972 0.034313 -0.061765 0.167629 -0.110554 0.005682 -0.083338 -0.265813 0.208914 -0.331043 -0.068385 0.172633 0.187118 0.063787 0.186491 -0.137288 -0.214596 0.065795 -0.199749 0.116801 0.054241 -0.044057 0.063316 0.320170 0.029806 -0.123069 -0.143944 0.173145 -0.164509 -0.079130 -0.191147 -0.182363 0.256376 0.059536 -0.209628 0.227292 0.050945 -0.204148 0.001134 0.128706 -0.082224 -0.188084 0.080116 -0.185140 -0.090274 -0.221075 -0.335547 0.090900 0.023794 0.070294 -0.084656 0.087258 0.322846 -0.026225 -0.079669 0.286103 -0.120425 0.015456 0.185208 -0.031537 0.234427 0.109638 0.152090 0.069326 0.353664 0.116381 -0.109064 
eu 0.015410 -0.270953 0.112599 -0.303805 -0.071185 -0.090996 -0.091125 -0.157710 -0.051312 0.194346 -0.016942 0.382769 -0.400414 -0.087902 0.145467 0.428736 0.247064 0.030508 0.119608 0.045125 0.041929 0.236393 0.110376 -0.169890 -0.084638 -0.224526 0.088099 0.038795 0.294899 0.189050 -0.097076 -0.127025 -0.300190 0.220431 0.029561 -0.052982 0.174867 -0.104882 0.013762 -0.075791 -0.247524 0.215803 -0.315132 -0.077803 0.166800 0.181724 0.065405 0.175767 -0.129763 -0.212991 0.061179 -0.196882 0.104811 0.049352 -0.046970 0.070608 0.329694 0.037251 -0.127117 -0.143999 0.170341 -0.174134 -0.081754 -0.180196 -0.184237 0.254467 0.047032 -0.211031 0.216834 0.056943 -0.194286 0.004410 0.124987 -0.067101 -0.192280 0.082148 -0.179996 -0.091128 -0.224651 -0.319577 0.077102 0.013387 0.057092 -0.083017 0.089728 0.321012 -0.012735 -0.089268 0.284819 -0.124559 0.011960 0.177023 -0.036440 0.229122 0.098861 0.153623 0.077797 0.347861 0.117147 -0.118245 
vel 0.028025 -0.255622 0.111261 -0.288881 -0.069076 -0.087622 -0.093533 -0.147520 -0.049534 0.182391 -0.012303 0.361520 -0.386134 -0.083793 0.139382 0.400551 0.235921 0.036962 0.108324 0.056362 0.042064 0.230292 0.107561 -0.165055 -0.093160 -0.212659 0.090687 0.034058 0.279638 0.170469 -0.100615 -0.125722 -0.299041 0.214896 0.026502 -0.050295 0.164426 -0.095517 0.003693 -0.070783 -0.242942 0.207469 -0.314267 -0.061773 0.163169 0.171324 0.074401 0.181276 -0.127685 -0.204217 0.071229 -0.195180 0.102409 0.053460 -0.037879 0.053828 0.319560 0.038586 -0.117610 -0.153042 0.169909 -0.160753 -0.082977 -0.185648 -0.185647 0.255358 0.049271 -0.206557 0.214500 0.041085 -0.186442 0.001398 0.106211 -0.067072 -0.177118 0.063843 -0.180070 -0.099814 -0.206651 -0.297996 0.071678 0.016076 0.064481 -0.088088 0.076887 0.323710 -0.025145 -0.079107 0.279974 -0.122683 0.011262 0.181207 -0.039459 0.237091 0.097833 0.149097 0.075130 0.341797 0.111512 -0.111445 
Sed 0.015632 -0.254197 0.108804 -0.283617 -0.062499 -0.073296 -0.086348 -0.151436 -0.042833 0.166336 -0.024611 0.345771 -0.368816 -0.069260 0.130752 0.389267 0.217316 0.036843 0.101512 0.025881 0.020717 0.217508 0.093955 -0.149709 -0.084579 -0.179677 0.087287 0.037877 0.259801 0.157338 -0.087108 -0.104898 -0.269348 0.206353 0.030624 -0.047985 0.154751 -0.099893 0.000587 -0.067771 -0.223623 0.186695 -0.287736 -0.059882 0.155183 0.170475 0.056078 0.162848 -0.124489 -0.199686 0.044266 -0.192881 0.094568 0.044066 -0.052757 0.056843 0.292831 0.036974 -0.102776 -0.129650 0.148084 -0.142757 -0.069785 -0.165193 -0.178787 0.242579 0.053978 -0.197943 0.204897 0.047251 -0.189624 0.008871 0.113601 -0.080353 -0.177267 0.082437 -0.171316 -0.077585 -0.205926 -0.300317 0.081439 0.006525 0.069088 -0.073541 0.088993 0.286962 -0.010682 -0.073230 0.253107 -0.117212 0.029663 0.168671 -0.033345 0.201328 0.083989 0.153128 0.072150 0.321076 0.112754 -0.114471 
Donec 0.024306 -0.285179 0.112753 -0.328770 -0.069398 -0.088300 -0.093734 -0.170296 -0.059821 0.192484 -0.012411 0.399430 -0.411128 -0.088389 0.147322 0.430476 0.245192 0.040145 0.117230 0.046132 0.036157 0.242751 0.114529 -0.163240 -0.096831 -0.218559 0.101116 0.040931 0.298082 0.180942 -0.104131 -0.130523 -0.325207 0.227078 0.030134 -0.047271 0.174389 -0.106446 0.011591 -0.083451 -0.274672 0.222404 -0.341617 -0.073915 0.169053 0.191341 0.060564 0.187960 -0.132491 -0.223906 0.063419 -0.213416 0.108902 0.056927 -0.045829 0.054453 0.338977 0.035305 -0.121618 -0.155947 0.177029 -0.163795 -0.082481 -0.191984 -0.197833 0.274097 0.047739 -0.234333 0.234393 0.050976 -0.202589 0.011269 0.124674 -0.078098 -0.204592 0.077627 -0.188315 -0.093264 -0.231639 -0.331975 0.078443 0.002038 0.076070 -0.084347 0.087748 0.338790 -0.016426 -0.083043 0.291962 -0.120197 0.014331 0.186897 -0.043660 0.231777 0.097046 0.154609 0.072212 0.372344 0.120043 -0.124155 
tincidunt 0.022588 -0.298386 0.130824 -0.340711 -0.079643 -0.104880 -0.097037 -0.178953 -0.054081 0.210950 -0.011515 0.406699 -0.446274 -0.093032 0.152547 0.456751 0.247547 0.033378 0.129717 0.047512 0.048894 0.259218 0.121019 -0.173700 -0.087381 -0.235635 0.109160 0.042586 0.314610 0.188842 -0.118108 -0.149287 -0.335271 0.252635 0.031379 -0.053838 0.183674 -0.124174 0.009110 -0.091688 -0.283278 0.236666 -0.361507 -0.075477 0.183738 0.201249 0.073036 0.212076 -0.140111 -0.242426 0.066761 -0.221467 0.118265 0.059724 -0.058718 0.068486 0.375074 0.040089 -0.146803 -0.169122 0.197939 -0.194580 -0.089121 -0.209234 -0.213419 0.293117 0.062292 -0.244050 0.251186 0.057592 -0.215681 0.015529 0.127518 -0.071330 -0.214453 0.083745 -0.206911 -0.107804 -0.253822 -0.362377 0.089987 0.016849 0.060559 -0.100025 0.092295 0.355759 -0.025998 -0.093347 0.316190 -0.137699 0.026884 0.207241 -0.041946 0.262677 0.111137 0.174806 0.079052 0.400477 0.129059 -0.134173 
ipsum 0.075419 -0.282167 0.109309 -0.269451 -0.054305 -0.074401 -0.051240 -0.124106 -0.068278 0.204619 0.032990 0.328121 -0.393957 -0.069814 0.151372 0.392395 0.229598 0.030752 0.146759 0.101529 0.067548 0.215710 0.113876 -0.149234 -0.069550 -0.179188 0.110833 0.049626 0.164388 0.078380 -0.083071 -0.115951 -0.251202 0.207935 0.015292 -0.072219 0.137423 -0.110808 -0.007490 -0.061358 -0.255061 0.147535 -0.292252 -0.048314 0.093326 0.206235 0.050228 0.148216 -0.090678 -0.165885 0.057587 -0.176488 0.068628 0.055327 -0.063287 0.027370 0.282327 0.018675 -0.113260 -0.112765 0.119612 -0.106010 -0.052442 -0.153043 -0.158366 0.239405 0.030361 -0.220496 0.215291 0.055941 -0.154293 0.021897 0.111970 -0.068042 -0.169348 0.064453 -0.178738 -0.078483 -0.124795 -0.280414 0.092185 0.032239 0.016173 -0.057148 0.097903 0.268870 -0.039371 -0.072873 0.210198 -0.116410 0.018739 0.187453 -0.017521 0.216607 0.057550 0.128185 0.076179 0.327438 0.080700 -0.098424 
Aliquam 0.018095 -0.264003 0.111894 -0.306613 -0.069103 -0.085624 -0.097419 -0.158661 -0.053154 0.180175 -0.007850 0.380050 -0.409148 -0.099967 0.146470 0.455000 0.250863 0.047572 0.109739 0.046766 0.047067 0.246764 0.115092 -0.174911 -0.086785 -0.231078 0.104873 0.037495 0.302897 0.180033 -0.099186 -0.125944 -0.298273 0.206943 0.036289 -0.053779 0.172157 -0.095431 0.021527 -0.065683 -0.249620 0.220904 -0.317952 -0.079477 0.173149 0.172331 0.070500 0.184174 -0.125608 -0.213817 0.077906 -0.205691 0.099226 0.057513 -0.046391 0.054566 0.323615 0.023823 -0.123501 -0.153993 0.176543 -0.168513 -0.094432 -0.178764 -0.188456 0.267137 0.066385 -0.216757 0.218536 0.052549 -0.195209 0.018283 0.106622 -0.072240 -0.175730 0.083969 -0.197247 -0.093907 -0.233805 -0.312529 0.075525 0.000548 0.055990 -0.084200 0.084297 0.326891 -0.018059 -0.081289 0.277865 -0.111698 0.013524 0.186795 -0.036822 0.215283 0.086246 0.160428 0.064688 0.347327 0.120739 -0.114444 
Maecenas 0.024794 -0.286293 0.122943 -0.320302 -0.074114 -0.099369 -0.095265 -0.166694 -0.063321 0.198918 -0.014992 0.390145 -0.412322 -0.080925 0.154761 0.445852 0.256608 0.025898 0.118871 0.049367 0.038781 0.240788 0.113527 -0.168077 -0.095817 -0.225840 0.104323 0.037801 0.300312 0.191838 -0.100500 -0.136317 -0.315941 0.225595 0.029699 -0.046836 0.173402 -0.111589 0.007583 -0.081384 -0.258113 0.208114 -0.335627 -0.067713 0.168578 0.187500 0.063283 0.186849 -0.136506 -0.219784 0.055431 -0.210919 0.109486 0.060502 -0.046712 0.064040 0.334736 0.034209 -0.123978 -0.146033 0.170851 -0.175866 -0.086074 -0.195541 -0.199720 0.272589 0.054951 -0.214293 0.231383 0.056733 -0.206143 0.010601 0.123140 -0.072167 -0.196634 0.086718 -0.187040 -0.098055 -0.228897 -0.326101 0.081010 0.012468 0.064934 -0.083534 0.091398 0.333418 -0.011602 -0.084273 0.280069 -0.127286 0.019908 0.188253 -0.030980 0.229615 0.105148 0.159365 0.070169 0.363347 0.120713 -0.122050 
In 0.019567 -0.235069 0.088291 -0.268247 -0.060213 -0.078974 -0.077561 -0.123649 -0.066142 0.170016 0.007708 0.342189 -0.349017 -0.100921 0.136792 0.405230 0.219174 0.048202 0.097597 0.052933 0.051358 0.232695 0.118393 -0.156908 -0.084257 -0.216882 0.085668 0.023243 0.280354 0.158067 -0.082640 -0.110882 -0.275079 0.191783 0.018452 -0.038689 0.178351 -0.091241 0.029720 -0.061464 -0.215078 0.201867 -0.288928 -0.083761 0.158895 0.154782 0.063334 0.171819 -0.111818 -0.189706 0.075459 -0.183707 0.078017 0.039200 -0.023948 0.050086 0.298844 0.029176 -0.119504 -0.159850 0.149736 -0.172359 -0.080774 -0.164500 -0.186556 0.258862 0.054055 -0.197892 0.194004 0.047333 -0.167477 0.016210 0.094122 -0.066025 -0.152133 0.071466 -0.184937 -0.091054 -0.210963 -0.280420 0.057871 -0.009159 0.053959 -0.091259 0.077363 0.306763 -0.020879 -0.060950 0.276608 -0.104209 -0.000286 0.173723 -0.032606 0.209273 0.075766 0.134763 0.059821 0.312442 0.096092 -0.096593 
orci 0.037535 -0.268172 0.117793 -0.305179 -0.067210 -0.095983 -0.089774 -0.157090 -0.052973 0.184050 -0.014083 0.373030 -0.388346 -0.087608 0.155659 0.436667 0.239519 0.039172 0.108287 0.059580 0.052360 0.242470 0.101680 -0.163741 -0.092597 -0.214443 0.091662 0.038664 0.270102 0.174316 -0.102313 -0.134721 -0.289329 0.212913 0.026364 -0.054686 0.171606 -0.100145 0.014583 -0.071665 -0.234424 0.201539 -0.313426 -0.068481 0.159254 0.187091 0.062224 0.182083 -0.115778 -0.206962 0.077243 -0.191924 0.107232 0.047614 -0.048887 0.055522 0.315171 0.017808 -0.129565 -0.143854 0.169511 -0.171130 -0.078573 -0.169758 -0.186130 0.252180 0.062932 -0.207149 0.207289 0.051684 -0.182910 0.017506 0.107654 -0.075181 -0.171378 0.075322 -0.191289 -0.090795 -0.209449 -0.303002 0.083051 0.006762 0.060811 -0.085977 0.082866 0.312334 -0.014913 -0.075546 0.276801 -0.113274 0.012339 0.183415 -0.030006 0.224660 0.094728 0.147233 0.072993 0.345402 0.108817 -0.108297 
Cras 0.025380 -0.283955 0.126837 -0.319029 -0.080969 -0.098069 -0.104038 -0.163942 -0.050254 0.198461 -0.025295 0.391730 -0.426040 -0.075382 0.150757 0.450036 0.255177 0.037758 0.126499 0.053289 0.032035 0.252495 0.105060 -0.174367 -0.098767 -0.230392 0.094749 0.047723 0.307421 0.184363 -0.112632 -0.128369 -0.328943 0.243827 0.034600 -0.056122 0.186445 -0.113800 0.004396 -0.082458 -0.268814 0.212276 -0.338984 -0.074450 0.177120 0.205868 0.068603 0.185090 -0.134787 -0.222979 0.065305 -0.212801 0.114874 0.055783 -0.057716 0.066094 0.337108 0.028323 -0.126033 -0.151516 0.174475 -0.169256 -0.084527 -0.191572 -0.197477 0.280356 0.054420 -0.221247 0.241834 0.049771 -0.212383 0.004333 0.128027 -0.080585 -0.205344 0.085728 -0.196255 -0.100735 -0.225215 -0.339808 0.093391 0.018085 0.071867 -0.084452 0.084104 0.336062 -0.017120 -0.088345 0.285091 -0.129476 0.017318 0.188940 -0.032305 0.237996 0.105451 0.164725 0.079308 0.374596 0.127553 -0.126278 
Pellentesque 0.030885 -0.277893 0.108961 -0.295153 -0.069923 -0.076025 -0.094281 -0.152890 -0.064027 0.178368 -0.015751 0.384153 -0.411142 -0.086828 0.146806 0.445285 0.256773 0.027410 0.129420 0.051504 0.033481 0.241848 0.107382 -0.169309 -0.091855 -0.229979 0.103153 0.045132 0.293151 0.173107 -0.091891 -0.132382 -0.305004 0.212547 0.030260 -0.055217 0.174509 -0.113729 0.021276 -0.082709 -0.250024 0.213670 -0.313877 -0.068159 0.168261 0.182909 0.063675 0.178789 -0.129802 -0.209361 0.057157 -0.200693 0.102171 0.055513 -0.062622 0.057839 0.336109 0.016816 -0.121667 -0.153223 0.163776 -0.164564 -0.071511 -0.183440 -0.194565 0.261433 0.056595 -0.204674 0.223337 0.053102 -0.196165 0.006953 0.124466 -0.070952 -0.197904 0.080445 -0.188858 -0.089532 -0.226748 -0.322429 0.080861 0.019168 0.060791 -0.082146 0.079073 0.314784 -0.012329 -0.082888 0.280847 -0.128256 0.012964 0.181049 -0.031490 0.221840 0.101019 0.157478 0.059838 0.353525 0.108542 -0.114516 
ante 0.076938 -0.285492 0.120061 -0.292885 -0.062407 -0.074006 -0.089587 -0.152293 -0.069876 0.207219 0.015890 0.374461 -0.400309 -0.084067 0.156332 0.449537 0.249996 0.032181 0.137545 0.066570 0.066017 0.240068 0.130629 -0.162638 -0.077503 -0.228909 0.094094 0.040213 0.245212 0.124149 -0.097484 -0.126453 -0.297856 0.206161 0.033531 -0.073735 0.160996 -0.108741 0.003369 -0.057700 -0.249566 0.186573 -0.308644 -0.074868 0.140488 0.203593 0.071375 0.165348 -0.101175 -0.189791 0.081590 -0.195127 0.095687 0.069430 -0.063577 0.059633 0.316886 0.004891 -0.126627 -0.138015 0.149391 -0.157367 -0.061008 -0.164344 -0.179913 0.257778 0.052900 -0.214283 0.220865 0.069601 -0.179757 0.007505 0.108625 -0.085947 -0.165686 0.088355 -0.195088 -0.103699 -0.161509 -0.297239 0.087473 0.020525 0.046032 -0.097578 0.090672 0.319600 -0.014115 -0.056727 0.250830 -0.134376 -0.000225 0.197767 -0.030508 0.248002 0.074337 0.146949 0.077820 0.351226 0.097639 -0.103799 
tristique 0.038784 -0.262614 0.111400 -0.274929 -0.067246 -0.075425 -0.076916 -0.128570 -0.060368 0.162765 -0.008654 0.314785 -0.374710 -0.067302 0.128262 0.406349 0.250021 0.022701 0.116753 0.061004 0.043699 0.208816 0.106100 -0.146863 -0.078209 -0.206910 0.092523 0.048762 0.233590 0.136410 -0.084953 -0.117509 -0.274898 0.185945 0.020557 -0.048597 0.143706 -0.100716 0.014493 -0.066983 -0.236830 0.172483 -0.283541 -0.053210 0.151095 0.169884 0.071642 0.152979 -0.093390 -0.188678 0.062601 -0.182429 0.094553 0.064370 -0.053805 0.058042 0.289567 0.005428 -0.107587 -0.142957 0.143776 -0.157438 -0.055557 -0.173731 -0.164237 0.241460 0.065265 -0.179745 0.194509 0.041427 -0.182905 0.003000 0.102209 -0.056480 -0.164940 0.079875 -0.187792 -0.086955 -0.187121 -0.282387 0.062069 0.028392 0.031551 -0.081316 0.071794 0.282399 -0.013762 -0.065349 0.257907 -0.117729 0.006611 0.163501 -0.029005 0.214243 0.079819 0.135925 0.049223 0.317116 0.083793 -0.106546 
dolor 0.049757 -0.279343 0.124542 -0.281147 -0.068830 -0.106927 -0.052994 -0.131309 -0.055721 0.199783 0.027919 0.351579 -0.412062 -0.073192 0.148988 0.395968 0.207505 0.047777 0.139532 0.093133 0.055068 0.231316 0.108276 -0.133931 -0.078809 -0.178605 0.146995 0.065504 0.193884 0.116570 -0.109714 -0.131081 -0.281579 0.242538 0.013206 -0.071153 0.142426 -0.105277 0.006419 -0.089064 -0.294412 0.175145 -0.332316 -0.051052 0.121783 0.200177 0.027645 0.181551 -0.106971 -0.203858 0.046425 -0.199752 0.072032 0.047951 -0.048654 0.027124 0.314875 0.033197 -0.143874 -0.114274 0.181328 -0.116958 -0.073092 -0.167807 -0.192211 0.256096 0.031182 -0.266581 0.237351 0.041059 -0.175392 0.022765 0.101231 -0.067821 -0.207640 0.057015 -0.202142 -0.084781 -0.177155 -0.328151 0.123246 0.026055 0.048206 -0.063948 0.115526 0.322043 -0.036066 -0.088290 0.276109 -0.113483 0.054610 0.219728 -0.030230 0.250417 0.105874 0.132294 0.083543 0.370990 0.119396 -0.115804 
posuere 0.040262 -0.286620 0.131540 -0.315240 -0.068900 -0.095323 -0.102740 -0.180605 -0.047913 0.202122 -0.027835 0.395688 -0.427512 -0.080031 0.156300 0.437785 0.257114 0.024711 0.121387 0.042412 0.043588 0.244168 0.102947 -0.171522 -0.098746 -0.231677 0.095992 0.037046 0.295651 0.187918 -0.110252 -0.143460 -0.325769 0.226463 0.043629 -0.069841 0.174894 -0.120677 0.007125 -0.079756 -0.274895 0.208457 -0.335586 -0.064887 0.179883 0.197782 0.075211 0.185933 -0.130998 -0.214890 0.063015 -0.210662 0.123076 0.050578 -0.050577 0.065715 0.338505 0.034890 -0.126724 -0.149906 0.174690 -0.174600 -0.070440 -0.189587 -0.191846 0.271327 0.066009 -0.210999 0.234988 0.055958 -0.205022 0.000627 0.129451 -0.080116 -0.195990 0.082635 -0.184312 -0.101105 -0.208927 -0.332097 0.084612 0.017158 0.059504 -0.086479 0.085421 0.328088 -0.020407 -0.088207 0.276970 -0.132783 0.021051 0.182124 -0.033358 0.246560 0.097323 0.158592 0.078024 0.360806 0.124919 -0.125793 
Ut 0.022248 -0.285596 0.121214 -0.317196 -0.075063 -0.092849 -0.102719 -0.168499 -0.063984 0.187006 -0.019125 0.392709 -0.411617 -0.085905 0.155045 0.447881 0.245801 0.034974 0.110736 0.043715 0.034445 0.242522 0.110963 -0.163448 -0.101005 -0.221733 0.092106 0.039935 0.295409 0.176773 -0.100978 -0.131664 -0.320635 0.229623 0.037242 -0.057546 0.180160 -0.107764 0.013415 -0.074672 -0.265648 0.222355 -0.336614 -0.069434 0.179229 0.187748 0.063443 0.194516 -0.139964 -0.221608 0.072002 -0.212513 0.109801 0.051465 -0.042854 0.067583 0.334610 0.026887 -0.124832 -0.156060 0.174064 -0.174150 -0.087865 -0.192866 -0.201920 0.268898 0.057397 -0.213086 0.226594 0.044001 -0.205376 0.009664 0.127621 -0.077429 -0.198085 0.078441 -0.189820 -0.099353 -0.235623 -0.331161 0.079396 0.010194 0.078130 -0.090133 0.082244 0.334871 -0.020324 -0.081959 0.290532 -0.119489 0.019912 0.184060 -0.030460 0.231278 0.098650 0.158057 0.075850 0.361001 0.127943 -0.122568 
tellus 0.034027 -0.297429 0.123518 -0.333662 -0.080254 -0.091142 -0.102686 -0.167904 -0.054129 0.198964 -0.022188 0.397628 -0.415293 -0.083809 0.150092 0.449753 0.256095 0.026923 0.117554 0.052390 0.033650 0.241395 0.100078 -0.162841 -0.092315 -0.228962 0.088675 0.044751 0.296994 0.184102 -0.099759 -0.137464 -0.312947 0.225409 0.031956 -0.059002 0.171663 -0.104804 0.007679 -0.075444 -0.261941 0.211173 -0.326392 -0.072989 0.175032 0.189663 0.079273 0.185843 -0.125813 -0.220451 0.073554 -0.213354 0.112294 0.054060 -0.057455 0.068454 0.335126 0.029081 -0.126441 -0.161256 0.173159 -0.177284 -0.082785 -0.188708 -0.198435 0.276781 0.060757 -0.203867 0.222762 0.059297 -0.201265 0.001982 0.125121 -0.072130 -0.186629 0.079488 -0.199195 -0.105728 -0.224930 -0.333242 0.078136 0.013921 0.055073 -0.090435 0.078587 0.331237 -0.015508 -0.082736 0.291102 -0.139304 0.010024 0.186807 -0.039928 0.241172 0.101603 0.164746 0.076442 0.371640 0.121215 -0.118897 
justo 0.025374 -0.269416 0.118975 -0.296983 -0.064714 -0.080513 -0.098241 -0.159634 -0.054819 0.178969 -0.014156 0.370063 -0.396294 -0.082746 0.149494 0.430345 0.240976 0.024276 0.106588 0.043915 0.032865 0.226764 0.095531 -0.155465 -0.092860 -0.218841 0.089391 0.039571 0.275845 0.175076 -0.102431 -0.121781 -0.304783 0.216784 0.027779 -0.058596 0.161882 -0.103589 0.010961 -0.071394 -0.245152 0.200787 -0.315060 -0.068307 0.156429 0.183070 0.059345 0.176905 -0.127858 -0.209399 0.062343 -0.189249 0.099450 0.058668 -0.045946 0.059435 0.310572 0.025696 -0.123374 -0.137395 0.157997 -0.152969 -0.080217 -0.179928 -0.179893 0.246623 0.045211 -0.199612 0.216056 0.052405 -0.183896 0.009660 0.110333 -0.069772 -0.188158 0.078626 -0.176678 -0.093816 -0.203248 -0.304800 0.072047 0.007812 0.055427 -0.079223 0.073223 0.302952 -0.017401 -0.081656 0.269386 -0.122078 0.012622 0.165308 -0.038151 0.214603 0.101430 0.146990 0.074078 0.335976 0.106401 -0.119583 
Phasellus 0.025072 -0.280011 0.114607 -0.300043 -0.066872 -0.088341 -0.099088 -0.166757 -0.060043 0.186849 -0.014513 0.380232 -0.387689 -0.088179 0.136434 0.433394 0.238005 0.025299 0.108273 0.050777 0.045248 0.234130 0.104025 -0.151339 -0.087388 -0.212365 0.101450 0.034469 0.276937 0.164651 -0.099141 -0.128060 -0.289545 0.211118 0.037294 -0.058175 0.165242 -0.107456 0.019866 -0.074564 -0.240597 0.204864 -0.314893 -0.065509 0.161256 0.187442 0.063495 0.176545 -0.127106 -0.214897 0.062362 -0.201081 0.102794 0.050235 -0.049320 0.052153 0.324620 0.025591 -0.117756 -0.148280 0.162867 -0.160083 -0.086369 -0.182879 -0.187108 0.264041 0.059050 -0.209504 0.225737 0.050622 -0.194477 0.006209 0.123046 -0.073458 -0.177655 0.078930 -0.185864 -0.098801 -0.217550 -0.315527 0.082957 0.008308 0.067486 -0.087063 0.078987 0.323776 -0.014177 -0.079032 0.283152 -0.124721 0.008772 0.181830 -0.037561 0.223293 0.091214 0.152705 0.069093 0.347716 0.113852 -0.110711 
felis 0.025796 -0.295407 0.127013 -0.324564 -0.075213 -0.102846 -0.112233 -0.175144 -0.057493 0.190788 -0.029236 0.405809 -0.419914 -0.090778 0.150872 0.461834 0.260825 0.028524 0.116882 0.041540 0.035684 0.254165 0.118815 -0.179423 -0.101183 -0.229144 0.090306 0.041970 0.306161 0.192839 -0.108794 -0.137040 -0.323118 0.226238 0.031142 -0.061578 0.178199 -0.108559 0.010899 -0.074589 -0.261304 0.223355 -0.338624 -0.076407 0.175335 0.196048 0.080144 0.201293 -0.134024 -0.219531 0.068711 -0.208177 0.113359 0.053971 -0.050230 0.074570 0.338098 0.028932 -0.130243 -0.155433 0.169804 -0.176667 -0.077929 -0.192702 -0.203685 0.278677 0.065884 -0.209365 0.230099 0.061543 -0.203496 -0.001924 0.125012 -0.075383 -0.204157 0.078889 -0.194518 -0.108053 -0.236494 -0.334380 0.081991 0.016364 0.061426 -0.087337 0.093201 0.336644 -0.019801 -0.083538 0.301171 -0.142789 0.016117 0.189709 -0.043304 0.241753 0.099428 0.177052 0.072777 0.372465 0.125661 -0.122350 
enim 0.019058 -0.283744 0.126839 -0.322204 -0.067447 -0.091785 -0.105542 -0.178940 -0.060926 0.198881 -0.025825 0.403159 -0.423042 -0.088322 0.146057 0.462272 0.260645 0.033360 0.124071 0.039052 0.043818 0.251817 0.109263 -0.174965 -0.107389 -0.236931 0.098878 0.035713 0.317513 0.205890 -0.109030 -0.148191 -0.336502 0.245514 0.027890 -0.046175 0.200542 -0.116960 0.010451 -0.075842 -0.268186 0.239394 -0.345359 -0.081593 0.186172 0.190356 0.075203 0.203065 -0.148381 -0.238523 0.066589 -0.214037 0.126772 0.059404 -0.047902 0.069784 0.343351 0.042039 -0.143206 -0.166196 0.180553 -0.194345 -0.086187 -0.210544 -0.209648 0.284458 0.068678 -0.228527 0.237775 0.054255 -0.212645 0.012262 0.123022 -0.072667 -0.199386 0.096036 -0.199208 -0.101973 -0.254716 -0.348281 0.084879 0.016040 0.078497 -0.105681 0.082414 0.360763 -0.021199 -0.083878 0.309473 -0.137000 0.025441 0.198286 -0.042322 0.246732 0.119262 0.166398 0.077367 0.380256 0.129594 -0.132500 
leo 0.025435 -0.276990 0.121497 -0.312062 -0.065991 -0.096641 -0.101673 -0.171693 -0.058981 0.197368 -0.018376 0.395709 -0.427380 -0.092431 0.149110 0.456304 0.253854 0.031046 0.118888 0.045961 0.043036 0.246032 0.107365 -0.162884 -0.101762 -0.231460 0.103854 0.039619 0.302209 0.193578 -0.103223 -0.145509 -0.326326 0.230648 0.023790 -0.049130 0.181462 -0.113687 0.009192 -0.077384 -0.256002 0.212666 -0.337456 -0.062582 0.169142 0.190231 0.074983 0.193236 -0.123797 -0.220610 0.067833 -0.203966 0.107029 0.058596 -0.046823 0.073325 0.333315 0.033903 -0.126091 -0.162341 0.183386 -0.174913 -0.091976 -0.191855 -0.201471 0.263560 0.058418 -0.212303 0.227233 0.052326 -0.207155 0.009662 0.111335 -0.082474 -0.188567 0.079257 -0.198140 -0.093394 -0.238626 -0.328710 0.083510 0.006898 0.059584 -0.097878 0.083791 0.352030 -0.015613 -0.089463 0.306395 -0.138592 0.021073 0.182768 -0.040184 0.241975 0.101362 0.159328 0.083309 0.370596 0.117052 -0.125675 
porta 0.020258 -0.255078 0.112910 -0.294068 -0.068462 -0.080422 -0.079477 -0.150817 -0.045974 0.175702 -0.027349 0.349385 -0.389514 -0.066490 0.135706 0.398222 0.225434 0.023219 0.114766 0.042688 0.026059 0.212269 0.099380 -0.148966 -0.082707 -0.195738 0.095878 0.031092 0.261833 0.166251 -0.095311 -0.125699 -0.282397 0.212348 0.029894 -0.046174 0.157394 -0.105247 0.005294 -0.069658 -0.244239 0.186914 -0.292348 -0.055868 0.157516 0.165917 0.061054 0.175883 -0.115822 -0.194891 0.056763 -0.198261 0.103306 0.045848 -0.039846 0.066062 0.310046 0.032796 -0.119086 -0.135109 0.157244 -0.160030 -0.078871 -0.174712 -0.178200 0.242183 0.057655 -0.201394 0.205066 0.052382 -0.184827 0.008818 0.112052 -0.063659 -0.176877 0.068509 -0.180774 -0.083550 -0.208507 -0.308818 0.075979 0.017653 0.061071 -0.075055 0.091146 0.309666 -0.015684 -0.080585 0.264958 -0.118460 0.018828 0.166066 -0.028101 0.211963 0.094824 0.143183 0.066548 0.325893 0.115017 -0.112980 
Vestibulum 0.040169 -0.271537 0.119611 -0.304648 -0.069222 -0.095009 -0.097050 -0.164878 -0.062805 0.201570 -0.004045 0.387898 -0.400664 -0.086701 0.153137 0.434311 0.233726 0.034622 0.119129 0.060290 0.037716 0.237608 0.107027 -0.162439 -0.078330 -0.197928 0.087365 0.040977 0.262428 0.164051 -0.097577 -0.126377 -0.303999 0.222347 0.034075 -0.062279 0.173371 -0.110017 0.006672 -0.073821 -0.238908 0.197306 -0.316462 -0.062492 0.153069 0.186760 0.061310 0.168843 -0.111588 -0.198476 0.074194 -0.193071 0.103631 0.057514 -0.049048 0.060494 0.307758 0.035518 -0.113137 -0.132187 0.155784 -0.145091 -0.071967 -0.164201 -0.174426 0.247521 0.054232 -0.203633 0.222960 0.049504 -0.189710 0.013161 0.118869 -0.077243 -0.169385 0.083896 -0.183196 -0.082676 -0.194119 -0.313495 0.082673 0.006680 0.055396 -0.082118 0.082631 0.312222 -0.026676 -0.066389 0.257111 -0.124126 0.026517 0.184015 -0.023914 0.210365 0.091389 0.152493 0.077854 0.332860 0.103564 -0.102412 
pharetra 0.018645 -0.286986 0.122716 -0.315337 -0.073365 -0.100957 -0.109384 -0.168058 -0.048797 0.194582 -0.030908 0.382805 -0.423345 -0.087648 0.151570 0.437185 0.244781 0.028406 0.113168 0.049876 0.039411 0.235686 0.107189 -0.166077 -0.110174 -0.212140 0.089087 0.030457 0.292052 0.192036 -0.105523 -0.128530 -0.313853 0.227885 0.037166 -0.055447 0.176595 -0.112176 0.004287 -0.074832 -0.256733 0.212754 -0.336744 -0.069693 0.172325 0.187135 0.072563 0.197113 -0.144435 -0.216112 0.077374 -0.191066 0.115412 0.062162 -0.040635 0.067324 0.328159 0.031679 -0.130085 -0.155335 0.183049 -0.171794 -0.079772 -0.186354 -0.183381 0.257476 0.060185 -0.197579 0.228621 0.057541 -0.202192 0.006271 0.125173 -0.075954 -0.184093 0.073633 -0.182052 -0.095189 -0.219838 -0.326075 0.079769 0.018309 0.055812 -0.090039 0.080511 0.328170 -0.018385 -0.089036 0.299381 -0.137903 0.015235 0.176018 -0.031763 0.236063 0.113849 0.155679 0.071161 0.355742 0.123484 -0.120997 
Nullam 0.030373 -0.275675 0.119498 -0.321726 -0.073390 -0.089629 -0.096744 -0.175023 -0.051988 0.184250 -0.024409 0.386292 -0.387682 -0.080256 0.143347 0.421667 0.242880 0.033293 0.105426 0.033166 0.030945 0.231917 0.105833 -0.157311 -0.083439 -0.204578 0.085276 0.026202 0.294354 0.176334 -0.092906 -0.127336 -0.308058 0.210861 0.031489 -0.043680 0.172782 -0.101060 0.012489 -0.072523 -0.238977 0.204111 -0.314235 -0.074586 0.175952 0.175336 0.064972 0.179365 -0.124245 -0.212538 0.067405 -0.198604 0.114656 0.049630 -0.054454 0.078482 0.318817 0.032954 -0.109783 -0.157096 0.152607 -0.176177 -0.075460 -0.182405 -0.192785 0.249871 0.055097 -0.191386 0.219957 0.058380 -0.187514 -0.001484 0.122993 -0.072168 -0.176671 0.092838 -0.186799 -0.102212 -0.225488 -0.313768 0.069685 0.009622 0.074233 -0.093806 0.075508 0.315383 -0.018939 -0.072683 0.278372 -0.121031 0.017289 0.174470 -0.021584 0.221288 0.098070 0.153067 0.078487 0.340565 0.120740 -0.113537 
risus 0.030217 -0.271782 0.117306 -0.292538 -0.062444 -0.094482 -0.084649 -0.153957 -0.060952 0.181006 -0.013605 0.371738 -0.396368 -0.089184 0.148164 0.432503 0.235644 0.031204 0.117624 0.047363 0.044660 0.231941 0.110574 -0.162203 -0.085593 -0.214317 0.097303 0.034435 0.280064 0.176167 -0.098965 -0.135988 -0.300801 0.209790 0.021639 -0.060002 0.170948 -0.097360 0.008541 -0.077903 -0.245012 0.206908 -0.306610 -0.061504 0.163786 0.177803 0.063471 0.171873 -0.120162 -0.199310 0.071213 -0.195091 0.090310 0.052774 -0.038905 0.059514 0.309277 0.029020 -0.126624 -0.148942 0.163428 -0.159516 -0.084802 -0.182246 -0.188826 0.253101 0.047892 -0.201327 0.207746 0.051547 -0.184443 0.014490 0.112958 -0.073673 -0.186576 0.070792 -0.183991 -0.097382 -0.213009 -0.303833 0.081548 0.006959 0.060265 -0.077939 0.079051 0.310193 -0.016687 -0.079991 0.274235 -0.122133 0.022674 0.181702 -0.028842 0.226395 0.094596 0.154378 0.071404 0.338096 0.115952 -0.113916 
augue 0.020026 -0.256132 0.109871 -0.283018 -0.053817 -0.089557 -0.091531 -0.145869 -0.048824 0.173831 -0.017969 0.354132 -0.381671 -0.080978 0.127022 0.420778 0.233261 0.023047 0.109154 0.038400 0.029071 0.219898 0.105351 -0.145198 -0.085902 -0.206827 0.086227 0.038594 0.268916 0.157709 -0.086108 -0.115538 -0.277989 0.203074 0.030755 -0.051617 0.156201 -0.089350 0.008200 -0.063657 -0.228725 0.191369 -0.292461 -0.068456 0.153195 0.164237 0.070333 0.166113 -0.109620 -0.192504 0.055867 -0.192067 0.101090 0.045896 -0.044212 0.062160 0.296434 0.029698 -0.109756 -0.146207 0.150954 -0.162083 -0.076603 -0.175643 -0.187480 0.250104 0.056255 -0.194562 0.205656 0.053431 -0.182569 0.000079 0.104179 -0.067260 -0.177543 0.078258 -0.175289 -0.093968 -0.209398 -0.291855 0.070344 0.015897 0.053050 -0.085025 0.083632 0.305443 -0.016956 -0.079036 0.275580 -0.127652 0.021836 0.172461 -0.026825 0.217222 0.090889 0.144018 0.069032 0.335599 0.106206 -0.109004 
sapien 0.019722 -0.259330 0.111024 -0.293253 -0.062244 -0.098044 -0.093217 -0.160108 -0.057806 0.190748 -0.026304 0.381420 -0.398951 -0.084315 0.138878 0.429513 0.244672 0.023527 0.107330 0.033661 0.034721 0.232227 0.104262 -0.163994 -0.093096 -0.211765 0.089521 0.036829 0.286155 0.183790 -0.099661 -0.127970 -0.295867 0.213829 0.032160 -0.049730 0.170779 -0.103326 0.007703 -0.079231 -0.254358 0.202073 -0.317229 -0.073422 0.164782 0.175234 0.065376 0.185373 -0.136588 -0.214869 0.058010 -0.204261 0.104024 0.051053 -0.039506 0.066428 0.314386 0.041375 -0.120480 -0.152313 0.170145 -0.170365 -0.075159 -0.190695 -0.193107 0.257012 0.056058 -0.205575 0.226689 0.046036 -0.202428 0.009949 0.118450 -0.072391 -0.198216 0.085400 -0.180275 -0.091051 -0.221165 -0.319397 0.074550 0.007730 0.072028 -0.089781 0.076820 0.316253 -0.014741 -0.078467 0.288480 -0.123404 0.026861 0.173322 -0.036576 0.230924 0.097900 0.151307 0.072352 0.350034 0.119584 -0.119069 
condimentum 0.018806 -0.287048 0.119196 -0.315640 -0.069930 -0.095727 -0.093772 -0.169805 -0.051484 0.193828 -0.019487 0.381626 -0.416478 -0.085877 0.144926 0.433800 0.237421 0.031028 0.121405 0.043164 0.038514 0.248596 0.102451 -0.162895 -0.099938 -0.213538 0.105676 0.040915 0.284906 0.200080 -0.103985 -0.147660 -0.311172 0.221133 0.037154 -0.044813 0.166507 -0.111790 0.015319 -0.076200 -0.260828 0.215220 -0.325223 -0.068021 0.177385 0.179155 0.059584 0.186221 -0.129496 -0.206513 0.071474 -0.198160 0.103066 0.055720 -0.045791 0.070730 0.342826 0.041225 -0.131475 -0.153392 0.183028 -0.179396 -0.086188 -0.196559 -0.195586 0.271548 0.062057 -0.222317 0.229430 0.051360 -0.202920 0.004735 0.117560 -0.076511 -0.198012 0.075763 -0.203498 -0.101244 -0.235286 -0.334785 0.079863 0.009459 0.057321 -0.095099 0.082120 0.335895 -0.014190 -0.087267 0.299052 -0.131744 0.025461 0.182607 -0.034295 0.236069 0.098809 0.157851 0.077062 0.370731 0.123058 -0.124847 
Duis 0.029968 -0.289391 0.119291 -0.332109 -0.083528 -0.099515 -0.099103 -0.169824 -0.060479 0.194714 -0.012620 0.389330 -0.423925 -0.089296 0.147367 0.447315 0.246460 0.039653 0.133426 0.048958 0.037103 0.250180 0.110807 -0.163741 -0.090036 -0.217599 0.108975 0.044922 0.292613 0.184889 -0.095942 -0.136849 -0.323344 0.225604 0.026008 -0.061197 0.181944 -0.119416 0.003364 -0.083151 -0.275769 0.216072 -0.345673 -0.076443 0.174078 0.198178 0.066175 0.188626 -0.137350 -0.217715 0.066705 -0.210856 0.103936 0.051602 -0.050787 0.058590 0.343251 0.036848 -0.130750 -0.146726 0.182473 -0.172722 -0.080274 -0.189622 -0.194219 0.268597 0.054132 -0.226231 0.242491 0.059982 -0.208965 0.010463 0.126265 -0.084271 -0.200112 0.080951 -0.195087 -0.093214 -0.223533 -0.339735 0.083592 0.015539 0.074141 -0.089367 0.090380 0.333291 -0.016903 -0.083993 0.290911 -0.130329 0.018968 0.194638 -0.037494 0.228056 0.099489 0.159745 0.074941 0.361860 0.122731 -0.122508 
imperdiet 0.024968 -0.263201 0.110308 -0.287578 -0.070184 -0.078862 -0.098789 -0.160344 -0.056357 0.166258 -0.022298 0.353741 -0.392570 -0.068813 0.141641 0.405937 0.230014 0.020724 0.113225 0.042475 0.037309 0.215602 0.098172 -0.160260 -0.088587 -0.208439 0.082270 0.041257 0.259919 0.181855 -0.098761 -0.126434 -0.288707 0.211408 0.031352 -0.047739 0.159142 -0.104543 0.003446 -0.078508 -0.237561 0.191495 -0.292219 -0.056880 0.156380 0.166399 0.052972 0.168983 -0.117404 -0.195892 0.060641 -0.194227 0.092423 0.047373 -0.037475 0.061303 0.305756 0.038440 -0.117104 -0.142510 0.162668 -0.161258 -0.077837 -0.174046 -0.176710 0.243352 0.048066 -0.191429 0.210073 0.047847 -0.192702 0.002969 0.117687 -0.071301 -0.177261 0.076861 -0.170359 -0.084712 -0.214411 -0.294804 0.073786 0.012726 0.059900 -0.073416 0.075820 0.298649 -0.018008 -0.077237 0.254073 -0.116899 0.022922 0.165543 -0.033643 0.213558 0.087942 0.140426 0.067810 0.323706 0.117080 -0.102010 
Quisque 0.030200 -0.295167 0.128308 -0.321259 -0.080053 -0.099335 -0.110670 -0.178162 -0.064232 0.196790 -0.019264 0.406305 -0.440794 -0.084171 0.156102 0.464369 0.266781 0.036913 0.124889 0.045110 0.043090 0.254965 0.112894 -0.168646 -0.101852 -0.231442 0.097886 0.042196 0.309942 0.189447 -0.114592 -0.138379 -0.333985 0.234453 0.035183 -0.058693 0.190646 -0.111829 0.002107 -0.078283 -0.272647 0.217785 -0.346730 -0.069140 0.180422 0.203752 0.079089 0.202567 -0.145599 -0.233329 0.067276 -0.218362 0.117351 0.061753 -0.046554 0.067572 0.346185 0.024971 -0.128508 -0.154543 0.175411 -0.174865 -0.081585 -0.199809 -0.205115 0.274453 0.066864 -0.212357 0.238981 0.054696 -0.212859 0.011701 0.134729 -0.079182 -0.203942 0.085705 -0.195317 -0.097469 -0.232059 -0.347798 0.087948 0.023664 0.066915 -0.088505 0.084744 0.341014 -0.018032 -0.085187 0.301333 -0.131590 0.019361 0.192734 -0.032314 0.235203 0.112107 0.166337 0.075328 0.376365 0.118333 -0.126659 
Integer 0.027299 -0.294686 0.128963 -0.336723 -0.075378 -0.100286 -0.105403 -0.176966 -0.066186 0.198628 -0.022824 0.409842 -0.441334 -0.086626 0.153544 0.459526 0.265142 0.028780 0.127707 0.053356 0.037824 0.250502 0.118163 -0.171044 -0.099564 -0.229024 0.097308 0.034920 0.294381 0.173968 -0.098590 -0.135569 -0.308987 0.223853 0.034826 -0.052642 0.168770 -0.104699 0.008378 -0.074346 -0.257092 0.201944 -0.330108 -0.066379 0.172918 0.189475 0.071155 0.179390 -0.130681 -0.211902 0.066164 -0.208908 0.106484 0.062846 -0.053905 0.065386 0.329219 0.025866 -0.113793 -0.153016 0.163730 -0.169453 -0.074760 -0.186199 -0.192699 0.272094 0.054248 -0.207286 0.231314 0.061129 -0.199707 0.010083 0.123080 -0.072861 -0.189683 0.075247 -0.194149 -0.096754 -0.216489 -0.331690 0.077581 0.007603 0.062458 -0.079676 0.087658 0.322990 -0.019314 -0.084151 0.279061 -0.132745 0.020618 0.181881 -0.033010 0.222618 0.103453 0.164369 0.078557 0.363009 0.120698 -0.126629 
Suspendisse 0.027570 -0.282846 0.118783 -0.309600 -0.076268 -0.082602 -0.099829 -0.167413 -0.064237 0.183520 -0.025000 0.384451 -0.398487 -0.081596 0.140962 0.429551 0.243760 0.027478 0.101009 0.041888 0.043991 0.235133 0.100346 -0.156986 -0.085155 -0.204054 0.095333 0.032706 0.289678 0.169529 -0.095402 -0.123298 -0.309027 0.210129 0.045667 -0.052747 0.174374 -0.098706 0.016462 -0.078257 -0.240716 0.201459 -0.317437 -0.065550 0.162738 0.176959 0.056729 0.186115 -0.129989 -0.214932 0.059401 -0.202837 0.108737 0.047125 -0.051505 0.063132 0.311249 0.027377 -0.114418 -0.151779 0.163455 -0.162260 -0.082173 -0.181634 -0.183314 0.264387 0.049522 -0.196154 0.216970 0.052546 -0.196034 0.008517 0.122367 -0.070299 -0.192547 0.087429 -0.188142 -0.084019 -0.222311 -0.319907 0.074958 0.016230 0.059463 -0.077971 0.080025 0.323354 -0.015540 -0.077412 0.283246 -0.116918 0.014197 0.181728 -0.032004 0.226730 0.107863 0.157999 0.079627 0.350086 0.119084 -0.111117 
turpis 0.034694 -0.268211 0.098387 -0.265835 -0.060451 -0.074798 -0.085419 -0.139506 -0.051186 0.177849 -0.004601 0.334277 -0.358765 -0.074162 0.125739 0.402081 0.229777 0.019039 0.130514 0.039122 0.049289 0.210528 0.106294 -0.154186 -0.070393 -0.211117 0.082201 0.037800 0.255538 0.142141 -0.089023 -0.109041 -0.284136 0.200461 0.027530 -0.061247 0.153103 -0.111199 0.000500 -0.068231 -0.234550 0.187654 -0.292094 -0.063624 0.142294 0.183535 0.067348 0.165098 -0.110501 -0.183148 0.060503 -0.170083 0.095080 0.059918 -0.051977 0.048256 0.299259 0.014913 -0.107289 -0.142568 0.141156 -0.158607 -0.056116 -0.154919 -0.169681 0.244017 0.049656 -0.174165 0.199895 0.052950 -0.181471 0.004386 0.116493 -0.072173 -0.167857 0.081967 -0.161995 -0.083575 -0.168531 -0.279230 0.063557 0.026653 0.045603 -0.076153 0.087595 0.272881 -0.002294 -0.065394 0.239026 -0.131032 0.009756 0.168537 -0.026739 0.205057 0.083568 0.144006 0.054847 0.326956 0.094363 -0.105810 
ornare 0.030380 -0.249348 0.106760 -0.272534 -0.066878 -0.083589 -0.079387 -0.144275 -0.046921 0.175376 -0.010838 0.331707 -0.364161 -0.066706 0.127508 0.369707 0.208921 0.028834 0.106496 0.044195 0.038964 0.203718 0.087812 -0.135553 -0.073095 -0.171485 0.088043 0.036493 0.226740 0.157303 -0.089275 -0.113980 -0.258179 0.194387 0.032039 -0.044621 0.138366 -0.102074 0.001092 -0.063735 -0.230831 0.174986 -0.279421 -0.054752 0.140364 0.167338 0.045574 0.161281 -0.111041 -0.187851 0.065194 -0.180613 0.095041 0.046953 -0.035440 0.054174 0.274162 0.032378 -0.109446 -0.118746 0.148546 -0.140342 -0.064816 -0.155614 -0.152887 0.221485 0.044065 -0.177364 0.199587 0.044561 -0.175877 0.003950 0.109400 -0.067187 -0.160828 0.062937 -0.162130 -0.076468 -0.174281 -0.272814 0.079908 0.009733 0.051363 -0.072862 0.073321 0.277567 -0.017766 -0.070688 0.241122 -0.113134 0.020669 0.151153 -0.030198 0.196880 0.093063 0.129200 0.064768 0.310449 0.095235 -0.104726 
libero 0.023397 -0.289381 0.119356 -0.318600 -0.070724 -0.094635 -0.101522 -0.171078 -0.053206 0.200178 -0.024738 0.389381 -0.419801 -0.077155 0.144931 0.453777 0.255827 0.034351 0.121742 0.050715 0.042128 0.235274 0.103539 -0.167943 -0.094494 -0.225945 0.091490 0.038423 0.300492 0.194009 -0.102160 -0.135741 -0.311835 0.229635 0.037662 -0.062355 0.173141 -0.109303 0.008614 -0.075513 -0.252664 0.217563 -0.334500 -0.066479 0.180193 0.187490 0.068345 0.193108 -0.138979 -0.224062 0.073047 -0.210915 0.109160 0.052563 -0.050324 0.065632 0.331593 0.033521 -0.140333 -0.155697 0.180928 -0.179812 -0.087091 -0.195870 -0.200351 0.270751 0.052955 -0.216363 0.229692 0.060742 -0.206474 0.009795 0.118646 -0.080005 -0.202014 0.083867 -0.190824 -0.107341 -0.231659 -0.330615 0.089579 0.020959 0.067526 -0.091690 0.086410 0.334465 -0.021880 -0.084489 0.297862 -0.133516 0.022653 0.184964 -0.038938 0.236111 0.108544 0.166660 0.073752 0.366892 0.128557 -0.126586 
tortor 0.033471 -0.269698 0.108308 -0.304846 -0.070020 -0.088767 -0.098340 -0.154556 -0.050718 0.187354 -0.012961 0.364570 -0.388152 -0.079482 0.138802 0.414812 0.224652 0.024510 0.112025 0.045521 0.045821 0.222887 0.098693 -0.158595 -0.080537 -0.204135 0.084787 0.038959 0.272788 0.163524 -0.099544 -0.118624 -0.288603 0.203937 0.021460 -0.060802 0.154647 -0.097969 -0.005511 -0.068936 -0.233987 0.196823 -0.302662 -0.066833 0.151512 0.172341 0.055271 0.166528 -0.115188 -0.196108 0.060181 -0.181294 0.096472 0.049719 -0.048257 0.062421 0.294922 0.024754 -0.114231 -0.137818 0.156272 -0.152960 -0.074358 -0.175165 -0.175441 0.240687 0.048964 -0.194699 0.212664 0.053009 -0.184120 0.007922 0.111692 -0.075578 -0.174699 0.072162 -0.175688 -0.092546 -0.197657 -0.298035 0.070337 0.010141 0.058805 -0.087806 0.068396 0.296166 -0.027821 -0.076301 0.251921 -0.123933 0.023232 0.174605 -0.033648 0.210065 0.101034 0.152693 0.077921 0.334645 0.112018 -0.114522 
Proin 0.020584 -0.276830 0.114443 -0.308346 -0.067884 -0.092215 -0.106537 -0.165535 -0.063599 0.182598 -0.028690 0.390571 -0.402542 -0.087906 0.147536 0.442704 0.250120 0.029402 0.108108 0.049920 0.041352 0.250892 0.110146 -0.170549 -0.100959 -0.230448 0.095693 0.040333 0.306818 0.190911 -0.102226 -0.125810 -0.315822 0.215907 0.039641 -0.062021 0.170540 -0.097776 0.011394 -0.075056 -0.259388 0.211558 -0.324234 -0.074086 0.172180 0.178106 0.073146 0.192757 -0.136691 -0.215570 0.070637 -0.210249 0.109124 0.056854 -0.046165 0.060100 0.322546 0.029012 -0.125691 -0.154795 0.167834 -0.163050 -0.081201 -0.189056 -0.187309 0.269589 0.060783 -0.203223 0.222634 0.053102 -0.199733 0.006536 0.120503 -0.080392 -0.193018 0.074665 -0.185757 -0.103112 -0.217074 -0.327302 0.069753 0.011468 0.061375 -0.085258 0.081060 0.325169 -0.020874 -0.081283 0.278804 -0.131091 0.017300 0.182047 -0.035953 0.227166 0.099377 0.161596 0.072468 0.358243 0.117664 -0.110974 
magna 0.031324 -0.270008 0.121220 -0.294472 -0.068756 -0.089719 -0.085812 -0.156168 -0.052205 0.180294 -0.017778 0.367189 -0.386161 -0.070083 0.133658 0.417128 0.231570 0.026585 0.115080 0.049329 0.034037 0.227761 0.098045 -0.154294 -0.079818 -0.210366 0.099456 0.040509 0.260652 0.169258 -0.095035 -0.126039 -0.289930 0.200062 0.036755 -0.055563 0.151127 -0.105911 0.013903 -0.066293 -0.242813 0.184105 -0.295963 -0.058828 0.155547 0.170475 0.055988 0.164071 -0.116013 -0.189889 0.058737 -0.182850 0.095827 0.049309 -0.047119 0.057955 0.299726 0.030044 -0.113176 -0.129439 0.155469 -0.150377 -0.078772 -0.175215 -0.172930 0.238332 0.049183 -0.198002 0.206946 0.044598 -0.185598 0.008844 0.110756 -0.070575 -0.180428 0.065806 -0.172294 -0.089296 -0.204989 -0.296490 0.076392 0.015735 0.059166 -0.072951 0.085837 0.291600 -0.014492 -0.077307 0.267931 -0.122432 0.012549 0.165816 -0.034904 0.211704 0.085027 0.138749 0.060708 0.334247 0.109503 -0.103348 
faucibus 0.048011 -0.283535 0.125041 -0.308212 -0.073050 -0.093745 -0.093481 -0.164493 -0.057107 0.202981 -0.000461 0.383953 -0.414411 -0.086371 0.156557 0.436488 0.246357 0.034134 0.126603 0.065518 0.052087 0.245843 0.111960 -0.162911 -0.090390 -0.212575 0.085666 0.040416 0.280708 0.168445 -0.104116 -0.141051 -0.299849 0.219621 0.032984 -0.065693 0.175480 -0.116895 0.002726 -0.069941 -0.256194 0.210984 -0.339700 -0.069383 0.167717 0.201930 0.076983 0.176762 -0.127334 -0.214315 0.077288 -0.197328 0.106440 0.050812 -0.046075 0.071194 0.324691 0.026280 -0.125566 -0.149709 0.165188 -0.172399 -0.078523 -0.187211 -0.190158 0.258266 0.057278 -0.210668 0.225564 0.059422 -0.189992 0.008397 0.112876 -0.080458 -0.183554 0.086992 -0.191050 -0.108295 -0.214235 -0.331146 0.090116 0.018684 0.056114 -0.093556 0.094841 0.332567 -0.028408 -0.078758 0.272394 -0.124050 0.014888 0.180386 -0.038711 0.236746 0.088781 0.148742 0.083066 0.349102 0.107852 -0.118800 
malesuada 0.071970 -0.284916 0.105152 -0.255288 -0.064647 -0.047701 -0.065949 -0.125195 -0.065190 0.179670 0.006758 0.320735 -0.383959 -0.080409 0.132613 0.430184 0.269328 0.010858 0.153873 0.062536 0.076579 0.232596 0.140792 -0.167759 -0.073879 -0.251132 0.099530 0.051354 0.230357 0.101336 -0.086970 -0.106277 -0.286626 0.195102 0.030348 -0.071442 0.154842 -0.118833 0.009626 -0.057378 -0.245816 0.181800 -0.278003 -0.073820 0.140938 0.209399 0.071395 0.144632 -0.087108 -0.168368 0.069919 -0.190229 0.096513 0.084555 -0.087972 0.046086 0.317804 -0.006954 -0.113426 -0.140003 0.132976 -0.157159 -0.033123 -0.165715 -0.162833 0.260718 0.062331 -0.181373 0.215441 0.062854 -0.197594 0.002075 0.126323 -0.079521 -0.150985 0.088953 -0.198563 -0.098981 -0.153079 -0.282175 0.066905 0.041859 0.010406 -0.086878 0.096360 0.285673 -0.000009 -0.054558 0.247640 -0.158549 -0.024895 0.188972 -0.025589 0.232534 0.054977 0.152504 0.047750 0.330745 0.068939 -0.094035 
arcu 0.019777 -0.278359 0.122858 -0.313740 -0.070983 -0.088517 -0.093341 -0.165380 -0.066065 0.185385 -0.021081 0.365379 -0.402568 -0.090346 0.144489 0.429745 0.243298 0.038354 0.117586 0.038157 0.043281 0.229877 0.102106 -0.159420 -0.097564 -0.206673 0.088276 0.037225 0.276317 0.171017 -0.099655 -0.126304 -0.286127 0.202549 0.024384 -0.057230 0.166698 -0.105446 0.012594 -0.076226 -0.236553 0.195568 -0.305201 -0.067121 0.158663 0.179757 0.062604 0.184414 -0.126854 -0.209323 0.062262 -0.181411 0.102468 0.054278 -0.033947 0.050120 0.306994 0.031720 -0.113690 -0.146885 0.154490 -0.147223 -0.082078 -0.169794 -0.182750 0.244497 0.054571 -0.201059 0.204991 0.051656 -0.187683 0.005277 0.108526 -0.063650 -0.179031 0.069573 -0.171188 -0.088380 -0.212272 -0.296749 0.081400 0.012917 0.064256 -0.076659 0.071971 0.297242 -0.019676 -0.079954 0.272999 -0.109806 0.016010 0.161642 -0.033441 0.204019 0.094401 0.141645 0.069530 0.324734 0.102989 -0.107468 
nunc 0.016506 -0.250922 0.106459 -0.280964 -0.067882 -0.089410 -0.086055 -0.148338 -0.041498 0.174653 -0.026497 0.354810 -0.381207 -0.063793 0.139186 0.402990 0.220252 0.034457 0.118913 0.035894 0.032031 0.228806 0.099380 -0.154805 -0.086691 -0.207159 0.088979 0.048712 0.263729 0.167960 -0.100861 -0.123847 -0.287328 0.216048 0.029378 -0.048934 0.153929 -0.105439 0.003077 -0.071155 -0.255540 0.192294 -0.300780 -0.058825 0.149517 0.176409 0.053563 0.168080 -0.120309 -0.199110 0.046510 -0.196271 0.099770 0.048551 -0.053819 0.068884 0.306757 0.029360 -0.119610 -0.139711 0.159609 -0.159041 -0.062008 -0.171302 -0.182261 0.241529 0.053557 -0.199109 0.212861 0.047123 -0.191649 -0.001377 0.112419 -0.070664 -0.193613 0.085917 -0.173460 -0.087233 -0.211041 -0.314795 0.088609 0.012403 0.058651 -0.085352 0.082499 0.307471 -0.024788 -0.076993 0.255833 -0.125319 0.026520 0.170374 -0.033118 0.219950 0.092469 0.146314 0.069347 0.336423 0.113899 -0.111938 
maximus 0.019120 -0.260294 0.110326 -0.273942 -0.063269 -0.082307 -0.076171 -0.146996 -0.047260 0.169578 -0.014370 0.336677 -0.381455 -0.068889 0.135284 0.397519 0.223947 0.033673 0.105666 0.051646 0.039957 0.224070 0.094728 -0.152898 -0.083555 -0.183120 0.080990 0.032071 0.248306 0.163649 -0.086979 -0.122008 -0.281682 0.209863 0.029368 -0.050249 0.146685 -0.097577 0.000543 -0.069320 -0.231904 0.182214 -0.288852 -0.056875 0.151323 0.176243 0.059455 0.166501 -0.114739 -0.189873 0.063385 -0.188475 0.097432 0.043581 -0.045316 0.055720 0.300137 0.030832 -0.121919 -0.140888 0.155189 -0.161727 -0.074684 -0.178450 -0.170688 0.233716 0.051834 -0.193540 0.207860 0.046068 -0.187801 0.010002 0.107668 -0.059260 -0.172633 0.067861 -0.184880 -0.082132 -0.205420 -0.299515 0.080062 0.010835 0.046302 -0.083969 0.087579 0.303543 -0.021707 -0.080356 0.262637 -0.117363 0.016477 0.172506 -0.038521 0.219368 0.096842 0.141488 0.074084 0.329668 0.112558 -0.112415 
gravida 0.025408 -0.282871 0.116688 -0.309245 -0.073109 -0.091258 -0.091921 -0.162128 -0.061623 0.200329 -0.013785 0.385498 -0.414354 -0.097192 0.141048 0.440950 0.251841 0.037393 0.113870 0.056755 0.047713 0.248271 0.117623 -0.170156 -0.094783 -0.225069 0.098733 0.046607 0.304065 0.181347 -0.106988 -0.131619 -0.313870 0.225739 0.030676 -0.053212 0.184686 -0.114749 0.013511 -0.068881 -0.266144 0.224777 -0.330239 -0.080538 0.174220 0.193955 0.076214 0.199974 -0.136141 -0.225707 0.076110 -0.200011 0.112059 0.051084 -0.046645 0.062329 0.328925 0.024870 -0.140944 -0.157117 0.177625 -0.187030 -0.090672 -0.193419 -0.199818 0.275770 0.056183 -0.214389 0.235310 0.052733 -0.203639 0.012673 0.119150 -0.066710 -0.187501 0.078651 -0.197162 -0.096809 -0.235130 -0.329366 0.079209 0.014602 0.063101 -0.100161 0.087525 0.331740 -0.015126 -0.076123 0.302124 -0.127922 0.012434 0.193229 -0.030024 0.240792 0.101527 0.159183 0.073139 0.358427 0.119863 -0.123074 
neque 0.030578 -0.268138 0.117696 -0.298209 -0.068652 -0.095924 -0.102525 -0.161945 -0.055643 0.187432 -0.025535 0.373948 -0.400794 -0.080843 0.144146 0.433420 0.242338 0.034854 0.119534 0.038585 0.041867 0.237243 0.104558 -0.154496 -0.094540 -0.215783 0.095224 0.036540 0.291288 0.187031 -0.101916 -0.124538 -0.299781 0.212547 0.027811 -0.048494 0.166855 -0.107576 0.003850 -0.069757 -0.243250 0.207704 -0.318684 -0.072968 0.171653 0.178098 0.059893 0.181768 -0.130825 -0.202451 0.066119 -0.194957 0.098062 0.053616 -0.038116 0.063802 0.312312 0.032743 -0.125274 -0.148457 0.169593 -0.171494 -0.079357 -0.175118 -0.192390 0.250032 0.050833 -0.199489 0.214422 0.049764 -0.194542 0.010787 0.108430 -0.071741 -0.186182 0.078702 -0.183300 -0.087788 -0.217118 -0.311971 0.079875 0.007630 0.059512 -0.084090 0.084963 0.310412 -0.013850 -0.079928 0.273189 -0.119367 0.021285 0.172430 -0.035276 0.209440 0.096045 0.145714 0.076015 0.346863 0.112632 -0.114249 
consectetur 0.036462 -0.302667 0.132138 -0.322015 -0.069111 -0.108979 -0.072255 -0.157731 -0.061331 0.212439 0.008147 0.379424 -0.441169 -0.093493 0.170624 0.443566 0.244265 0.035829 0.149209 0.089596 0.062603 0.259780 0.120341 -0.174630 -0.093628 -0.205267 0.146140 0.068251 0.245367 0.145421 -0.115688 -0.142109 -0.312297 0.242932 0.030423 -0.068715 0.160683 -0.116382 0.016980 -0.093791 -0.308946 0.206700 -0.358269 -0.050225 0.146656 0.206406 0.049333 0.186691 -0.122450 -0.215427 0.061222 -0.206932 0.096465 0.051568 -0.035521 0.037503 0.339733 0.038355 -0.133864 -0.136911 0.187679 -0.152603 -0.092671 -0.189575 -0.200843 0.282272 0.044841 -0.258925 0.234611 0.041321 -0.188747 0.018956 0.117835 -0.077258 -0.195056 0.064342 -0.194728 -0.090942 -0.201704 -0.339971 0.100321 0.025714 0.045432 -0.072034 0.104354 0.343847 -0.025769 -0.096160 0.287594 -0.110012 0.031496 0.219196 -0.038882 0.251513 0.094847 0.136627 0.078540 0.392243 0.123869 -0.126544 
massa 0.023490 -0.291541 0.127642 -0.321506 -0.075148 -0.095791 -0.102515 -0.171496 -0.056783 0.199894 -0.028085 0.396066 -0.431218 -0.083689 0.149610 0.470031 0.258187 0.032512 0.122128 0.040030 0.049185 0.252679 0.112522 -0.172665 -0.095489 -0.242096 0.097003 0.040832 0.305923 0.194409 -0.109696 -0.138861 -0.309081 0.225907 0.031478 -0.051083 0.171418 -0.110206 0.003101 -0.078717 -0.265447 0.211262 -0.337317 -0.067082 0.176724 0.196005 0.072252 0.187973 -0.134521 -0.226076 0.062610 -0.204235 0.103267 0.049888 -0.054444 0.066215 0.335789 0.028685 -0.135639 -0.158214 0.179723 -0.179103 -0.077055 -0.198411 -0.198475 0.274679 0.061523 -0.217533 0.236302 0.058089 -0.203900 0.004046 0.124798 -0.079247 -0.190503 0.088157 -0.200997 -0.104673 -0.230492 -0.342402 0.083387 0.008807 0.070410 -0.098049 0.085573 0.333482 -0.022120 -0.085702 0.293878 -0.138923 0.021849 0.187575 -0.042730 0.239060 0.108355 0.162281 0.082930 0.366987 0.127697 -0.129322 
interdum 0.028571 -0.273229 0.114038 -0.296609 -0.067192 -0.082478 -0.097508 -0.160522 -0.056559 0.193232 -0.021307 0.369403 -0.405106 -0.080110 0.152162 0.426116 0.240197 0.033638 0.107119 0.044758 0.049158 0.232404 0.101604 -0.161420 -0.094281 -0.212165 0.087423 0.038864 0.288650 0.174932 -0.102573 -0.130708 -0.293977 0.226841 0.027984 -0.053003 0.163813 -0.104958 -0.000662 -0.066686 -0.252458 0.198848 -0.310597 -0.061195 0.159566 0.178738 0.064745 0.180776 -0.131161 -0.210770 0.064072 -0.191552 0.110543 0.048671 -0.045666 0.060507 0.320505 0.039115 -0.130545 -0.150463 0.162529 -0.168935 -0.082171 -0.189187 -0.183503 0.249862 0.051310 -0.205934 0.212569 0.057313 -0.192024 0.003747 0.110216 -0.071520 -0.188125 0.082172 -0.185875 -0.099823 -0.210156 -0.315684 0.080221 0.017767 0.066973 -0.095200 0.088550 0.321907 -0.025516 -0.076657 0.278700 -0.117347 0.020149 0.178165 -0.041325 0.227366 0.103579 0.156920 0.075475 0.352782 0.113637 -0.117867 
egestas 0.023022 -0.252856 0.109988 -0.278332 -0.070288 -0.085390 -0.080289 -0.143602 -0.046639 0.166713 -0.010774 0.340239 -0.389457 -0.067989 0.129233 0.394486 0.220315 0.036328 0.106785 0.050753 0.042040 0.227476 0.097964 -0.146463 -0.086737 -0.192048 0.102436 0.048390 0.252288 0.162928 -0.099392 -0.129585 -0.297918 0.209531 0.031609 -0.059314 0.148288 -0.108311 0.007163 -0.079583 -0.247702 0.189187 -0.315494 -0.062181 0.154824 0.183229 0.048364 0.169825 -0.116316 -0.206356 0.052429 -0.198205 0.095304 0.053307 -0.046643 0.057041 0.317158 0.027859 -0.118335 -0.134649 0.168562 -0.152011 -0.075425 -0.182528 -0.186689 0.242687 0.037514 -0.207988 0.212763 0.048557 -0.188600 0.014430 0.104766 -0.074656 -0.187524 0.066240 -0.183466 -0.084804 -0.197961 -0.310317 0.085690 0.015663 0.056105 -0.069942 0.077833 0.303278 -0.015325 -0.076172 0.255203 -0.115373 0.030646 0.163490 -0.027283 0.214768 0.096364 0.140757 0.070443 0.342046 0.112374 -0.112172 
urna 0.019787 -0.246711 0.102682 -0.270225 -0.058952 -0.075583 -0.078469 -0.141556 -0.049547 0.156776 -0.014608 0.325663 -0.367836 -0.057603 0.131118 0.384944 0.214652 0.018553 0.110157 0.030113 0.029571 0.209352 0.087896 -0.141571 -0.086426 -0.182754 0.086266 0.043447 0.236065 0.152920 -0.082019 -0.121052 -0.264804 0.191093 0.030821 -0.048702 0.133592 -0.099424 0.006503 -0.074196 -0.223140 0.176562 -0.279691 -0.051420 0.135487 0.166096 0.054354 0.153235 -0.105238 -0.187497 0.040579 -0.172801 0.084337 0.046882 -0.047247 0.060868 0.273440 0.036552 -0.116715 -0.116735 0.156474 -0.137136 -0.061082 -0.164279 -0.168458 0.213837 0.036078 -0.187028 0.195644 0.048461 -0.171686 0.007276 0.104196 -0.061646 -0.161985 0.066817 -0.159897 -0.076780 -0.190358 -0.275276 0.075318 0.008854 0.059855 -0.069812 0.077964 0.265439 -0.019578 -0.077854 0.239834 -0.112650 0.018285 0.158122 -0.035927 0.199048 0.083180 0.129710 0.063343 0.300158 0.108203 -0.109171 
diam 0.023906 -0.246688 0.105702 -0.278935 -0.058744 -0.081442 -0.085064 -0.140885 -0.050444 0.162377 -0.007958 0.336196 -0.352874 -0.073899 0.125430 0.391817 0.210513 0.027416 0.104937 0.037598 0.037195 0.212797 0.100925 -0.143929 -0.079696 -0.190059 0.078708 0.040954 0.257932 0.155271 -0.092809 -0.117511 -0.254015 0.189393 0.022684 -0.051427 0.152405 -0.091251 0.002148 -0.063526 -0.215262 0.182935 -0.278516 -0.066265 0.146218 0.152261 0.067232 0.157275 -0.116773 -0.180409 0.067711 -0.165255 0.090196 0.043455 -0.038947 0.051172 0.271594 0.027999 -0.114279 -0.138488 0.143465 -0.159561 -0.067728 -0.167700 -0.168648 0.232729 0.054213 -0.185310 0.193284 0.047375 -0.172128 0.008315 0.096549 -0.058198 -0.157924 0.068312 -0.162857 -0.086905 -0.195397 -0.268195 0.068502 0.004255 0.048338 -0.084665 0.070533 0.282443 -0.013517 -0.071363 0.257779 -0.114673 0.010315 0.155877 -0.043288 0.199387 0.085094 0.143459 0.065738 0.314914 0.108086 -0.100684 
ultrices 0.044181 -0.254014 0.119219 -0.281824 -0.065544 -0.084299 -0.081990 -0.153294 -0.047491 0.188236 -0.013807 0.345758 -0.380452 -0.070412 0.147702 0.398851 0.243485 0.034248 0.101164 0.053825 0.039788 0.225304 0.095434 -0.153999 -0.087223 -0.210374 0.077733 0.030627 0.266591 0.158356 -0.092502 -0.128460 -0.286347 0.212429 0.038977 -0.058546 0.172981 -0.106247 0.011236 -0.059327 -0.237059 0.199796 -0.314145 -0.069919 0.159994 0.184861 0.070536 0.172982 -0.120479 -0.195370 0.065354 -0.192019 0.114832 0.058239 -0.058098 0.062781 0.307631 0.022885 -0.117271 -0.141801 0.149984 -0.169363 -0.075421 -0.179156 -0.184384 0.257439 0.062138 -0.204925 0.212621 0.066033 -0.188653 -0.000168 0.106847 -0.070728 -0.173072 0.078576 -0.179935 -0.100020 -0.194648 -0.313220 0.073881 0.016179 0.055496 -0.089214 0.076385 0.306263 -0.014638 -0.068049 0.247917 -0.112023 0.020671 0.170087 -0.032069 0.218032 0.086265 0.144772 0.074003 0.334297 0.109957 -0.105708 
Nunc 0.020179 -0.260740 0.110279 -0.288482 -0.069694 -0.084338 -0.097830 -0.157446 -0.053483 0.178330 -0.024874 0.371405 -0.389176 -0.069018 0.139804 0.419846 0.234821 0.027089 0.104758 0.028632 0.037010 0.229945 0.102265 -0.156435 -0.091650 -0.220915 0.083810 0.037616 0.285837 0.179063 -0.091939 -0.113909 -0.297547 0.209981 0.040144 -0.058586 0.166639 -0.102558 0.013205 -0.071703 -0.239074 0.201188 -0.309169 -0.074625 0.159431 0.170757 0.060485 0.170899 -0.129923 -0.200494 0.053187 -0.183300 0.112617 0.055612 -0.040401 0.061061 0.294552 0.034945 -0.104403 -0.130996 0.149202 -0.162725 -0.078584 -0.168133 -0.180691 0.246773 0.057417 -0.188465 0.205340 0.058635 -0.182176 -0.000659 0.114139 -0.063995 -0.184831 0.074825 -0.168945 -0.090827 -0.206368 -0.300360 0.078143 0.020507 0.065540 -0.076199 0.079170 0.295485 -0.010762 -0.073159 0.255111 -0.125462 0.009075 0.173691 -0.030376 0.200686 0.101229 0.151491 0.076958 0.325807 0.114001 -0.111392 
bibendum 0.032888 -0.282878 0.116083 -0.320017 -0.071153 -0.092723 -0.095462 -0.164157 -0.064393 0.195974 -0.010904 0.385501 -0.420563 -0.095544 0.151938 0.447421 0.255580 0.037540 0.127216 0.049800 0.048258 0.249842 0.110166 -0.172059 -0.102806 -0.224818 0.097864 0.039762 0.295652 0.171919 -0.097931 -0.139555 -0.317079 0.227410 0.030640 -0.056239 0.183171 -0.115932 0.013585 -0.073555 -0.266181 0.218149 -0.335473 -0.071098 0.177618 0.183975 0.078267 0.184444 -0.127816 -0.217151 0.080265 -0.203034 0.112903 0.055278 -0.046213 0.066742 0.342713 0.028479 -0.133438 -0.166346 0.183593 -0.179155 -0.080391 -0.192713 -0.193450 0.268026 0.054551 -0.221144 0.225637 0.058559 -0.202760 0.003843 0.115232 -0.072676 -0.195910 0.080280 -0.204467 -0.109120 -0.231150 -0.335740 0.076227 0.005531 0.056504 -0.091732 0.084273 0.338082 -0.019066 -0.084491 0.301396 -0.136992 0.009369 0.185166 -0.041041 0.237668 0.099244 0.161395 0.076999 0.373045 0.119056 -0.115781 
Mauris 0.035279 -0.290881 0.128032 -0.321281 -0.072957 -0.106894 -0.101207 -0.170437 -0.070521 0.204739 0.000678 0.404362 -0.426786 -0.102306 0.158858 0.459465 0.255558 0.047404 0.120272 0.060430 0.043611 0.266924 0.120677 -0.175571 -0.096241 -0.235495 0.117472 0.040268 0.299543 0.174719 -0.112492 -0.146752 -0.331211 0.226776 0.026312 -0.053454 0.190752 -0.103775 0.011026 -0.084646 -0.273150 0.219078 -0.343250 -0.076352 0.170301 0.203116 0.059580 0.202286 -0.138427 -0.227828 0.064903 -0.214830 0.109797 0.054417 -0.056653 0.056299 0.351969 0.027289 -0.132701 -0.157772 0.173801 -0.178813 -0.081350 -0.190905 -0.211131 0.290786 0.062255 -0.240802 0.232961 0.048029 -0.195482 0.021116 0.121905 -0.074928 -0.196204 0.093224 -0.205271 -0.099848 -0.237129 -0.341204 0.092829 0.007529 0.067597 -0.093190 0.094046 0.348993 -0.023395 -0.090941 0.300335 -0.125351 0.025977 0.198593 -0.032149 0.241433 0.098631 0.168318 0.075134 0.382789 0.129592 -0.123422 
nisi 0.027070 -0.281653 0.110483 -0.321145 -0.068560 -0.092259 -0.107535 -0.172324 -0.064750 0.191639 -0.011768 0.385750 -0.419255 -0.086015 0.142485 0.454854 0.255061 0.032003 0.113652 0.044220 0.039391 0.238979 0.106882 -0.173437 -0.086778 -0.219852 0.086135 0.045374 0.296049 0.175169 -0.102529 -0.127530 -0.295247 0.201993 0.031656 -0.050429 0.162674 -0.097442 0.016519 -0.063959 -0.237874 0.198806 -0.316390 -0.062852 0.171607 0.176632 0.076232 0.181520 -0.123361 -0.212706 0.067530 -0.197911 0.104618 0.055140 -0.045554 0.061578 0.318587 0.022859 -0.123568 -0.157689 0.163963 -0.170143 -0.078526 -0.184743 -0.193137 0.261346 0.060827 -0.204338 0.221077 0.050994 -0.193220 0.009629 0.109303 -0.071089 -0.188703 0.083552 -0.180791 -0.096989 -0.221773 -0.312515 0.078687 0.015160 0.063875 -0.095009 0.071529 0.322858 -0.024524 -0.071927 0.287289 -0.121639 0.022651 0.182735 -0.039324 0.220063 0.092425 0.160418 0.077659 0.342992 0.115809 -0.115733 
nisl 0.026293 -0.274805 0.111313 -0.289441 -0.062646 -0.082394 -0.089617 -0.155958 -0.056329 0.186214 -0.018333 0.369062 -0.391321 -0.081127 0.139744 0.423232 0.242628 0.033339 0.118536 0.050663 0.036668 0.233153 0.102888 -0.163007 -0.094610 -0.216453 0.094459 0.046355 0.275994 0.171931 -0.098455 -0.122903 -0.296319 0.212439 0.022423 -0.054816 0.162935 -0.101471 0.006993 -0.069710 -0.253914 0.199675 -0.314598 -0.070161 0.165243 0.181378 0.063892 0.175067 -0.127907 -0.208256 0.060001 -0.191448 0.098449 0.059747 -0.049933 0.060838 0.327084 0.025305 -0.130977 -0.152227 0.166407 -0.165079 -0.071469 -0.182956 -0.188365 0.258374 0.048708 -0.213216 0.215935 0.053662 -0.188951 0.008791 0.111267 -0.071151 -0.186203 0.076188 -0.191612 -0.094055 -0.213594 -0.309293 0.081295 0.012625 0.060030 -0.086626 0.083192 0.319938 -0.024306 -0.082901 0.283065 -0.122885 0.013355 0.185037 -0.027997 0.235415 0.097900 0.159141 0.066025 0.353953 0.116981 -0.118312 
Nam 0.030747 -0.281757 0.112839 -0.318268 -0.078765 -0.089125 -0.100565 -0.161062 -0.057282 0.185109 -0.021641 0.379636 -0.402697 -0.078618 0.150222 0.430596 0.246215 0.024085 0.117641 0.035347 0.042318 0.229581 0.103219 -0.163207 -0.087451 -0.215501 0.088366 0.031911 0.293673 0.174207 -0.102015 -0.119631 -0.292873 0.217189 0.034621 -0.053854 0.163323 -0.103394 0.014298 -0.061909 -0.238853 0.200300 -0.321340 -0.068641 0.163778 0.180559 0.065444 0.176239 -0.129350 -0.209699 0.064321 -0.195178 0.108501 0.052919 -0.039495 0.064072 0.309714 0.029992 -0.122269 -0.143777 0.164841 -0.170019 -0.087122 -0.174426 -0.183320 0.253944 0.058536 -0.193011 0.212354 0.056728 -0.191948 0.009525 0.111049 -0.063718 -0.181314 0.076047 -0.186402 -0.085415 -0.216929 -0.308708 0.073802 0.013003 0.064692 -0.088352 0.085356 0.305917 -0.011523 -0.080836 0.268614 -0.115057 0.013171 0.177234 -0.032310 0.209792 0.091980 0.154353 0.073898 0.337800 0.118715 -0.109916 
pretium 0.021355 -0.287946 0.125280 -0.311771 -0.071709 -0.100489 -0.096387 -0.166768 -0.063198 0.198143 -0.024708 0.388622 -0.429592 -0.083426 0.159555 0.441257 0.244867 0.029698 0.117879 0.042765 0.041237 0.255784 0.118231 -0.175462 -0.097691 -0.217563 0.100070 0.039231 0.296174 0.184925 -0.112053 -0.136088 -0.321394 0.233400 0.029608 -0.053524 0.173046 -0.116201 0.012493 -0.088678 -0.273249 0.216804 -0.338197 -0.065703 0.176550 0.192787 0.063099 0.193868 -0.134955 -0.219600 0.066126 -0.215520 0.109744 0.061694 -0.048322 0.069860 0.344740 0.044809 -0.126440 -0.149124 0.187300 -0.171151 -0.089825 -0.204564 -0.197326 0.274117 0.061395 -0.231719 0.243512 0.046992 -0.204695 0.012562 0.118018 -0.084586 -0.206461 0.089079 -0.208360 -0.102277 -0.236278 -0.351256 0.091311 0.011249 0.064979 -0.088618 0.098128 0.359489 -0.015983 -0.091092 0.307459 -0.131624 0.015667 0.202244 -0.035125 0.251205 0.110347 0.168937 0.074483 0.376746 0.129412 -0.130407 
fringilla 0.027287 -0.264015 0.115074 -0.289242 -0.071659 -0.088462 -0.092765 -0.152885 -0.045537 0.177565 -0.024764 0.358656 -0.402049 -0.073743 0.138076 0.403581 0.220665 0.029746 0.106780 0.049987 0.040356 0.224458 0.102992 -0.155751 -0.092494 -0.193199 0.091139 0.033585 0.266033 0.172911 -0.097388 -0.118272 -0.291173 0.210595 0.036564 -0.048398 0.156716 -0.104406 0.005471 -0.068882 -0.241163 0.197625 -0.301403 -0.065253 0.154927 0.174464 0.056253 0.169182 -0.121947 -0.193576 0.059945 -0.193067 0.093809 0.046411 -0.034415 0.064825 0.304366 0.025089 -0.124425 -0.138590 0.152184 -0.155546 -0.075779 -0.176892 -0.180533 0.247822 0.044666 -0.187529 0.212681 0.045695 -0.177382 0.010001 0.111959 -0.074097 -0.183727 0.071910 -0.182905 -0.090873 -0.199393 -0.300720 0.077331 0.008683 0.061619 -0.080868 0.074141 0.293272 -0.014167 -0.071922 0.261945 -0.119170 0.013468 0.157283 -0.034458 0.213416 0.089138 0.141361 0.074385 0.321574 0.108544 -0.103296 
Aenean 0.029838 -0.284075 0.113592 -0.306323 -0.072810 -0.081458 -0.104092 -0.165274 -0.056695 0.179462 -0.022028 0.384964 -0.398081 -0.087210 0.152100 0.439009 0.250304 0.029183 0.111033 0.032004 0.030128 0.239922 0.104360 -0.169770 -0.099845 -0.220752 0.092683 0.041066 0.299767 0.174577 -0.096251 -0.129461 -0.310117 0.218329 0.037347 -0.057491 0.171893 -0.101280 0.018946 -0.068393 -0.257470 0.215023 -0.326638 -0.070378 0.168606 0.182762 0.070106 0.189458 -0.138839 -0.210622 0.071076 -0.197127 0.112139 0.058374 -0.049750 0.062738 0.331442 0.029158 -0.124782 -0.149604 0.169309 -0.165883 -0.088980 -0.176415 -0.183730 0.270431 0.066459 -0.199691 0.216576 0.050473 -0.193902 0.001443 0.127136 -0.063905 -0.190932 0.083576 -0.177971 -0.091773 -0.216780 -0.316633 0.075916 0.011386 0.062470 -0.083390 0.077818 0.323175 -0.015390 -0.084003 0.280151 -0.126328 0.012371 0.179280 -0.030458 0.222826 0.087872 0.164466 0.064907 0.347651 0.117857 -0.118382 
scelerisque 0.018048 -0.252353 0.107909 -0.273718 -0.064274 -0.085536 -0.087612 -0.152223 -0.045382 0.170911 -0.023684 0.351282 -0.372671 -0.066770 0.132729 0.400062 0.223674 0.021025 0.103296 0.044258 0.033131 0.223815 0.095243 -0.146599 -0.082657 -0.193342 0.080689 0.031982 0.273010 0.168375 -0.087866 -0.127775 -0.279539 0.206104 0.034728 -0.054951 0.155007 -0.102926 -0.000744 -0.068446 -0.234090 0.195928 -0.288805 -0.066530 0.153422 0.158823 0.055468 0.161750 -0.121527 -0.194694 0.065114 -0.183955 0.096303 0.048429 -0.038974 0.067079 0.292920 0.026322 -0.110883 -0.134777 0.151385 -0.153384 -0.076452 -0.174087 -0.172191 0.237431 0.051773 -0.182956 0.200423 0.053477 -0.180403 0.004122 0.118206 -0.072575 -0.174602 0.080299 -0.178564 -0.096103 -0.211383 -0.307034 0.069630 0.005993 0.052275 -0.081160 0.068646 0.301075 -0.009571 -0.075256 0.258449 -0.122106 0.008282 0.164589 -0.040910 0.215020 0.092320 0.155993 0.071416 0.331531 0.114809 -0.115966 
velit 0.022816 -0.253769 0.098960 -0.284739 -0.060884 -0.087475 -0.087807 -0.141268 -0.047951 0.169157 -0.008037 0.340610 -0.353208 -0.075856 0.126741 0.389687 0.208417 0.027808 0.102615 0.043940 0.040101 0.207073 0.096512 -0.139709 -0.077912 -0.192416 0.082267 0.035490 0.256423 0.156040 -0.088047 -0.123877 -0.280262 0.203054 0.020626 -0.051837 0.156219 -0.092357 0.006941 -0.073862 -0.226900 0.189003 -0.297595 -0.059157 0.153530 0.160050 0.066845 0.172839 -0.120481 -0.196880 0.068059 -0.184567 0.097335 0.049397 -0.038659 0.051267 0.299446 0.025140 -0.114383 -0.136432 0.154732 -0.156935 -0.082302 -0.168355 -0.173397 0.244923 0.050057 -0.192538 0.200106 0.046383 -0.172639 0.016724 0.102872 -0.059653 -0.170693 0.069392 -0.169132 -0.085129 -0.205248 -0.286870 0.065482 0.012711 0.050610 -0.072992 0.071972 0.291392 -0.016239 -0.077812 0.259187 -0.114415 0.019741 0.155548 -0.030193 0.208275 0.080972 0.135650 0.063840 0.322120 0.102439 -0.101162 
aliquam 0.025275 -0.306947 0.131565 -0.347171 -0.086462 -0.109472 -0.113240 -0.191142 -0.064235 0.220780 -0.021860 0.437251 -0.467600 -0.096480 0.169620 0.488521 0.285976 0.035210 0.129890 0.053257 0.043314 0.263792 0.122174 -0.183868 -0.106239 -0.249346 0.102602 0.038301 0.336955 0.217175 -0.114521 -0.155024 -0.358323 0.240438 0.046942 -0.063894 0.189581 -0.118124 0.007711 -0.078873 -0.288679 0.239555 -0.373355 -0.080996 0.197164 0.197318 0.085698 0.213701 -0.151007 -0.229593 0.071932 -0.219115 0.120149 0.067001 -0.048394 0.084151 0.373521 0.034854 -0.134297 -0.174917 0.195753 -0.200194 -0.096068 -0.206032 -0.214924 0.286156 0.056597 -0.222346 0.247815 0.067436 -0.215198 0.005793 0.140218 -0.083063 -0.214821 0.090742 -0.202260 -0.114564 -0.259560 -0.368640 0.090922 0.020631 0.068099 -0.103613 0.087546 0.365656 -0.014445 -0.095291 0.321189 -0.150863 0.017563 0.197083 -0.043175 0.265505 0.127859 0.176475 0.083288 0.412373 0.142738 -0.126783 
fermentum 0.019634 -0.262358 0.105968 -0.289709 -0.065268 -0.081586 -0.093437 -0.160488 -0.055953 0.179399 -0.032501 0.362227 -0.392529 -0.077470 0.148261 0.412933 0.230168 0.027296 0.099098 0.049286 0.032065 0.225359 0.102793 -0.154293 -0.092548 -0.219593 0.080843 0.041265 0.277478 0.173852 -0.101730 -0.129425 -0.292733 0.203391 0.035656 -0.058334 0.168687 -0.102516 0.011182 -0.069014 -0.242497 0.204172 -0.302021 -0.058796 0.158475 0.165719 0.057549 0.182052 -0.123488 -0.193853 0.072042 -0.176322 0.111826 0.052842 -0.039846 0.056014 0.310333 0.023770 -0.122382 -0.150848 0.164125 -0.164787 -0.080025 -0.175313 -0.170985 0.245593 0.055294 -0.188136 0.199061 0.049687 -0.184208 0.007173 0.123819 -0.066332 -0.176249 0.070924 -0.173283 -0.089381 -0.201386 -0.299746 0.077083 0.021250 0.057722 -0.081900 0.077763 0.307584 -0.010936 -0.076697 0.264790 -0.110401 0.014867 0.166841 -0.040549 0.213750 0.102060 0.144406 0.080548 0.326104 0.114272 -0.107674 
Vivamus 0.026930 -0.269238 0.119233 -0.299789 -0.073484 -0.091308 -0.093975 -0.159482 -0.050139 0.189204 -0.021421 0.380083 -0.404839 -0.082862 0.151574 0.428725 0.240849 0.040054 0.119354 0.048586 0.032752 0.240876 0.102673 -0.164237 -0.086760 -0.203939 0.097050 0.042078 0.268521 0.172823 -0.101502 -0.120642 -0.294020 0.216325 0.028203 -0.055412 0.161654 -0.100410 0.009247 -0.066730 -0.246115 0.203638 -0.311484 -0.073698 0.162012 0.188654 0.057503 0.180391 -0.127030 -0.206617 0.062213 -0.194241 0.103099 0.048926 -0.038267 0.053935 0.318527 0.028037 -0.120180 -0.138956 0.171625 -0.162901 -0.075517 -0.175517 -0.187499 0.261901 0.053481 -0.203162 0.223263 0.051937 -0.193050 0.010769 0.123215 -0.069989 -0.185679 0.076598 -0.180824 -0.094445 -0.217702 -0.322276 0.079707 0.004669 0.060457 -0.084580 0.079882 0.311088 -0.023843 -0.081416 0.266645 -0.121729 0.020863 0.181259 -0.034802 0.209143 0.093483 0.144522 0.077001 0.338087 0.113110 -0.112800 
mi 0.023884 -0.258149 0.107502 -0.281148 -0.058059 -0.087250 -0.093230 -0.150369 -0.049197 0.172495 -0.025883 0.354131 -0.377557 -0.072445 0.125952 0.408572 0.220279 0.030118 0.112933 0.037678 0.027399 0.222349 0.094851 -0.141920 -0.079720 -0.194726 0.083993 0.038262 0.262609 0.163497 -0.087325 -0.120673 -0.283104 0.213774 0.031211 -0.043588 0.163714 -0.098218 0.012055 -0.060228 -0.226625 0.190772 -0.297810 -0.061784 0.155671 0.172519 0.057561 0.164131 -0.112201 -0.198342 0.064376 -0.191736 0.099663 0.043303 -0.043917 0.063795 0.298348 0.034661 -0.122263 -0.143259 0.150740 -0.160283 -0.069260 -0.169196 -0.183074 0.236209 0.044887 -0.191767 0.198140 0.053390 -0.191383 0.005926 0.109840 -0.069635 -0.178557 0.077239 -0.174152 -0.087873 -0.207582 -0.298639 0.078105 0.006207 0.060013 -0.087208 0.076931 0.292712 -0.011150 -0.079564 0.270689 -0.123642 0.014594 0.173510 -0.024909 0.213102 0.089699 0.144594 0.075365 0.332998 0.106432 -0.117878 
porttitor 0.026594 -0.252090 0.100443 -0.295027 -0.069269 -0.092222 -0.085601 -0.144654 -0.068639 0.166341 0.008241 0.334128 -0.356504 -0.111088 0.144594 0.425732 0.224678 0.048322 0.100676 0.056297 0.060738 0.238524 0.124453 -0.160628 -0.083183 -0.219745 0.096288 0.031896 0.278341 0.161212 -0.095731 -0.131493 -0.278575 0.205574 0.017382 -0.040308 0.182531 -0.090503 0.025916 -0.061965 -0.224661 0.220408 -0.314696 -0.072357 0.158711 0.164414 0.073090 0.189367 -0.111663 -0.199750 0.076520 -0.190010 0.073340 0.039795 -0.034943 0.049728 0.330430 0.025855 -0.143162 -0.167738 0.181504 -0.178373 -0.082310 -0.187829 -0.190826 0.263028 0.061255 -0.229603 0.209068 0.044506 -0.182778 0.019631 0.098922 -0.064817 -0.164714 0.076131 -0.205304 -0.098366 -0.238163 -0.288372 0.080341 -0.005499 0.050202 -0.099216 0.077828 0.336715 -0.028680 -0.077603 0.290700 -0.100217 0.003049 0.183528 -0.041706 0.236156 0.085675 0.137039 0.060311 0.333698 0.097181 -0.111091 
vehicula 0.026142 -0.296336 0.126602 -0.332455 -0.082353 -0.100733 -0.104821 -0.184181 -0.056218 0.203198 -0.026953 0.410169 -0.434922 -0.091827 0.160546 0.456602 0.254228 0.025947 0.120749 0.051753 0.038578 0.251712 0.110290 -0.173857 -0.101896 -0.240564 0.091546 0.036965 0.317676 0.196897 -0.110418 -0.151564 -0.330245 0.235512 0.032513 -0.060715 0.185069 -0.112615 0.006119 -0.082442 -0.276548 0.221963 -0.339995 -0.075119 0.185018 0.191197 0.074904 0.200792 -0.148187 -0.229076 0.068525 -0.214329 0.115800 0.054302 -0.050699 0.074065 0.348544 0.034665 -0.130800 -0.162924 0.179567 -0.185539 -0.086732 -0.203680 -0.205157 0.278542 0.055834 -0.226920 0.235274 0.055134 -0.214506 0.004691 0.127395 -0.073172 -0.211222 0.085118 -0.199581 -0.108563 -0.238309 -0.356584 0.077997 0.016285 0.072843 -0.094956 0.085268 0.348745 -0.022069 -0.092557 0.302651 -0.134834 0.016112 0.192705 -0.046921 0.246286 0.112137 0.164174 0.083003 0.380466 0.125433 -0.125215 
nulla 0.024359 -0.254458 0.102460 -0.276311 -0.065392 -0.088337 -0.089882 -0.146861 -0.038892 0.167877 -0.023347 0.361356 -0.382005 -0.069485 0.124373 0.397324 0.221659 0.024152 0.111688 0.039690 0.027446 0.217916 0.090426 -0.146055 -0.083952 -0.206610 0.084193 0.034971 0.278115 0.183684 -0.090543 -0.127080 -0.290779 0.212965 0.026968 -0.046295 0.164009 -0.103483 0.008085 -0.071804 -0.247443 0.199326 -0.310589 -0.066539 0.154778 0.167028 0.067233 0.177628 -0.117020 -0.196416 0.058492 -0.178399 0.097552 0.044624 -0.040329 0.072510 0.294844 0.035007 -0.114099 -0.133022 0.162394 -0.164393 -0.069882 -0.170265 -0.179153 0.235424 0.041760 -0.189683 0.204807 0.051612 -0.179299 0.008306 0.107122 -0.070822 -0.182920 0.076673 -0.170854 -0.083080 -0.198758 -0.296043 0.065044 0.020018 0.061539 -0.083934 0.079921 0.290406 -0.009994 -0.074961 0.253339 -0.124701 0.016647 0.160262 -0.039174 0.210773 0.090684 0.144836 0.061008 0.328710 0.109649 -0.108538 
dapibus 0.039368 -0.287575 0.121691 -0.327742 -0.074443 -0.092988 -0.097806 -0.166455 -0.056465 0.201564 -0.012587 0.382924 -0.422574 -0.077857 0.151862 0.432237 0.250337 0.030775 0.123846 0.058084 0.038379 0.233389 0.106965 -0.162927 -0.096343 -0.216224 0.092799 0.035627 0.286487 0.181395 -0.104122 -0.132960 -0.308766 0.221769 0.030135 -0.052596 0.161720 -0.113766 0.011496 -0.072233 -0.265072 0.199829 -0.334677 -0.064954 0.168596 0.185965 0.060276 0.177140 -0.134892 -0.210245 0.072138 -0.203483 0.111459 0.052842 -0.047200 0.064742 0.328094 0.033457 -0.126686 -0.149425 0.175791 -0.166439 -0.084528 -0.186980 -0.189866 0.268617 0.052520 -0.211131 0.230470 0.055988 -0.199238 0.005187 0.120030 -0.079327 -0.183596 0.075679 -0.189914 -0.097054 -0.217502 -0.329155 0.082501 0.021992 0.063984 -0.082589 0.088081 0.317770 -0.015806 -0.086447 0.277029 -0.126047 0.020525 0.180399 -0.031359 0.222888 0.094126 0.143881 0.076290 0.345795 0.117684 -0.118119 
volutpat 0.015707 -0.274159 0.118501 -0.306167 -0.065111 -0.083267 -0.096998 -0.168488 -0.049636 0.188637 -0.024924 0.381408 -0.404946 -0.079764 0.138992 0.428483 0.248044 0.034858 0.117666 0.042157 0.037519 0.235111 0.102111 -0.154685 -0.092544 -0.219138 0.093945 0.044262 0.288962 0.180749 -0.100576 -0.129579 -0.308647 0.228078 0.032113 -0.056481 0.171314 -0.110914 0.008124 -0.072790 -0.257888 0.215380 -0.320721 -0.064732 0.169642 0.179979 0.076317 0.191744 -0.135078 -0.218626 0.066800 -0.200269 0.106281 0.055624 -0.040547 0.073732 0.328831 0.033189 -0.123455 -0.146082 0.168278 -0.180871 -0.077370 -0.187658 -0.190556 0.253746 0.056198 -0.204289 0.228497 0.058118 -0.209050 0.001207 0.123666 -0.078131 -0.183448 0.077778 -0.192010 -0.097173 -0.223612 -0.321690 0.076011 0.015335 0.062463 -0.092291 0.080075 0.322546 -0.010752 -0.086853 0.275508 -0.124128 0.020188 0.172722 -0.037422 0.230571 0.106238 0.159956 0.078442 0.351111 0.119429 -0.118970 
laoreet 0.023570 -0.242552 0.101629 -0.281093 -0.065110 -0.081618 -0.096271 -0.145695 -0.051000 0.171466 -0.011655 0.354580 -0.373804 -0.086761 0.132715 0.412738 0.231560 0.033609 0.106784 0.045529 0.047836 0.226408 0.112253 -0.161754 -0.087670 -0.222974 0.091069 0.035420 0.284882 0.173716 -0.100230 -0.131886 -0.292695 0.198795 0.031578 -0.043806 0.169169 -0.100113 0.012045 -0.061929 -0.229757 0.211688 -0.313267 -0.068215 0.167124 0.169495 0.073103 0.175283 -0.125032 -0.201446 0.068490 -0.188921 0.100808 0.059029 -0.035349 0.057284 0.316905 0.029204 -0.124407 -0.156925 0.167554 -0.181201 -0.089612 -0.178307 -0.191250 0.254434 0.054485 -0.197160 0.205720 0.046158 -0.191134 0.013298 0.115114 -0.073552 -0.174169 0.076486 -0.195215 -0.103631 -0.229274 -0.301576 0.075653 0.012465 0.057704 -0.097500 0.071588 0.315928 -0.018054 -0.073421 0.277314 -0.113026 0.000516 0.172494 -0.035875 0.227828 0.094500 0.147320 0.073785 0.336542 0.102439 -0.114422 
ligula 0.021823 -0.279320 0.112223 -0.314118 -0.076989 -0.090425 -0.092479 -0.165608 -0.060324 0.187309 -0.016542 0.378216 -0.401097 -0.081546 0.152352 0.440894 0.242459 0.035767 0.115181 0.043141 0.043162 0.247735 0.107960 -0.167266 -0.093314 -0.227467 0.103838 0.041976 0.288642 0.184033 -0.101936 -0.139856 -0.311927 0.218825 0.023258 -0.056199 0.165857 -0.103676 0.009237 -0.075099 -0.249040 0.205076 -0.325106 -0.064118 0.169832 0.183260 0.069670 0.192223 -0.120430 -0.215884 0.071591 -0.207024 0.099204 0.056857 -0.043040 0.068506 0.329434 0.025345 -0.130438 -0.153447 0.177397 -0.173924 -0.083454 -0.185583 -0.201183 0.260198 0.057432 -0.218333 0.218818 0.050784 -0.201337 0.013281 0.111398 -0.075586 -0.184565 0.074386 -0.195196 -0.098269 -0.223710 -0.317712 0.082683 0.007079 0.052428 -0.091136 0.087809 0.332196 -0.014999 -0.077274 0.289804 -0.124316 0.020380 0.182669 -0.031269 0.232669 0.107480 0.158206 0.072300 0.356583 0.116072 -0.119309 
erat 0.022665 -0.269378 0.114818 -0.302595 -0.074674 -0.093207 -0.098666 -0.156202 -0.052705 0.193853 -0.010687 0.364099 -0.404840 -0.075352 0.145273 0.434095 0.230267 0.037679 0.112168 0.044095 0.038890 0.226991 0.102910 -0.160752 -0.089008 -0.216472 0.089254 0.038946 0.278351 0.183677 -0.093157 -0.134878 -0.301267 0.212650 0.029320 -0.051120 0.161728 -0.098084 0.012964 -0.080315 -0.241689 0.198488 -0.314724 -0.064281 0.165357 0.171027 0.066527 0.186941 -0.128727 -0.212013 0.068509 -0.195025 0.103269 0.056389 -0.045932 0.057571 0.317990 0.039399 -0.119924 -0.141672 0.166543 -0.168943 -0.078612 -0.184986 -0.187171 0.247792 0.047863 -0.216506 0.216293 0.057934 -0.186378 0.011301 0.105133 -0.072728 -0.192733 0.077455 -0.180334 -0.090982 -0.213463 -0.317514 0.085732 0.006723 0.061702 -0.087834 0.088048 0.319169 -0.026346 -0.089378 0.274737 -0.122720 0.022590 0.176510 -0.033745 0.220264 0.103159 0.153966 0.077964 0.354930 0.113616 -0.111625 
Nulla 0.030647 -0.313669 0.137657 -0.359232 -0.087290 -0.105930 -0.108734 -0.178915 -0.072163 0.218855 -0.018813 0.435993 -0.460660 -0.096808 0.173753 0.491431 0.278303 0.039698 0.130801 0.055875 0.037843 0.270667 0.126768 -0.183087 -0.100812 -0.243257 0.106465 0.041715 0.318239 0.195856 -0.102666 -0.137510 -0.335338 0.226243 0.038308 -0.064284 0.186949 -0.108524 0.007653 -0.080956 -0.276548 0.223787 -0.350854 -0.078131 0.185614 0.199196 0.073797 0.194653 -0.137652 -0.222358 0.070728 -0.219326 0.116663 0.064133 -0.053203 0.070466 0.347386 0.027902 -0.126239 -0.160549 0.181613 -0.175252 -0.090094 -0.202487 -0.213397 0.277811 0.062433 -0.226417 0.244198 0.059569 -0.216187 0.009059 0.124483 -0.076184 -0.200022 0.086562 -0.196694 -0.107002 -0.236678 -0.352815 0.075281 0.016982 0.065992 -0.094113 0.084285 0.347995 -0.011005 -0.091171 0.299335 -0.134187 0.022358 0.202744 -0.035054 0.240636 0.108935 0.174492 0.087581 0.388689 0.122768 -0.128391 
lectus 0.022409 -0.258627 0.107858 -0.292439 -0.073706 -0.083502 -0.088829 -0.158718 -0.060315 0.180580 -0.013916 0.363745 -0.384154 -0.085112 0.138922 0.412429 0.222117 0.032064 0.107022 0.040620 0.037795 0.209105 0.096763 -0.146570 -0.087695 -0.203540 0.081368 0.039452 0.261210 0.167652 -0.094417 -0.127621 -0.278024 0.198052 0.019536 -0.050892 0.160263 -0.100379 0.007215 -0.065355 -0.224514 0.198712 -0.306908 -0.066255 0.151753 0.161493 0.060122 0.170448 -0.127504 -0.203682 0.062624 -0.183727 0.090891 0.046205 -0.034835 0.056372 0.297703 0.020397 -0.122664 -0.149956 0.152898 -0.152584 -0.078072 -0.171798 -0.183614 0.239304 0.046263 -0.200198 0.202842 0.047584 -0.183146 0.015177 0.114495 -0.067768 -0.173996 0.069204 -0.175138 -0.094015 -0.211816 -0.299414 0.076916 0.011808 0.054872 -0.080330 0.078298 0.303158 -0.013809 -0.074783 0.278980 -0.115329 0.020182 0.170458 -0.037521 0.208849 0.099431 0.153426 0.077785 0.334756 0.108128 -0.114988 
Fusce 0.016448 -0.251109 0.107867 -0.279137 -0.061913 -0.083247 -0.096886 -0.151205 -0.050191 0.170877 -0.021073 0.348198 -0.377124 -0.066542 0.131914 0.401264 0.223545 0.030114 0.102739 0.031307 0.035744 0.222052 0.097781 -0.148706 -0.082061 -0.202572 0.083617 0.038625 0.268764 0.170855 -0.086389 -0.115917 -0.278708 0.194782 0.031143 -0.055332 0.159869 -0.091688 0.007282 -0.072316 -0.233729 0.189293 -0.287761 -0.061073 0.160619 0.166866 0.066995 0.172605 -0.122626 -0.187936 0.056867 -0.184767 0.104305 0.056272 -0.046349 0.065345 0.295855 0.024607 -0.104555 -0.140085 0.150532 -0.148378 -0.068341 -0.163959 -0.179119 0.237925 0.052417 -0.192450 0.202781 0.048947 -0.184444 0.009903 0.104272 -0.067462 -0.165810 0.080841 -0.164008 -0.082847 -0.207030 -0.290913 0.063613 0.008573 0.058447 -0.080579 0.079839 0.288388 -0.011540 -0.075026 0.252482 -0.107920 0.018327 0.167289 -0.038992 0.197035 0.091607 0.155050 0.066009 0.320972 0.120051 -0.109461 
lorem 0.024603 -0.232753 0.103764 -0.268039 -0.053656 -0.077398 -0.084061 -0.136131 -0.050297 0.157217 -0.017601 0.315244 -0.335037 -0.068106 0.122884 0.376344 0.208844 0.035666 0.092075 0.033151 0.038559 0.198989 0.096905 -0.139182 -0.070752 -0.188557 0.079368 0.026374 0.246753 0.155593 -0.081080 -0.116156 -0.252202 0.187120 0.023626 -0.042107 0.152126 -0.086621 0.008382 -0.064623 -0.204008 0.179282 -0.266556 -0.060907 0.143612 0.153145 0.048211 0.153440 -0.109412 -0.178217 0.055191 -0.160448 0.076916 0.044719 -0.026591 0.046812 0.265653 0.020112 -0.112493 -0.118253 0.139345 -0.142294 -0.069575 -0.157777 -0.154170 0.209936 0.041897 -0.173254 0.184909 0.040587 -0.158743 0.016282 0.088945 -0.052696 -0.152767 0.063852 -0.151965 -0.075548 -0.186590 -0.259989 0.068079 0.007295 0.052170 -0.068378 0.067739 0.270978 -0.016710 -0.064117 0.245375 -0.097659 0.015232 0.156437 -0.023652 0.185174 0.084694 0.122689 0.057802 0.296323 0.098580 -0.094509 
viverra 0.032083 -0.284510 0.125995 -0.321341 -0.077455 -0.101044 -0.091276 -0.169206 -0.061950 0.201615 -0.020609 0.384605 -0.426385 -0.086521 0.157419 0.453804 0.252689 0.037475 0.123610 0.057622 0.052601 0.246953 0.108267 -0.170269 -0.094997 -0.227868 0.100357 0.048090 0.298234 0.191693 -0.109718 -0.147883 -0.330150 0.237456 0.033760 -0.056480 0.181927 -0.110083 -0.000126 -0.084948 -0.278057 0.216809 -0.354126 -0.069037 0.188179 0.194305 0.079710 0.203202 -0.134005 -0.228758 0.066164 -0.213135 0.111283 0.062482 -0.049267 0.065286 0.351569 0.033083 -0.137437 -0.155541 0.194953 -0.187425 -0.086859 -0.195969 -0.208987 0.275100 0.069379 -0.223293 0.245106 0.060088 -0.213438 0.012083 0.127376 -0.079465 -0.202166 0.091911 -0.204141 -0.111458 -0.243971 -0.354718 0.085817 0.012170 0.060092 -0.103349 0.088135 0.349692 -0.019386 -0.095673 0.309040 -0.135328 0.018081 0.190818 -0.039259 0.252911 0.109143 0.170186 0.080586 0.386051 0.132486 -0.129748 
Etiam 0.027229 -0.286423 0.124552 -0.314468 -0.068275 -0.089191 -0.100820 -0.171412 -0.055039 0.193537 -0.022384 0.403071 -0.418633 -0.085673 0.155429 0.452145 0.250199 0.029349 0.112946 0.041241 0.037776 0.247124 0.115199 -0.166766 -0.089197 -0.226890 0.098304 0.037957 0.308155 0.187820 -0.103490 -0.136481 -0.318342 0.220989 0.038687 -0.058332 0.183447 -0.101306 0.017535 -0.067465 -0.260978 0.218531 -0.330824 -0.067411 0.168824 0.188340 0.063153 0.191218 -0.127850 -0.221636 0.057235 -0.200469 0.109040 0.059508 -0.048556 0.062932 0.325210 0.028047 -0.118096 -0.145971 0.162120 -0.165612 -0.079873 -0.189467 -0.194097 0.269260 0.049898 -0.210676 0.222805 0.054472 -0.196816 0.014274 0.126282 -0.069447 -0.189528 0.082414 -0.190952 -0.091110 -0.225345 -0.328843 0.071148 0.014822 0.070227 -0.081358 0.082172 0.320428 -0.020930 -0.078572 0.275538 -0.125324 0.015481 0.190255 -0.034172 0.230167 0.095012 0.165808 0.076330 0.356165 0.124080 -0.122668 
pellentesque 0.035162 -0.300393 0.132138 -0.331478 -0.076436 -0.089330 -0.104130 -0.169910 -0.068979 0.199975 -0.017279 0.405169 -0.425148 -0.093309 0.159970 0.444969 0.254694 0.031831 0.121419 0.049313 0.044458 0.237654 0.112403 -0.169685 -0.097288 -0.224584 0.092394 0.039139 0.285840 0.175212 -0.105050 -0.131110 -0.320571 0.231119 0.037544 -0.053989 0.173408 -0.113429 0.008397 -0.074476 -0.275377 0.213616 -0.343056 -0.065698 0.179565 0.190148 0.075191 0.199402 -0.134764 -0.225219 0.077951 -0.207330 0.107646 0.053333 -0.042666 0.074599 0.343716 0.029611 -0.136437 -0.153084 0.182658 -0.167920 -0.084362 -0.197883 -0.187100 0.278699 0.050555 -0.215446 0.227598 0.053537 -0.204540 -0.000790 0.123953 -0.071570 -0.201039 0.073572 -0.192275 -0.103038 -0.216746 -0.333857 0.081662 0.016746 0.058488 -0.080938 0.085892 0.335949 -0.024734 -0.082973 0.289677 -0.133775 0.017215 0.189992 -0.040771 0.243999 0.102272 0.162706 0.079732 0.375642 0.119605 -0.123845 
aliquet 0.027926 -0.263538 0.118923 -0.288770 -0.071738 -0.082726 -0.097483 -0.153590 -0.058391 0.174409 -0.017285 0.360822 -0.379907 -0.079037 0.142831 0.410826 0.230085 0.033675 0.114045 0.037825 0.032520 0.230801 0.101442 -0.154544 -0.085677 -0.205303 0.084903 0.037574 0.269930 0.176156 -0.090706 -0.124414 -0.290478 0.212019 0.035095 -0.047598 0.164087 -0.096706 0.009772 -0.070896 -0.242961 0.203358 -0.313266 -0.068688 0.160236 0.167782 0.067416 0.174747 -0.132037 -0.206557 0.062458 -0.189433 0.105931 0.054855 -0.036684 0.067185 0.314880 0.031673 -0.115177 -0.143147 0.163652 -0.169550 -0.077544 -0.181056 -0.177525 0.252758 0.053185 -0.191506 0.219320 0.054844 -0.194965 0.010204 0.113683 -0.072516 -0.182823 0.070702 -0.185501 -0.093775 -0.223266 -0.318281 0.064556 0.019490 0.052691 -0.087292 0.084563 0.321168 -0.017011 -0.082735 0.277168 -0.123959 0.009715 0.168886 -0.030708 0.228256 0.097754 0.150539 0.077173 0.341246 0.118388 -0.118184 
quam 0.015792 -0.253328 0.118113 -0.283412 -0.063943 -0.086683 -0.083783 -0.157877 -0.043967 0.167107 -0.018960 0.347436 -0.381705 -0.076255 0.137599 0.400308 0.218207 0.022440 0.104471 0.042458 0.026375 0.210166 0.091964 -0.140453 -0.080313 -0.200296 0.091319 0.035097 0.264900 0.172958 -0.093372 -0.123516 -0.275025 0.193082 0.026741 -0.062108 0.149759 -0.095009 0.011878 -0.071947 -0.240688 0.183752 -0.290809 -0.061787 0.147407 0.160824 0.057157 0.167056 -0.116294 -0.197089 0.053110 -0.178505 0.094518 0.049251 -0.043437 0.051504 0.297698 0.027944 -0.110971 -0.138336 0.148917 -0.149926 -0.068052 -0.166672 -0.177249 0.232391 0.048797 -0.197974 0.200293 0.044761 -0.176210 0.002070 0.111027 -0.067269 -0.180414 0.065179 -0.166407 -0.075999 -0.203458 -0.302996 0.075332 0.019393 0.058310 -0.077275 0.072108 0.296724 -0.017588 -0.082723 0.257168 -0.118609 0.028860 0.162835 -0.038354 0.207671 0.094876 0.149600 0.069170 0.327663 0.112567 -0.107642 
